{"type":"LSTM","options":{"inputSize":32,"inputRange":32,"hiddenLayers":[20,20],"outputSize":32,"decayRate":0.999,"smoothEps":1e-8,"regc":0.000001,"clipval":5,"maxPredictionLength":100,"dataFormatter":{"values":["Hello How are you","Greeting","Hello Good morning","Hi!","Good evening","The world is a terrible place!","Sad","I dont feel good about this","I feel terrible","I feel bad today","Thankyou","Happy","That sounds good","The weather feels beautiful today"],"indexTable":{"H":0,"e":1,"l":2,"o":3," ":4,"w":5,"a":6,"r":7,"y":8,"u":9,"G":10,"t":11,"i":12,"n":13,"g":14,"d":15,"m":16,"!":17,"v":18,"T":19,"h":20,"s":21,"b":22,"p":23,"c":24,"S":25,"I":26,"f":27,"k":28,"stop-input":29,"start-output":30,"unrecognized":31},"characterTable":{"0":"H","1":"e","2":"l","3":"o","4":" ","5":"w","6":"a","7":"r","8":"y","9":"u","10":"G","11":"t","12":"i","13":"n","14":"g","15":"d","16":"m","17":"!","18":"v","19":"T","20":"h","21":"s","22":"b","23":"p","24":"c","25":"S","26":"I","27":"f","28":"k","29":null,"30":null,"31":null},"characters":["H","e","l","o"," ","w","a","r","y","u","G","t","i","n","g","d","m","!","v","T","h","s","b","p","c","S","I","f","k","stop-input","start-output","unrecognized"],"specialIndexes":[29,30,31]}},"input":{"rows":33,"columns":32,"weights":{"0":-0.8636881113052368,"1":-1.410194754600525,"2":-0.03188902884721756,"3":-1.3291215896606445,"4":-0.20119686424732208,"5":-0.3175431489944458,"6":-1.382111668586731,"7":-1.90389084815979,"8":0.4903442859649658,"9":-0.5261841416358948,"10":0.4257550835609436,"11":0.7235455513000488,"12":-0.1700189858675003,"13":-0.6179836988449097,"14":1.2572826147079468,"15":-0.4506528973579407,"16":0.5016260147094727,"17":-0.47823023796081543,"18":0.5644843578338623,"19":0.8953357338905334,"20":0.247225821018219,"21":1.676479697227478,"22":-0.21741722524166107,"23":1.2316372394561768,"24":1.2517198324203491,"25":0.9212227463722229,"26":-0.6347483992576599,"27":0.3260968327522278,"28":-0.17637178301811218,"29":-0.7743135094642639,"30":1.8666421175003052,"31":-0.582397997379303,"32":-2.0311989784240723,"33":-3.950740337371826,"34":-1.4184448719024658,"35":-1.0479172468185425,"36":1.6867680549621582,"37":-3.0401532649993896,"38":2.188356399536133,"39":5.515379428863525,"40":0.6677467226982117,"41":1.81465744972229,"42":-1.7294105291366577,"43":-1.5107380151748657,"44":0.3063153624534607,"45":-2.901348829269409,"46":-3.1349897384643555,"47":1.7622395753860474,"48":-1.863748550415039,"49":0.5902701616287231,"50":-1.9588987827301025,"51":-1.5183629989624023,"52":0.9645776152610779,"53":-3.329646587371826,"54":-0.9057458639144897,"55":-0.39269396662712097,"56":1.7069958448410034,"57":-1.300667405128479,"58":0.09060230106115341,"59":1.1492105722427368,"60":-1.3709019422531128,"61":-2.278510808944702,"62":0.452038437128067,"63":3.9726970195770264,"64":1.4820679426193237,"65":-1.1085517406463623,"66":-0.43600741028785706,"67":-0.3505702614784241,"68":-0.5369086265563965,"69":-0.46540746092796326,"70":0.6206295490264893,"71":2.5141260623931885,"72":-0.2003706693649292,"73":-0.5817946791648865,"74":-3.099606990814209,"75":0.5340921878814697,"76":-0.7260620594024658,"77":-0.653460681438446,"78":-1.1356992721557617,"79":-0.263949453830719,"80":-0.06959575414657593,"81":-0.626143753528595,"82":0.3421730399131775,"83":-0.9952759146690369,"84":0.516817569732666,"85":-1.8721290826797485,"86":0.7714760303497314,"87":-2.374950885772705,"88":1.4044946432113647,"89":-2.290189743041992,"90":-1.4475817680358887,"91":-0.6695991158485413,"92":1.2300009727478027,"93":2.8393797874450684,"94":-0.3554336130619049,"95":-0.9104779362678528,"96":-0.5177989602088928,"97":-1.8165165185928345,"98":0.2707735598087311,"99":1.3281978368759155,"100":0.1932768076658249,"101":-2.4755208492279053,"102":-0.29472726583480835,"103":2.609713315963745,"104":0.22707533836364746,"105":-1.6382091045379639,"106":-1.656491756439209,"107":-1.401131510734558,"108":1.1456918716430664,"109":-1.8026680946350098,"110":0.35074904561042786,"111":0.6934473514556885,"112":2.3996639251708984,"113":0.7589592933654785,"114":-0.5446577668190002,"115":-0.42361167073249817,"116":0.671129584312439,"117":-0.500774085521698,"118":-3.3924167156219482,"119":-0.7517024278640747,"120":2.0067975521087646,"121":-1.5400468111038208,"122":1.046944499015808,"123":-1.9034628868103027,"124":2.3177547454833984,"125":1.9185435771942139,"126":0.6085895895957947,"127":0.6932482123374939,"128":1.2376859188079834,"129":0.9227938652038574,"130":-0.2033763974905014,"131":0.8196736574172974,"132":1.0629395246505737,"133":0.5020968914031982,"134":-0.5604180693626404,"135":1.3292981386184692,"136":-0.12232624739408493,"137":-1.05194091796875,"138":-1.4309102296829224,"139":-0.716300904750824,"140":-0.4879889190196991,"141":0.6530852913856506,"142":0.7859187126159668,"143":1.423591136932373,"144":-0.09159566462039948,"145":0.3159169554710388,"146":0.47105520963668823,"147":0.9742881059646606,"148":-0.6500337719917297,"149":-0.27525031566619873,"150":1.1052018404006958,"151":-1.2141326665878296,"152":-1.1676607131958008,"153":-0.6706138849258423,"154":2.0636279582977295,"155":-0.46766197681427,"156":0.8031866550445557,"157":1.0001764297485352,"158":-2.309243679046631,"159":0.40009045600891113,"160":1.0626893043518066,"161":1.0248976945877075,"162":0.7997485399246216,"163":0.5549710988998413,"164":-0.043918315321207047,"165":0.3189450800418854,"166":-0.03988826274871826,"167":0.39813432097435,"168":1.1750317811965942,"169":-1.3236862421035767,"170":-0.6778856515884399,"171":-1.2487990856170654,"172":-0.6832128763198853,"173":1.3943378925323486,"174":2.373095750808716,"175":0.6676209568977356,"176":-0.12596236169338226,"177":-0.34433481097221375,"178":0.7041416764259338,"179":1.2953240871429443,"180":-1.396237850189209,"181":-0.30228644609451294,"182":0.21313941478729248,"183":-0.17564177513122559,"184":-1.184157371520996,"185":-0.8259892463684082,"186":1.5801154375076294,"187":-0.5337148904800415,"188":0.39721792936325073,"189":0.034791458398103714,"190":-1.4516477584838867,"191":1.3987497091293335,"192":-3.4068520069122314,"193":0.1493348479270935,"194":3.6373848915100098,"195":-1.3942177295684814,"196":2.529322624206543,"197":2.2294390201568604,"198":0.2966557741165161,"199":-2.1336162090301514,"200":-2.138930320739746,"201":-2.13370943069458,"202":2.4406983852386475,"203":3.5065464973449707,"204":-0.9756875038146973,"205":0.794782280921936,"206":-2.8133487701416016,"207":-1.9178800582885742,"208":-2.0690388679504395,"209":3.1067280769348145,"210":-0.6172316670417786,"211":-2.5583856105804443,"212":-0.465130090713501,"213":2.5681800842285156,"214":0.8958885669708252,"215":2.2638556957244873,"216":-2.013914108276367,"217":1.9902522563934326,"218":-2.6880428791046143,"219":0.7169904112815857,"220":-0.7381240725517273,"221":0.9859809279441833,"222":-1.959506869316101,"223":-3.291684627532959,"224":-2.2997536659240723,"225":0.5365667343139648,"226":1.1433616876602173,"227":-0.27727776765823364,"228":0.21380943059921265,"229":1.3625637292861938,"230":-0.43727946281433105,"231":-0.06551939994096756,"232":0.04340190812945366,"233":1.5381343364715576,"234":1.7424430847167969,"235":-0.8787679076194763,"236":-1.3803719282150269,"237":1.7320458889007568,"238":0.5171191692352295,"239":-0.26533594727516174,"240":1.126135230064392,"241":-0.7167329788208008,"242":-2.366675853729248,"243":-0.0728481262922287,"244":-0.3189067542552948,"245":0.4241819381713867,"246":0.5586825609207153,"247":0.44700732827186584,"248":-0.30060693621635437,"249":1.1277215480804443,"250":-0.4162791073322296,"251":0.059498339891433716,"252":-0.14800910651683807,"253":0.11368048191070557,"254":-0.4042583703994751,"255":0.3069119453430176,"256":-2.2478580474853516,"257":-0.6721367239952087,"258":0.7664609551429749,"259":-2.3683619499206543,"260":0.22049230337142944,"261":-1.7462553977966309,"262":0.25552573800086975,"263":2.4283764362335205,"264":1.0320638418197632,"265":1.879806399345398,"266":1.3421096801757812,"267":-0.8664299249649048,"268":-0.9339631795883179,"269":-0.2699611485004425,"270":0.6144127249717712,"271":2.0113344192504883,"272":1.0353622436523438,"273":0.19235935807228088,"274":-3.099398374557495,"275":-0.5981491804122925,"276":-1.0137654542922974,"277":-0.6868477463722229,"278":0.732697069644928,"279":1.197331428527832,"280":-0.31275662779808044,"281":0.39214807748794556,"282":0.8689324855804443,"283":2.3818862438201904,"284":-1.63545823097229,"285":-0.9853722453117371,"286":-0.3121156096458435,"287":1.9442594051361084,"288":1.5502947568893433,"289":-0.6895216107368469,"290":-4.225000858306885,"291":-4.118008136749268,"292":-1.5167174339294434,"293":-2.7697741985321045,"294":2.4529621601104736,"295":-0.29594355821609497,"296":1.8368827104568481,"297":2.052365779876709,"298":-1.4785211086273193,"299":-0.35986635088920593,"300":1.8761876821517944,"301":-2.8624753952026367,"302":0.8114493489265442,"303":0.15240518748760223,"304":0.12152595818042755,"305":-0.11376630514860153,"306":-1.1484744548797607,"307":2.0672786235809326,"308":4.098045349121094,"309":-0.3037702143192291,"310":-2.675917387008667,"311":0.09631024301052094,"312":3.991020441055298,"313":-0.25489217042922974,"314":-1.9892256259918213,"315":2.0442402362823486,"316":-1.3897664546966553,"317":0.3641076683998108,"318":4.181418418884277,"319":0.5124305486679077,"320":2.4077086448669434,"321":5.354176044464111,"322":0.11183083057403564,"323":2.672996997833252,"324":0.18501658737659454,"325":3.292811155319214,"326":0.13586057722568512,"327":1.4239684343338013,"328":1.1262805461883545,"329":-2.3407506942749023,"330":-1.9881644248962402,"331":-0.9917489886283875,"332":1.2513442039489746,"333":4.1363396644592285,"334":-0.2863626182079315,"335":2.266116142272949,"336":-0.34044480323791504,"337":-0.9576310515403748,"338":-0.7141000032424927,"339":2.781035900115967,"340":0.03568260744214058,"341":-0.4340842068195343,"342":0.09479403495788574,"343":0.24992814660072327,"344":-2.2569692134857178,"345":-2.5033857822418213,"346":4.2337846755981445,"347":-2.667057514190674,"348":1.3591917753219604,"349":1.6697603464126587,"350":-1.8144185543060303,"351":0.4765803813934326,"352":2.8286585807800293,"353":1.9326002597808838,"354":-3.5381271839141846,"355":0.5326235294342041,"356":-2.3677711486816406,"357":-0.3714873492717743,"358":2.0103673934936523,"359":2.9291749000549316,"360":-2.064059019088745,"361":-1.0191298723220825,"362":-3.001126289367676,"363":0.7492510080337524,"364":-0.15239350497722626,"365":1.4490402936935425,"366":1.9131008386611938,"367":-0.12507207691669464,"368":-2.0619425773620605,"369":2.8827385902404785,"370":-2.8344593048095703,"371":1.1368132829666138,"372":0.9614731669425964,"373":0.9801828265190125,"374":0.7280392646789551,"375":-3.7736687660217285,"376":3.7120754718780518,"377":-2.177828073501587,"378":2.408442735671997,"379":0.49574291706085205,"380":0.4740094542503357,"381":3.2198944091796875,"382":2.7846195697784424,"383":-0.9028025269508362,"384":-1.9417071342468262,"385":-0.20197351276874542,"386":0.03982866555452347,"387":-1.452302098274231,"388":0.5549473762512207,"389":-0.32235199213027954,"390":0.4589965045452118,"391":-0.7983223795890808,"392":-0.8162369728088379,"393":0.5759879350662231,"394":1.0042192935943604,"395":-0.8203101754188538,"396":0.1867561638355255,"397":-0.2810323238372803,"398":0.2221488654613495,"399":-0.21694667637348175,"400":1.3574354648590088,"401":-0.14508575201034546,"402":-0.9881611466407776,"403":1.661733865737915,"404":0.36606889963150024,"405":1.2533403635025024,"406":0.11651364713907242,"407":0.4760775864124298,"408":0.3905760943889618,"409":1.3821299076080322,"410":0.2939598858356476,"411":0.9243730902671814,"412":-0.7927577495574951,"413":0.2601361572742462,"414":0.8567867875099182,"415":0.34863901138305664,"416":-0.5229723453521729,"417":-1.0038626194000244,"418":-0.9802205562591553,"419":0.023310039192438126,"420":-2.076422691345215,"421":-1.7472848892211914,"422":-0.011471090838313103,"423":-0.36543741822242737,"424":-0.8488723039627075,"425":-0.030092645436525345,"426":2.0114223957061768,"427":1.4346884489059448,"428":0.42230984568595886,"429":-1.247173547744751,"430":1.0153818130493164,"431":-0.4440656304359436,"432":1.7572579383850098,"433":1.2681623697280884,"434":0.3841622471809387,"435":-1.0747467279434204,"436":0.1116846352815628,"437":2.4566054344177246,"438":-0.2541435658931732,"439":-0.5114349126815796,"440":0.6816579103469849,"441":0.6611422896385193,"442":0.774565577507019,"443":1.4910331964492798,"444":-0.1835387498140335,"445":-1.3892874717712402,"446":0.7598456740379333,"447":-1.4898107051849365,"448":0.883721113204956,"449":1.7704243659973145,"450":0.6045723557472229,"451":1.5109249353408813,"452":-1.0958034992218018,"453":1.6529871225357056,"454":-2.689884901046753,"455":-1.49413001537323,"456":-0.573142945766449,"457":0.584362804889679,"458":1.292235255241394,"459":0.05067068710923195,"460":-0.785247266292572,"461":2.8110601902008057,"462":-0.22213971614837646,"463":-1.8992547988891602,"464":0.8089795708656311,"465":-1.498320460319519,"466":0.1490996927022934,"467":0.8398281335830688,"468":-0.728144109249115,"469":-0.43436312675476074,"470":3.463024377822876,"471":1.5610287189483643,"472":-1.1161956787109375,"473":0.6243171095848083,"474":0.5750033855438232,"475":-1.7415794134140015,"476":1.065132737159729,"477":1.1554830074310303,"478":-0.4068329632282257,"479":-1.8349089622497559,"480":0.750853419303894,"481":-0.5949023962020874,"482":-0.04375426843762398,"483":2.3984920978546143,"484":0.8781827688217163,"485":-0.720174252986908,"486":-0.9365811944007874,"487":2.431039571762085,"488":-1.1318259239196777,"489":-3.784296751022339,"490":-1.5333070755004883,"491":2.3748178482055664,"492":0.8737598061561584,"493":-2.580843448638916,"494":1.8812013864517212,"495":-0.5030710697174072,"496":0.5025742650032043,"497":0.13463297486305237,"498":2.187194585800171,"499":-1.9024814367294312,"500":1.1372623443603516,"501":-2.1588737964630127,"502":0.08791158348321915,"503":0.18907403945922852,"504":0.6782802939414978,"505":-1.7574591636657715,"506":0.6922106146812439,"507":-1.3491891622543335,"508":3.1643974781036377,"509":0.2541051208972931,"510":1.665042519569397,"511":-1.2961233854293823,"512":-0.04672982171177864,"513":-2.6383492946624756,"514":-0.6353132724761963,"515":1.8385316133499146,"516":2.182969093322754,"517":-1.0691752433776855,"518":-2.5701913833618164,"519":-0.16517940163612366,"520":0.6437665820121765,"521":-1.6656335592269897,"522":0.05662063881754875,"523":0.9667075872421265,"524":2.075151205062866,"525":-0.8616304993629456,"526":2.73128604888916,"527":2.08095121383667,"528":1.4439324140548706,"529":-0.4729878008365631,"530":1.5382176637649536,"531":-0.8524976372718811,"532":1.429062843322754,"533":-1.8252865076065063,"534":-1.372365951538086,"535":0.9835111498832703,"536":1.1125279664993286,"537":-0.6944904327392578,"538":1.0987176895141602,"539":-1.0645463466644287,"540":1.0067369937896729,"541":0.2910843789577484,"542":0.7723074555397034,"543":1.2303935289382935,"544":-4.398447036743164,"545":0.6190130710601807,"546":3.3123860359191895,"547":13.688206672668457,"548":-3.459929943084717,"549":2.578516960144043,"550":-3.9288980960845947,"551":2.5120115280151367,"552":-4.710744380950928,"553":-6.23160982131958,"554":0.4163760840892792,"555":4.445276737213135,"556":-0.08698587119579315,"557":0.16175402700901031,"558":-0.34419968724250793,"559":-7.343832015991211,"560":-3.093867540359497,"561":-0.2267705649137497,"562":-1.481335997581482,"563":3.8362460136413574,"564":2.3321690559387207,"565":-0.5784142017364502,"566":0.7142969369888306,"567":5.758022785186768,"568":0.8844411969184875,"569":0.18348324298858643,"570":-0.7214746475219727,"571":-8.64261531829834,"572":6.881992816925049,"573":4.028566837310791,"574":0.3887496292591095,"575":-3.246572971343994,"576":2.7165303230285645,"577":2.5567498207092285,"578":2.9502198696136475,"579":5.0015869140625,"580":4.1689133644104,"581":4.896380424499512,"582":-2.7246599197387695,"583":-1.614214539527893,"584":-0.9223338961601257,"585":-4.559443950653076,"586":-1.6733382940292358,"587":-1.505719780921936,"588":1.574724793434143,"589":1.1171143054962158,"590":3.2761809825897217,"591":-1.309177041053772,"592":1.6233950853347778,"593":-4.71105432510376,"594":1.715933918952942,"595":1.7290760278701782,"596":1.4306426048278809,"597":-2.8316121101379395,"598":-1.9837008714675903,"599":2.1434056758880615,"600":0.1457616537809372,"601":-2.387155771255493,"602":-2.2520079612731934,"603":-5.172698974609375,"604":2.7643728256225586,"605":1.3836605548858643,"606":-1.9404809474945068,"607":-1.5889546871185303,"608":-2.227264642715454,"609":3.3725216388702393,"610":-1.7859290838241577,"611":-4.498093128204346,"612":-4.036567687988281,"613":0.6759392619132996,"614":6.373951435089111,"615":3.118180274963379,"616":-3.5198957920074463,"617":5.791945457458496,"618":2.923133373260498,"619":-5.4250311851501465,"620":0.6803557276725769,"621":4.074739933013916,"622":-4.606624603271484,"623":5.693406581878662,"624":-4.010286808013916,"625":1.083369493484497,"626":-7.279729843139648,"627":6.9152045249938965,"628":-0.08318901062011719,"629":-1.3239480257034302,"630":-2.685330867767334,"631":1.1408740282058716,"632":-1.4476090669631958,"633":-3.440467119216919,"634":0.5507621765136719,"635":3.9566750526428223,"636":-7.529499053955078,"637":3.1678595542907715,"638":-1.4579335451126099,"639":6.316623687744141,"640":-0.8182221055030823,"641":1.8538941144943237,"642":1.0925233364105225,"643":0.68353271484375,"644":-4.2634453773498535,"645":3.266798734664917,"646":3.813572406768799,"647":-3.245671510696411,"648":-2.8675589561462402,"649":0.29241618514060974,"650":1.7134068012237549,"651":1.3760815858840942,"652":-1.9693222045898438,"653":1.4675254821777344,"654":-3.0422463417053223,"655":-4.234007835388184,"656":-1.4013577699661255,"657":-0.7610332369804382,"658":-0.14063210785388947,"659":4.121688365936279,"660":-0.1596488356590271,"661":0.4002482295036316,"662":1.0581623315811157,"663":3.9678311347961426,"664":-0.4017656445503235,"665":0.7848449349403381,"666":-4.33134126663208,"667":-1.9258228540420532,"668":0.10835646837949753,"669":0.7795640826225281,"670":0.2804015576839447,"671":-2.9576804637908936,"672":0.20757532119750977,"673":-0.8310353755950928,"674":0.24223336577415466,"675":-0.6879911422729492,"676":0.5582868456840515,"677":-0.8815856575965881,"678":-1.1935890913009644,"679":2.1819522380828857,"680":2.706082582473755,"681":-1.208353042602539,"682":-1.0713257789611816,"683":-0.7472949624061584,"684":0.49226754903793335,"685":0.12486016750335693,"686":-0.31149718165397644,"687":3.2317912578582764,"688":4.176441669464111,"689":1.0007299184799194,"690":1.10075044631958,"691":-4.353602886199951,"692":-0.0880136713385582,"693":-0.19421665370464325,"694":1.8625284433364868,"695":-1.147672414779663,"696":0.7936814427375793,"697":-1.2439403533935547,"698":1.8023709058761597,"699":-1.6004282236099243,"700":1.8042082786560059,"701":0.20548592507839203,"702":-0.3399554491043091,"703":1.7789864540100098,"704":-0.9171187281608582,"705":2.092491865158081,"706":0.7804775834083557,"707":-1.370877981185913,"708":0.6995489001274109,"709":-2.4897265434265137,"710":-1.0759400129318237,"711":-0.7069615721702576,"712":2.914051055908203,"713":1.7410155534744263,"714":2.670273780822754,"715":-1.6245684623718262,"716":-1.0219860076904297,"717":-0.823786735534668,"718":2.1294379234313965,"719":3.112934112548828,"720":1.5128653049468994,"721":-0.27968913316726685,"722":-0.0742630660533905,"723":-0.893325924873352,"724":-2.9638071060180664,"725":2.2151129245758057,"726":-1.331087589263916,"727":-2.910757303237915,"728":-3.146657943725586,"729":1.7957031726837158,"730":2.0470142364501953,"731":1.5518643856048584,"732":-1.269944190979004,"733":-1.530479073524475,"734":-3.2474138736724854,"735":-0.29388487339019775,"736":1.569153070449829,"737":0.1140410453081131,"738":-1.2467608451843262,"739":0.9126299619674683,"740":3.9372646808624268,"741":0.5848420262336731,"742":-1.7100898027420044,"743":-0.8209347128868103,"744":1.026587963104248,"745":-2.9034290313720703,"746":-2.552642345428467,"747":-0.9015730023384094,"748":1.767715334892273,"749":0.03573772311210632,"750":2.1584272384643555,"751":0.11693885922431946,"752":0.8167899250984192,"753":-1.8995029926300049,"754":3.8283684253692627,"755":-0.568712055683136,"756":1.4432685375213623,"757":-1.6955633163452148,"758":0.5459619164466858,"759":0.34106481075286865,"760":0.13388533890247345,"761":-2.1245715618133545,"762":0.4377209544181824,"763":-2.128218650817871,"764":0.6243909597396851,"765":0.5135955214500427,"766":0.6182780265808105,"767":-0.1665445864200592,"768":-1.1674906015396118,"769":1.8155732154846191,"770":1.7085306644439697,"771":-2.921618938446045,"772":-1.8982170820236206,"773":-2.087337017059326,"774":2.7612521648406982,"775":1.0529093742370605,"776":2.9217989444732666,"777":-1.9680616855621338,"778":-1.6910641193389893,"779":-2.872645139694214,"780":-2.3119380474090576,"781":2.8759400844573975,"782":0.03399083763360977,"783":3.4835329055786133,"784":2.132904052734375,"785":0.15348267555236816,"786":-0.41572239995002747,"787":1.0254830121994019,"788":-0.9437978267669678,"789":0.6070877313613892,"790":2.2456746101379395,"791":0.46439146995544434,"792":-0.5518890619277954,"793":0.14712606370449066,"794":1.3553178310394287,"795":0.6702305674552917,"796":-1.1156361103057861,"797":3.1222221851348877,"798":-2.263596534729004,"799":3.650620460510254,"800":-6.688362121582031,"801":-2.852437973022461,"802":0.800868809223175,"803":-8.711641311645508,"804":3.509840965270996,"805":-2.911376714706421,"806":0.442812979221344,"807":-7.594888210296631,"808":-0.7919561862945557,"809":0.7315525412559509,"810":3.5502007007598877,"811":1.2741554975509644,"812":1.463087797164917,"813":-2.4032142162323,"814":-0.5183420181274414,"815":0.85831218957901,"816":1.0856847763061523,"817":-0.6498194336891174,"818":-1.8187257051467896,"819":3.0165841579437256,"820":-0.15566778182983398,"821":4.67985725402832,"822":0.3311627507209778,"823":3.822908878326416,"824":1.4783579111099243,"825":2.0012526512145996,"826":-4.377219200134277,"827":5.146663665771484,"828":-7.813301086425781,"829":-2.467473268508911,"830":2.9680604934692383,"831":3.2595667839050293,"832":-0.12895458936691284,"833":0.34367963671684265,"834":1.5203020572662354,"835":-0.14928647875785828,"836":0.9325734972953796,"837":0.029740750789642334,"838":2.2079484462738037,"839":-2.2690250873565674,"840":1.8560445308685303,"841":-1.0221058130264282,"842":-0.37105485796928406,"843":-1.5140844583511353,"844":1.8191099166870117,"845":-0.18917813897132874,"846":2.9795289039611816,"847":-1.2683203220367432,"848":4.917578220367432,"849":-1.0760577917099,"850":2.215712070465088,"851":1.6282285451889038,"852":1.1021360158920288,"853":0.6912758350372314,"854":-0.6794576644897461,"855":1.3604081869125366,"856":0.15367595851421356,"857":-1.4344812631607056,"858":-1.6176508665084839,"859":-0.7291169762611389,"860":1.3320337533950806,"861":0.9686998724937439,"862":0.20704710483551025,"863":-1.2206670045852661,"864":1.4570026397705078,"865":-1.6591063737869263,"866":-0.0622229129076004,"867":1.1093798875808716,"868":-0.05509144440293312,"869":-3.1798911094665527,"870":-2.8861398696899414,"871":1.5172111988067627,"872":5.530962944030762,"873":-1.0058921575546265,"874":-3.6118147373199463,"875":-2.1411705017089844,"876":-0.0327422171831131,"877":-1.1252933740615845,"878":4.060963153839111,"879":3.907996654510498,"880":-0.3387894332408905,"881":-2.0006940364837646,"882":0.5235276818275452,"883":-2.2114782333374023,"884":0.4711824953556061,"885":-6.351566791534424,"886":1.5753896236419678,"887":-0.07357531785964966,"888":1.4148470163345337,"889":0.7968618273735046,"890":0.3796403706073761,"891":-0.905674934387207,"892":-0.3500302731990814,"893":-2.630782127380371,"894":1.9450910091400146,"895":4.433948993682861,"896":-0.5587310791015625,"897":0.4248107671737671,"898":-1.524873971939087,"899":0.3622382879257202,"900":1.1238583326339722,"901":1.4712233543395996,"902":-0.9306896924972534,"903":-1.6755852699279785,"904":-0.18607696890830994,"905":-2.58964467048645,"906":-0.27370765805244446,"907":2.1419124603271484,"908":4.273287773132324,"909":0.18086135387420654,"910":1.644931674003601,"911":-2.853182077407837,"912":0.5547175407409668,"913":-1.0542924404144287,"914":1.6321046352386475,"915":-1.0931814908981323,"916":1.7205215692520142,"917":-0.2096390724182129,"918":0.36084818840026855,"919":1.136446475982666,"920":1.2882267236709595,"921":-0.7535001039505005,"922":-2.6168339252471924,"923":-0.741040825843811,"924":2.3346023559570312,"925":0.061376478523015976,"926":1.9771151542663574,"927":-3.3992862701416016,"928":2.2240407466888428,"929":4.585637092590332,"930":6.983992099761963,"931":0.2846487760543823,"932":4.0417962074279785,"933":2.6683335304260254,"934":-1.9090228080749512,"935":1.4711216688156128,"936":2.3277339935302734,"937":-4.136944770812988,"938":-5.028979301452637,"939":-4.3646769523620605,"940":-0.10874591022729874,"941":0.672874927520752,"942":2.67533016204834,"943":-1.721884846687317,"944":2.6863276958465576,"945":-4.126612663269043,"946":7.576729774475098,"947":-7.566088676452637,"948":-1.7247307300567627,"949":-2.792581796646118,"950":1.0712902545928955,"951":-1.344447374343872,"952":-6.059427261352539,"953":0.5769288539886475,"954":-2.863053798675537,"955":-2.485461711883545,"956":3.734757423400879,"957":-1.843522310256958,"958":-5.05859899520874,"959":-2.927560329437256,"960":0.6510545015335083,"961":-0.7266140580177307,"962":-2.9626336097717285,"963":-0.7476852536201477,"964":-1.7365399599075317,"965":-1.8992799520492554,"966":1.9892445802688599,"967":-0.09359943866729736,"968":-1.2533230781555176,"969":0.9767969846725464,"970":-0.4269905090332031,"971":1.2312278747558594,"972":0.3847372829914093,"973":-1.93421471118927,"974":-0.4689895212650299,"975":-0.6974692940711975,"976":-0.8689168095588684,"977":1.592544436454773,"978":-1.5701426267623901,"979":-0.7022027373313904,"980":1.346880316734314,"981":-0.2577098608016968,"982":-0.4371933043003082,"983":-0.4629327654838562,"984":1.9350043535232544,"985":-0.7204930186271667,"986":-1.5282185077667236,"987":1.0411149263381958,"988":-0.0569741316139698,"989":-0.590436577796936,"990":1.894310712814331,"991":-0.3290441930294037,"992":0.8462004065513611,"993":-0.36482465267181396,"994":-1.0565948486328125,"995":-0.04007256031036377,"996":-0.7303617000579834,"997":-0.816311240196228,"998":0.24412134289741516,"999":0.4294984042644501,"1000":0.667651355266571,"1001":-0.4049384295940399,"1002":-1.4551942348480225,"1003":-0.9584237933158875,"1004":-0.011222205124795437,"1005":-0.29539456963539124,"1006":0.681830883026123,"1007":0.07272135466337204,"1008":0.24352960288524628,"1009":0.3556625545024872,"1010":0.597590446472168,"1011":0.17151543498039246,"1012":-0.5489916801452637,"1013":-0.0255604051053524,"1014":-1.432187557220459,"1015":-0.8984171748161316,"1016":0.04924820736050606,"1017":-1.0995579957962036,"1018":-0.2902546525001526,"1019":-0.444013774394989,"1020":0.7812888026237488,"1021":2.248051881790161,"1022":-1.0383810997009277,"1023":0.9960494637489319,"1024":-0.03487367182970047,"1025":-0.004608084913343191,"1026":-0.01860327646136284,"1027":0.013602103106677532,"1028":-0.03637491166591644,"1029":0.047367505729198456,"1030":0.013449625112116337,"1031":-0.0007970404112711549,"1032":-0.06937287002801895,"1033":0.02109917439520359,"1034":-0.07681763917207718,"1035":-0.06297910958528519,"1036":-0.015520281158387661,"1037":-0.05294833332300186,"1038":-0.034210529178380966,"1039":-0.04264464229345322,"1040":-0.001442342298105359,"1041":-0.038506120443344116,"1042":0.014605673030018806,"1043":-0.07266903668642044,"1044":0.044005509465932846,"1045":0.016016699373722076,"1046":-0.002107989741489291,"1047":-0.03726198151707649,"1048":0.0716673880815506,"1049":0.005166571121662855,"1050":-0.052747659385204315,"1051":-0.0781068205833435,"1052":0.03343547135591507,"1053":0.06802389770746231,"1054":0.028470013290643692,"1055":-0.06867799162864685}},"hiddenLayers":[{"inputMatrix":{"rows":20,"columns":32,"weights":{"0":0.612425684928894,"1":-2.6199910640716553,"2":-1.9314416646957397,"3":-0.6168649792671204,"4":-1.0922845602035522,"5":-1.5270862579345703,"6":0.39547836780548096,"7":-1.6611732244491577,"8":-0.7174298763275146,"9":-0.5665802359580994,"10":0.07017684727907181,"11":1.0132042169570923,"12":1.1834062337875366,"13":-1.3003618717193604,"14":1.146213173866272,"15":-1.048531413078308,"16":0.508687436580658,"17":0.6045582890510559,"18":-0.042383648455142975,"19":2.235523223876953,"20":1.4118537902832031,"21":0.7748438119888306,"22":-0.32697969675064087,"23":1.3177220821380615,"24":2.0176548957824707,"25":0.4564675986766815,"26":-1.3627320528030396,"27":0.5129918456077576,"28":-0.20345866680145264,"29":0.3535201847553253,"30":2.6961312294006348,"31":-0.2494175285100937,"32":0.35581862926483154,"33":0.9006459712982178,"34":-0.24776393175125122,"35":-0.0143888546153903,"36":0.8150847554206848,"37":0.9872298240661621,"38":0.4629392623901367,"39":-0.3622036278247833,"40":-0.5179957747459412,"41":-0.3388161361217499,"42":-0.8503918051719666,"43":-0.3620668351650238,"44":-0.14451274275779724,"45":0.9972270727157593,"46":-0.10372213274240494,"47":-0.6345561742782593,"48":-0.8346427083015442,"49":-3.00474214553833,"50":1.4348561763763428,"51":0.2084846943616867,"52":-0.38963624835014343,"53":-0.9128619432449341,"54":1.6267743110656738,"55":0.49571147561073303,"56":-1.0700664520263672,"57":-0.1924237161874771,"58":-0.7486437559127808,"59":0.2683029770851135,"60":0.00786416046321392,"61":0.3167262077331543,"62":-0.9263032078742981,"63":-0.181592658162117,"64":1.2758591175079346,"65":0.3955397307872772,"66":-1.1452336311340332,"67":1.1867656707763672,"68":-0.5699675679206848,"69":-1.0316073894500732,"70":0.5489330291748047,"71":2.670644760131836,"72":0.2948903739452362,"73":-1.313017725944519,"74":-1.6888116598129272,"75":0.3858685791492462,"76":0.46313104033470154,"77":0.17653939127922058,"78":0.20648060739040375,"79":1.5142697095870972,"80":-0.6844900846481323,"81":0.5552414655685425,"82":-0.5381422638893127,"83":0.519756019115448,"84":0.07361288368701935,"85":-2.67375111579895,"86":-0.17615143954753876,"87":-0.3748130798339844,"88":0.5262317657470703,"89":-1.5266547203063965,"90":2.6344335079193115,"91":-0.4367506206035614,"92":0.13632701337337494,"93":0.22743485867977142,"94":-0.07492771744728088,"95":2.0554685592651367,"96":1.174446702003479,"97":-0.894342839717865,"98":0.13349516689777374,"99":1.3259490728378296,"100":1.8821908235549927,"101":0.05921628698706627,"102":0.42061716318130493,"103":0.27316540479660034,"104":0.4554964005947113,"105":-1.8820658922195435,"106":-1.7788970470428467,"107":-0.518586277961731,"108":1.524202585220337,"109":-0.09928571432828903,"110":0.22713921964168549,"111":0.6327569484710693,"112":0.1363145411014557,"113":-0.6502413153648376,"114":2.4071056842803955,"115":-0.8239079117774963,"116":0.37924912571907043,"117":-1.4919809103012085,"118":-0.22841066122055054,"119":-0.24511706829071045,"120":0.0817301943898201,"121":-1.6072652339935303,"122":-0.15713804960250854,"123":-1.4725990295410156,"124":1.1087337732315063,"125":0.5043574571609497,"126":-0.04820908606052399,"127":1.0671499967575073,"128":-0.12076058238744736,"129":1.3415409326553345,"130":0.3398452699184418,"131":-0.7387374043464661,"132":1.580907940864563,"133":-0.4814668893814087,"134":1.0631006956100464,"135":1.1743336915969849,"136":2.0206453800201416,"137":-0.9301784634590149,"138":-2.1499152183532715,"139":-1.388921856880188,"140":0.03885618597269058,"141":-0.4691847264766693,"142":0.8884084224700928,"143":1.412121057510376,"144":1.3529455661773682,"145":-0.859156608581543,"146":1.6686431169509888,"147":-1.2878464460372925,"148":-0.1841910034418106,"149":-0.9577065110206604,"150":-1.7739133834838867,"151":-1.0785245895385742,"152":-0.3227322995662689,"153":-0.6698500514030457,"154":-0.5604019165039062,"155":-0.2825777530670166,"156":0.4439255893230438,"157":0.550303041934967,"158":-0.5875247120857239,"159":0.7395570278167725,"160":-0.21942481398582458,"161":1.332268238067627,"162":-0.6416661739349365,"163":0.8243071436882019,"164":-1.7579768896102905,"165":0.9055514335632324,"166":0.4229532778263092,"167":0.6249719262123108,"168":-1.1063382625579834,"169":0.8106048703193665,"170":1.7801331281661987,"171":0.4741440713405609,"172":-0.5614470839500427,"173":1.052507996559143,"174":0.19991248846054077,"175":0.4552426338195801,"176":-1.3615223169326782,"177":2.1640849113464355,"178":-1.2072663307189941,"179":-0.6120574474334717,"180":-1.0648396015167236,"181":0.35969287157058716,"182":1.5364716053009033,"183":-1.271205186843872,"184":-1.558687448501587,"185":0.5228418111801147,"186":0.8223291039466858,"187":0.11240635067224503,"188":-0.038405802100896835,"189":-1.47615647315979,"190":-0.3888527750968933,"191":-0.8900942802429199,"192":-0.7561203241348267,"193":-0.38708314299583435,"194":0.03238539770245552,"195":-1.0725629329681396,"196":0.4266396760940552,"197":0.2395508736371994,"198":0.7688281536102295,"199":-1.4823626279830933,"200":0.008346869610249996,"201":2.6293740272521973,"202":1.329738736152649,"203":0.3159562051296234,"204":-0.4917278289794922,"205":-1.4557592868804932,"206":-1.0129549503326416,"207":-0.45006778836250305,"208":-0.1669168621301651,"209":0.11950737982988358,"210":-0.8021209836006165,"211":-1.3092634677886963,"212":-0.08950575441122055,"213":0.6249590516090393,"214":-1.0221971273422241,"215":0.09315431118011475,"216":0.13203541934490204,"217":2.026397228240967,"218":-2.632904291152954,"219":1.3882758617401123,"220":-1.458303451538086,"221":-1.3551032543182373,"222":0.12259931862354279,"223":-0.5093382000923157,"224":-0.9423201680183411,"225":1.0639069080352783,"226":-0.34769007563591003,"227":-1.8076335191726685,"228":-1.7116637229919434,"229":-0.6569458246231079,"230":0.5669621825218201,"231":-0.9643319249153137,"232":-0.7448769807815552,"233":2.536916732788086,"234":2.843149423599243,"235":1.2385542392730713,"236":-1.1198089122772217,"237":0.9996649622917175,"238":0.32917484641075134,"239":-0.28442907333374023,"240":0.4499343931674957,"241":1.2927566766738892,"242":-2.646817445755005,"243":1.775098204612732,"244":-0.33641138672828674,"245":1.2588599920272827,"246":0.7739259600639343,"247":0.13783110678195953,"248":0.44538071751594543,"249":1.0091805458068848,"250":0.628024697303772,"251":1.8684492111206055,"252":-2.033416271209717,"253":0.7379154562950134,"254":0.4972539246082306,"255":-0.065069779753685,"256":-0.6914731860160828,"257":1.8342854976654053,"258":2.621866464614868,"259":0.29284030199050903,"260":0.979470431804657,"261":3.308417797088623,"262":0.32446810603141785,"263":-0.6195341944694519,"264":0.918299674987793,"265":-0.7314441800117493,"266":-0.2994752526283264,"267":0.04385271668434143,"268":-1.4284802675247192,"269":1.7300506830215454,"270":0.2777738869190216,"271":-1.4463582038879395,"272":-0.16410471498966217,"273":-0.7906025648117065,"274":1.5865548849105835,"275":0.026636233553290367,"276":-1.241173267364502,"277":0.44360533356666565,"278":1.447479248046875,"279":-0.15089289844036102,"280":-2.0957155227661133,"281":0.9059652090072632,"282":-0.1655869036912918,"283":-0.3389444351196289,"284":0.08626246452331543,"285":-0.678178071975708,"286":-1.4693256616592407,"287":-1.438769817352295,"288":0.686069667339325,"289":-0.11675213277339935,"290":-0.006349643226712942,"291":0.37856775522232056,"292":0.9566144943237305,"293":1.0245115756988525,"294":-0.6986674666404724,"295":0.6629652380943298,"296":-1.227401614189148,"297":-0.7181475162506104,"298":-0.2021053582429886,"299":0.20539508759975433,"300":0.6087654829025269,"301":-0.2434367686510086,"302":-0.29760950803756714,"303":-0.2815004587173462,"304":0.4418514668941498,"305":-0.3353986442089081,"306":1.3831149339675903,"307":0.05940606817603111,"308":-0.009053864516317844,"309":0.13428598642349243,"310":0.6956663131713867,"311":-0.615329921245575,"312":-0.47342997789382935,"313":-0.32284343242645264,"314":0.1338103711605072,"315":-0.7378422617912292,"316":0.9839826226234436,"317":0.7751204967498779,"318":-1.3573135137557983,"319":-0.7725400328636169,"320":1.6879628896713257,"321":-0.10622373968362808,"322":0.38123029470443726,"323":2.0566751956939697,"324":0.3730306327342987,"325":0.8959774374961853,"326":-0.9125738739967346,"327":0.9278084635734558,"328":0.759574294090271,"329":-1.1833621263504028,"330":-0.9837374091148376,"331":-1.0196090936660767,"332":-0.07700089365243912,"333":1.8486809730529785,"334":1.182112455368042,"335":-0.10355862230062485,"336":-0.05496260151267052,"337":-0.8702923655509949,"338":1.1748547554016113,"339":0.2657162547111511,"340":-0.41738152503967285,"341":-1.1433041095733643,"342":1.1415736675262451,"343":-0.2820235788822174,"344":-0.03798844292759895,"345":-1.0033938884735107,"346":1.113633394241333,"347":-2.127399444580078,"348":1.5834088325500488,"349":1.5208340883255005,"350":-0.993827223777771,"351":0.1145041361451149,"352":-0.7355493903160095,"353":-2.2291598320007324,"354":1.0141407251358032,"355":-0.3384269177913666,"356":1.1040340662002563,"357":-1.8253941535949707,"358":-1.047842264175415,"359":-0.44425567984580994,"360":1.3461582660675049,"361":-0.1074407547712326,"362":-0.2638658583164215,"363":-0.3226502537727356,"364":0.27733415365219116,"365":-1.1200535297393799,"366":0.22113996744155884,"367":-1.3771579265594482,"368":1.02885103225708,"369":-1.891259789466858,"370":2.2489049434661865,"371":-3.083683967590332,"372":0.3150794506072998,"373":-0.02497870847582817,"374":-1.461165428161621,"375":-0.3259172737598419,"376":1.2079789638519287,"377":-0.24139073491096497,"378":-1.7891700267791748,"379":-0.6039455533027649,"380":0.2810438573360443,"381":-0.2501697838306427,"382":-0.30617353320121765,"383":-0.1386682242155075,"384":2.1903581619262695,"385":0.09170246869325638,"386":-1.4796311855316162,"387":-0.17835591733455658,"388":-0.3078469932079315,"389":0.11786080151796341,"390":-0.5559860467910767,"391":0.7727336883544922,"392":0.04169708862900734,"393":-1.8664041757583618,"394":-2.3509938716888428,"395":0.39333924651145935,"396":-0.1776653677225113,"397":-0.5752207636833191,"398":0.47041186690330505,"399":-0.4602694809436798,"400":-1.369558572769165,"401":-0.3474680483341217,"402":0.6617810130119324,"403":-0.28654173016548157,"404":0.3762080669403076,"405":-1.471658706665039,"406":0.9907440543174744,"407":-1.1660926342010498,"408":0.570844292640686,"409":-0.5136293172836304,"410":-0.8104990124702454,"411":-0.7749208211898804,"412":1.6315404176712036,"413":1.389060616493225,"414":1.3847126960754395,"415":-0.2626611590385437,"416":-0.8282356262207031,"417":-0.24928607046604156,"418":-0.30846482515335083,"419":0.09974755346775055,"420":-0.6470930576324463,"421":1.2739078998565674,"422":0.6673248410224915,"423":0.1270567923784256,"424":-1.6328624486923218,"425":0.5000028610229492,"426":0.9250136613845825,"427":1.361539602279663,"428":-0.4397926330566406,"429":1.0515726804733276,"430":-1.4845527410507202,"431":-0.9063791632652283,"432":-1.4520288705825806,"433":0.7388449907302856,"434":-1.5899494886398315,"435":1.3330254554748535,"436":0.236516535282135,"437":0.5502516031265259,"438":1.9171943664550781,"439":3.395292043685913,"440":0.7750948071479797,"441":-0.0568338967859745,"442":-0.5499863624572754,"443":0.2128339558839798,"444":-0.04729439318180084,"445":0.6337993741035461,"446":0.648129940032959,"447":-0.28969061374664307,"448":-1.1641186475753784,"449":2.1521646976470947,"450":1.2718899250030518,"451":-0.7085609436035156,"452":1.4676439762115479,"453":0.8845185041427612,"454":0.39509329199790955,"455":-1.3890621662139893,"456":0.4758896827697754,"457":-0.049467869102954865,"458":0.8580118417739868,"459":-0.4373216927051544,"460":0.12223105877637863,"461":0.8237646818161011,"462":0.7076046466827393,"463":-0.42902180552482605,"464":1.5371710062026978,"465":-0.32829204201698303,"466":0.896940290927887,"467":0.026493193581700325,"468":-0.6480913758277893,"469":1.402253270149231,"470":-0.08223215490579605,"471":1.1795103549957275,"472":-1.3934954404830933,"473":0.080710269510746,"474":-0.29079127311706543,"475":0.8582572937011719,"476":-0.9059399962425232,"477":-1.340704321861267,"478":-0.8537671566009521,"479":-0.5748722553253174,"480":1.0352579355239868,"481":0.7158281803131104,"482":-0.7587991952896118,"483":0.8457724452018738,"484":-1.2034868001937866,"485":-0.8114374876022339,"486":0.2608623802661896,"487":0.4206882119178772,"488":-0.9168380498886108,"489":-0.06695424020290375,"490":-0.25894200801849365,"491":-0.055511657148599625,"492":0.7183229327201843,"493":-0.5732126235961914,"494":1.9017372131347656,"495":-0.7860770225524902,"496":0.5657795071601868,"497":0.4443737864494324,"498":-0.8091936707496643,"499":2.234809160232544,"500":0.6144968271255493,"501":-0.5378960967063904,"502":0.8416246175765991,"503":-0.04327399656176567,"504":0.3182750344276428,"505":-0.4019542634487152,"506":0.7959547638893127,"507":-0.2901187241077423,"508":0.6614856123924255,"509":2.080545425415039,"510":0.7060045003890991,"511":-0.6671549677848816,"512":0.8790064454078674,"513":-1.1975547075271606,"514":-1.4418085813522339,"515":-0.5702980160713196,"516":-1.9476056098937988,"517":-1.8569974899291992,"518":-0.5138194561004639,"519":-1.1914697885513306,"520":-0.15472790598869324,"521":-1.7164775133132935,"522":-0.423251211643219,"523":1.8132647275924683,"524":0.9611015915870667,"525":-1.513667106628418,"526":0.9905440807342529,"527":-1.334352970123291,"528":1.211728572845459,"529":-0.11233283579349518,"530":1.0433002710342407,"531":-1.6971081495285034,"532":1.057132363319397,"533":0.23449119925498962,"534":-1.1345300674438477,"535":-0.3786912262439728,"536":1.442090630531311,"537":-0.5828301310539246,"538":-0.831771194934845,"539":0.1338493824005127,"540":0.9853698015213013,"541":-0.11183429509401321,"542":1.3039504289627075,"543":-1.4022293090820312,"544":-1.0243949890136719,"545":-0.4094996750354767,"546":1.674813985824585,"547":0.9605190753936768,"548":0.7109627723693848,"549":-0.0035092534963041544,"550":-0.5872064828872681,"551":0.6323502063751221,"552":1.4280327558517456,"553":-2.2011446952819824,"554":-0.6336500644683838,"555":-1.0547230243682861,"556":0.7612326741218567,"557":0.41050514578819275,"558":0.9415380954742432,"559":0.09850908070802689,"560":0.778025209903717,"561":-0.6015943884849548,"562":1.1360234022140503,"563":-0.3759523332118988,"564":0.3218453824520111,"565":-0.33003684878349304,"566":-0.5678052306175232,"567":0.2756737470626831,"568":-0.10949505120515823,"569":-0.4748198688030243,"570":0.8662407994270325,"571":-1.381016492843628,"572":1.2456562519073486,"573":0.047376129776239395,"574":-1.4408082962036133,"575":0.0010171871399506927,"576":-0.08839230239391327,"577":1.8061197996139526,"578":0.6384869813919067,"579":1.1094661951065063,"580":0.49779826402664185,"581":1.0190783739089966,"582":-1.211891531944275,"583":-0.7364223599433899,"584":1.3025140762329102,"585":-1.2488880157470703,"586":0.13869673013687134,"587":-0.45371297001838684,"588":-0.37278762459754944,"589":2.3745627403259277,"590":1.5766700506210327,"591":0.6697518229484558,"592":-0.028765611350536346,"593":-1.0408744812011719,"594":1.2247920036315918,"595":0.13796333968639374,"596":-0.7764105796813965,"597":0.35648679733276367,"598":1.0931105613708496,"599":0.33502209186553955,"600":-1.6632986068725586,"601":-0.3485451638698578,"602":1.6673015356063843,"603":-0.9406210780143738,"604":0.46203792095184326,"605":0.21356318891048431,"606":-1.3923214673995972,"607":-0.03780883178114891,"608":-0.9384143948554993,"609":-0.8351712226867676,"610":-0.1710023134946823,"611":0.6374963521957397,"612":0.7541186213493347,"613":-0.1302853226661682,"614":-0.999816358089447,"615":-0.5316377282142639,"616":-0.4969126880168915,"617":-0.22210811078548431,"618":0.5880160331726074,"619":0.25188297033309937,"620":0.15471401810646057,"621":-0.6121755242347717,"622":0.16452282667160034,"623":-1.0233043432235718,"624":0.4433542788028717,"625":0.7753293514251709,"626":-0.3206688463687897,"627":-0.864113450050354,"628":0.5002356171607971,"629":0.11786476522684097,"630":0.7514772415161133,"631":0.600048303604126,"632":0.12143807113170624,"633":0.2217825949192047,"634":0.06383415311574936,"635":-0.11308863759040833,"636":0.3372374176979065,"637":-0.5064558982849121,"638":1.5099619626998901,"639":-0.8993827104568481}},"inputHidden":{"rows":20,"columns":20,"weights":{"0":0.5316678285598755,"1":0.21844041347503662,"2":1.3881806135177612,"3":-0.22610384225845337,"4":-1.2906990051269531,"5":1.04044508934021,"6":0.0890430361032486,"7":-1.5228240489959717,"8":1.1152493953704834,"9":0.3012804388999939,"10":-0.6346943974494934,"11":-0.8238147497177124,"12":-2.1589903831481934,"13":0.555307149887085,"14":-1.4382754564285278,"15":0.7972922325134277,"16":1.272438406944275,"17":-0.3866221308708191,"18":-0.39592674374580383,"19":-1.101831078529358,"20":0.25849685072898865,"21":1.6678138971328735,"22":1.8784067630767822,"23":2.38550066947937,"24":2.3166818618774414,"25":0.9007404446601868,"26":0.451482892036438,"27":-1.3660264015197754,"28":-0.5383510589599609,"29":4.2805962562561035,"30":4.229007244110107,"31":-4.192548751831055,"32":-0.06543157994747162,"33":1.3680999279022217,"34":-1.883056879043579,"35":-4.092194557189941,"36":-0.696399986743927,"37":-0.44517385959625244,"38":-2.4085075855255127,"39":1.1438504457473755,"40":0.7471747398376465,"41":1.2315428256988525,"42":0.5485518574714661,"43":0.8584131598472595,"44":0.4604736566543579,"45":1.4326987266540527,"46":-0.14057578146457672,"47":-0.499865859746933,"48":1.8185559511184692,"49":2.3279788494110107,"50":1.2058321237564087,"51":-0.3240671455860138,"52":-1.73486328125,"53":0.1790546327829361,"54":-0.8376460671424866,"55":-1.121087670326233,"56":0.5382745862007141,"57":-0.5771849751472473,"58":-1.5888848304748535,"59":-0.6459808945655823,"60":-0.6576153635978699,"61":0.008060521446168423,"62":-0.2274361103773117,"63":-0.2690083384513855,"64":-0.316776305437088,"65":0.145978644490242,"66":-0.420574426651001,"67":-0.6878735423088074,"68":0.21648146212100983,"69":0.5105713605880737,"70":0.31696924567222595,"71":0.14762291312217712,"72":-0.2073223888874054,"73":0.6840247511863708,"74":-0.7738221287727356,"75":0.5964915752410889,"76":1.400790810585022,"77":-0.027958163991570473,"78":-0.8485051393508911,"79":0.9650506377220154,"80":-2.406805992126465,"81":-1.3487920761108398,"82":-0.7837836742401123,"83":2.1495609283447266,"84":-0.140581414103508,"85":0.5213216543197632,"86":2.0496983528137207,"87":1.195879340171814,"88":2.617262363433838,"89":0.9641516804695129,"90":1.581192135810852,"91":-1.3181614875793457,"92":-1.1066981554031372,"93":-1.6814793348312378,"94":0.10762020200490952,"95":-1.6999883651733398,"96":-1.061902403831482,"97":1.4278987646102905,"98":-0.964637815952301,"99":3.2122700214385986,"100":-0.31877273321151733,"101":-0.7364327907562256,"102":-1.0841798782348633,"103":-1.4613356590270996,"104":-1.3815184831619263,"105":0.7857327461242676,"106":-0.6095583438873291,"107":0.3300933241844177,"108":0.21931898593902588,"109":0.3349190354347229,"110":-0.05675375461578369,"111":0.6387450098991394,"112":-0.9855002164840698,"113":0.23482726514339447,"114":1.263842225074768,"115":0.06449820846319199,"116":0.6104245185852051,"117":0.36476826667785645,"118":0.18582157790660858,"119":-0.7737375497817993,"120":-0.22782325744628906,"121":-1.164976716041565,"122":-0.042441438883543015,"123":-1.2946068048477173,"124":-0.6700854897499084,"125":1.3856449127197266,"126":-1.3988114595413208,"127":0.7067497968673706,"128":-0.76272052526474,"129":0.291012704372406,"130":-0.7956224083900452,"131":0.6110067963600159,"132":-1.5544935464859009,"133":-0.3321692645549774,"134":-0.18872708082199097,"135":1.8580584526062012,"136":-0.40329447388648987,"137":1.3438491821289062,"138":-0.03623241186141968,"139":0.629879355430603,"140":0.9056432247161865,"141":-1.0137238502502441,"142":-0.10966496914625168,"143":-1.1785374879837036,"144":-1.1506006717681885,"145":-1.0766810178756714,"146":0.08261890709400177,"147":0.6516379117965698,"148":-0.6314687132835388,"149":0.8812255859375,"150":-0.18504083156585693,"151":0.2937954366207123,"152":0.4333094358444214,"153":-0.28974449634552,"154":0.13166527450084686,"155":-1.1800845861434937,"156":-0.30488142371177673,"157":1.0005459785461426,"158":-0.20325183868408203,"159":-0.228545680642128,"160":1.4362057447433472,"161":-0.28562161326408386,"162":0.11163979768753052,"163":-1.1819030046463013,"164":0.3353792428970337,"165":-1.1044749021530151,"166":1.2735471725463867,"167":-0.7957952618598938,"168":-1.1581445932388306,"169":0.2779557406902313,"170":0.7908070087432861,"171":-0.7735493183135986,"172":-0.7380820512771606,"173":1.2538450956344604,"174":-0.6370039582252502,"175":-0.26213338971138,"176":2.1031341552734375,"177":-0.1439289152622223,"178":-0.3977672755718231,"179":-0.08778038620948792,"180":0.8678990006446838,"181":-1.1094579696655273,"182":-1.3113499879837036,"183":-1.4072058200836182,"184":-1.6292656660079956,"185":2.0414304733276367,"186":-1.3837827444076538,"187":-2.117948055267334,"188":1.1780380010604858,"189":-1.2720236778259277,"190":-0.07178905606269836,"191":2.343385696411133,"192":-2.368835210800171,"193":0.9621858596801758,"194":-1.6981614828109741,"195":3.085536479949951,"196":3.5866615772247314,"197":1.4670275449752808,"198":2.5872957706451416,"199":1.6159205436706543,"200":-0.6652030944824219,"201":0.6320441961288452,"202":-0.7938061356544495,"203":1.2973257303237915,"204":-1.0491371154785156,"205":0.6688879132270813,"206":0.9976242780685425,"207":1.107346773147583,"208":2.1042981147766113,"209":-1.3152351379394531,"210":-1.1129422187805176,"211":-1.6334508657455444,"212":0.43831661343574524,"213":-1.7845604419708252,"214":-0.39386841654777527,"215":0.9347789287567139,"216":-1.6997148990631104,"217":-0.20851890742778778,"218":1.029728889465332,"219":-1.5733054876327515,"220":-1.115258812904358,"221":0.5909879803657532,"222":-0.32573020458221436,"223":0.5380330681800842,"224":-1.2462249994277954,"225":0.31621217727661133,"226":-0.7296285629272461,"227":-0.5868998169898987,"228":-0.38405048847198486,"229":-0.28592923283576965,"230":-0.85155189037323,"231":0.0536215640604496,"232":-0.2872943878173828,"233":-2.11067795753479,"234":-1.7977557182312012,"235":0.4276524484157562,"236":0.8335851430892944,"237":-1.5825457572937012,"238":0.6957723498344421,"239":0.5485976338386536,"240":0.9051613807678223,"241":-1.6114996671676636,"242":-0.5407052040100098,"243":0.29967615008354187,"244":-2.4435391426086426,"245":0.6895175576210022,"246":-2.240643262863159,"247":1.536015510559082,"248":-1.5404185056686401,"249":-0.41308459639549255,"250":-1.7215818166732788,"251":2.8159780502319336,"252":-1.577401876449585,"253":-0.5455224514007568,"254":0.2632462978363037,"255":1.0632597208023071,"256":1.504609227180481,"257":1.3706074953079224,"258":0.5427311062812805,"259":0.5343796014785767,"260":1.2399152517318726,"261":-0.36100518703460693,"262":0.35350462794303894,"263":-2.4232068061828613,"264":-1.2754238843917847,"265":-0.73497074842453,"266":-2.151625633239746,"267":-1.4386872053146362,"268":-2.8206276893615723,"269":-1.276475429534912,"270":-3.19077730178833,"271":2.1739771366119385,"272":0.24890361726284027,"273":1.2776005268096924,"274":0.05870137736201286,"275":2.865499973297119,"276":0.3206687569618225,"277":-0.6552289724349976,"278":0.9923334121704102,"279":-0.3180157244205475,"280":0.41373583674430847,"281":-1.3483238220214844,"282":0.7226985692977905,"283":1.402991771697998,"284":2.3493878841400146,"285":-2.905059576034546,"286":0.6437751650810242,"287":1.1030389070510864,"288":0.449163556098938,"289":0.5906091332435608,"290":2.1836798191070557,"291":-2.085993528366089,"292":0.9258222579956055,"293":1.6580524444580078,"294":1.007598876953125,"295":-1.1183046102523804,"296":-1.5005804300308228,"297":1.1833933591842651,"298":-1.448499321937561,"299":2.127246379852295,"300":-0.32867899537086487,"301":-3.367457389831543,"302":-3.8026881217956543,"303":-0.48411476612091064,"304":-1.002136468887329,"305":0.11114397644996643,"306":-0.21809236705303192,"307":0.2692718207836151,"308":2.609025239944458,"309":-1.7814992666244507,"310":-0.7816041111946106,"311":0.33917561173439026,"312":2.1208646297454834,"313":-0.630448579788208,"314":0.47559577226638794,"315":2.0081698894500732,"316":-0.8110123872756958,"317":3.3824853897094727,"318":0.43770837783813477,"319":2.798316478729248,"320":1.360753059387207,"321":-1.3590835332870483,"322":0.32478615641593933,"323":-0.4891814589500427,"324":-1.1390372514724731,"325":2.568192958831787,"326":-1.934017300605774,"327":-1.262015700340271,"328":-0.3248821198940277,"329":0.20993207395076752,"330":-0.6560656428337097,"331":1.8647791147232056,"332":-1.5165883302688599,"333":-0.509375274181366,"334":-2.3873603343963623,"335":0.39211273193359375,"336":1.7825168371200562,"337":0.5476434826850891,"338":0.307572603225708,"339":1.2188960313796997,"340":0.6521176695823669,"341":1.585317611694336,"342":2.9183666706085205,"343":1.9068248271942139,"344":-0.18418623507022858,"345":2.203336477279663,"346":-0.10227973014116287,"347":-1.864260196685791,"348":3.3350086212158203,"349":1.9910062551498413,"350":3.1314303874969482,"351":-1.3598074913024902,"352":-1.4823838472366333,"353":-0.3565494120121002,"354":-3.3347764015197754,"355":-1.6080317497253418,"356":1.8996212482452393,"357":-1.1109706163406372,"358":-2.0569090843200684,"359":1.7708089351654053,"360":-2.737805128097534,"361":-0.6973826885223389,"362":-0.24027185142040253,"363":-0.07904481887817383,"364":0.17651434242725372,"365":0.33541861176490784,"366":0.20147863030433655,"367":-3.617720365524292,"368":-1.4697997570037842,"369":1.4210776090621948,"370":-1.1275405883789062,"371":1.4531172513961792,"372":-1.7600666284561157,"373":1.003936767578125,"374":-0.6198256611824036,"375":1.5950965881347656,"376":1.1389249563217163,"377":0.6965184211730957,"378":-0.23374174535274506,"379":0.198740154504776,"380":3.7052080631256104,"381":-1.1435856819152832,"382":-0.16264913976192474,"383":-1.4270243644714355,"384":-1.446828842163086,"385":-2.553962230682373,"386":-1.3555994033813477,"387":-1.5675933361053467,"388":-0.9217433929443359,"389":-3.5031542778015137,"390":-0.9614284038543701,"391":2.4667718410491943,"392":0.3270285725593567,"393":3.9385011196136475,"394":-1.374800443649292,"395":1.7182817459106445,"396":3.786221981048584,"397":1.3917121887207031,"398":1.612939715385437,"399":2.7596499919891357}},"inputBias":{"rows":20,"columns":1,"weights":{"0":0.40226736664772034,"1":-0.30860766768455505,"2":-0.38872581720352173,"3":-0.895401656627655,"4":-0.7254104614257812,"5":-1.9302417039871216,"6":0.26291656494140625,"7":1.260478138923645,"8":-0.15549811720848083,"9":-0.09711985290050507,"10":-0.5709736943244934,"11":-0.435886025428772,"12":-0.11699474602937698,"13":1.0504872798919678,"14":2.309713840484619,"15":1.3120896816253662,"16":0.7520188093185425,"17":-0.1402689516544342,"18":-0.4044058620929718,"19":0.47464385628700256}},"forgetMatrix":{"rows":20,"columns":32,"weights":{"0":0.14954520761966705,"1":-0.33116841316223145,"2":0.18480366468429565,"3":-1.9450910091400146,"4":0.045340657234191895,"5":-0.14265936613082886,"6":1.2438884973526,"7":-0.33208128809928894,"8":0.9309733510017395,"9":2.2120392322540283,"10":0.1320803165435791,"11":-0.7114481925964355,"12":0.5407812595367432,"13":-0.4506530165672302,"14":-0.723839282989502,"15":0.21619366109371185,"16":1.5393730401992798,"17":-0.05467779561877251,"18":-2.106139659881592,"19":-1.580374002456665,"20":0.8976866602897644,"21":0.4678291976451874,"22":-0.036718953400850296,"23":0.01674683392047882,"24":0.6510406136512756,"25":2.060560941696167,"26":-0.9491097331047058,"27":1.1912461519241333,"28":-0.8082799315452576,"29":-0.364052951335907,"30":1.5596245527267456,"31":-0.3184988498687744,"32":-1.1650322675704956,"33":-0.6461082100868225,"34":1.4136788845062256,"35":-0.4833855926990509,"36":2.5918538570404053,"37":-0.6282486915588379,"38":-1.7789002656936646,"39":0.019082751125097275,"40":1.5985478162765503,"41":-0.2736474871635437,"42":-0.2693769037723541,"43":-1.0560673475265503,"44":0.3903889060020447,"45":-0.08126728236675262,"46":1.461633324623108,"47":0.7458215951919556,"48":0.7068825960159302,"49":-1.1388062238693237,"50":1.871053695678711,"51":-1.438288688659668,"52":0.17534029483795166,"53":0.2765556275844574,"54":-0.6872002482414246,"55":0.8660524487495422,"56":-0.4465271234512329,"57":0.11770068109035492,"58":0.3346134126186371,"59":-0.15583409368991852,"60":0.36804822087287903,"61":-0.6910825967788696,"62":-0.2186921387910843,"63":1.0976513624191284,"64":-0.40933021903038025,"65":-0.6945529580116272,"66":0.15469267964363098,"67":1.2065467834472656,"68":0.45338699221611023,"69":-0.012968798168003559,"70":-0.5318784713745117,"71":-1.344085454940796,"72":0.10648281127214432,"73":0.09371478110551834,"74":0.26622524857521057,"75":0.894486665725708,"76":0.813617467880249,"77":-0.3806631863117218,"78":-0.3741809129714966,"79":-1.8614542484283447,"80":0.6466232538223267,"81":-0.6885517835617065,"82":0.44019538164138794,"83":-1.1336086988449097,"84":0.8478781580924988,"85":0.3988415002822876,"86":-0.6912389397621155,"87":1.2652702331542969,"88":0.5647405385971069,"89":-0.15519361197948456,"90":-1.1220110654830933,"91":-1.793274998664856,"92":1.3462036848068237,"93":-0.10874650627374649,"94":0.8820773363113403,"95":-1.4936522245407104,"96":-1.3762986660003662,"97":0.22804750502109528,"98":-1.3118757009506226,"99":-0.7328924536705017,"100":-0.8603214025497437,"101":0.2105739265680313,"102":0.8519537448883057,"103":-1.1552070379257202,"104":-0.2921193242073059,"105":2.1701066493988037,"106":1.6068315505981445,"107":-0.3191174864768982,"108":0.2719137966632843,"109":-1.0292845964431763,"110":-0.320829838514328,"111":-0.1537383496761322,"112":-0.47759464383125305,"113":0.983332633972168,"114":-2.1587588787078857,"115":0.18739615380764008,"116":0.890281081199646,"117":2.3997228145599365,"118":-0.8055486083030701,"119":0.7692447304725647,"120":0.5787400007247925,"121":1.8949930667877197,"122":-1.0815051794052124,"123":1.6488118171691895,"124":-1.52507746219635,"125":-2.5569708347320557,"126":1.5412739515304565,"127":0.3460242748260498,"128":-0.5368703603744507,"129":-0.671389639377594,"130":-1.265406847000122,"131":0.5887442827224731,"132":0.08810234069824219,"133":-1.9087707996368408,"134":0.19984591007232666,"135":-0.14746902883052826,"136":0.3289094567298889,"137":-0.5680477023124695,"138":-0.4831451177597046,"139":1.578437328338623,"140":1.1325445175170898,"141":-2.113140821456909,"142":0.0998513251543045,"143":1.2651792764663696,"144":1.2915366888046265,"145":0.9377222061157227,"146":-0.3550809919834137,"147":-0.7019021511077881,"148":1.2097119092941284,"149":-0.5188259482383728,"150":-2.025871515274048,"151":0.6471337676048279,"152":1.8140509128570557,"153":-0.9932599663734436,"154":0.37333935499191284,"155":-0.3863987922668457,"156":0.6014564633369446,"157":0.38756486773490906,"158":1.9066617488861084,"159":0.2556113600730896,"160":0.254824161529541,"161":-1.8161990642547607,"162":-1.0895692110061646,"163":-0.920115053653717,"164":0.8296042084693909,"165":-1.2830621004104614,"166":-0.6935186982154846,"167":-1.2149226665496826,"168":0.6928343176841736,"169":1.1279898881912231,"170":0.8976539969444275,"171":-0.1308603435754776,"172":-0.026607902720570564,"173":-1.8944953680038452,"174":1.0372852087020874,"175":-0.2825971245765686,"176":0.4938432574272156,"177":-0.7557627558708191,"178":-0.09987346082925797,"179":-1.1763358116149902,"180":0.2230018824338913,"181":-0.04220668971538544,"182":-1.0718793869018555,"183":-0.4565182328224182,"184":0.987900972366333,"185":1.2753790616989136,"186":-1.407098650932312,"187":0.7155844569206238,"188":-0.4374023675918579,"189":-1.115730881690979,"190":1.0633169412612915,"191":-0.5812738537788391,"192":-1.796327829360962,"193":0.1282755732536316,"194":0.32166817784309387,"195":-0.8346691727638245,"196":-2.210537910461426,"197":0.22323134541511536,"198":1.8573133945465088,"199":-0.8993381261825562,"200":-1.253024935722351,"201":1.732939600944519,"202":1.6218713521957397,"203":0.6047375798225403,"204":-0.9125070571899414,"205":0.6468110680580139,"206":-1.2819665670394897,"207":-0.7222925424575806,"208":0.34115779399871826,"209":1.4172354936599731,"210":-1.4065767526626587,"211":1.6577197313308716,"212":-0.6712524890899658,"213":0.43794310092926025,"214":1.346012830734253,"215":1.7492091655731201,"216":-0.2497212141752243,"217":1.3089040517807007,"218":-0.8876793384552002,"219":1.0304841995239258,"220":-1.3598679304122925,"221":1.3269522190093994,"222":0.06633379310369492,"223":-0.43626582622528076,"224":-0.2737913131713867,"225":-0.08982627838850021,"226":1.2349085807800293,"227":-0.5456134676933289,"228":0.9450703263282776,"229":1.2994379997253418,"230":1.4023324251174927,"231":0.014500221237540245,"232":-0.11298508197069168,"233":-0.025907883420586586,"234":0.3292822241783142,"235":0.2978358566761017,"236":0.1331615149974823,"237":0.9690665006637573,"238":-2.255688190460205,"239":0.5026789307594299,"240":0.22320236265659332,"241":0.15352033078670502,"242":-1.3519141674041748,"243":1.1701815128326416,"244":-0.29341065883636475,"245":0.09731674939393997,"246":0.6175286173820496,"247":2.363734483718872,"248":-0.09462092071771622,"249":0.06141882389783859,"250":-1.428953766822815,"251":0.11700516194105148,"252":-1.303260326385498,"253":0.8744202256202698,"254":0.4866997003555298,"255":0.9586257338523865,"256":0.47979095578193665,"257":0.04393782466650009,"258":-1.240173101425171,"259":-0.9243425130844116,"260":-0.4190758764743805,"261":-0.5848711729049683,"262":-0.45300424098968506,"263":-2.9410877227783203,"264":-1.1628780364990234,"265":0.7873669862747192,"266":0.9301463961601257,"267":0.5393559336662292,"268":-1.060745120048523,"269":-1.560503602027893,"270":-0.5486582517623901,"271":-0.6668883562088013,"272":-0.5642545223236084,"273":-0.46930640935897827,"274":0.6885368227958679,"275":0.28367823362350464,"276":-0.639258861541748,"277":1.2030456066131592,"278":1.2052363157272339,"279":-0.6470568180084229,"280":-0.22078941762447357,"281":1.4734869003295898,"282":-0.08331488817930222,"283":0.7504309415817261,"284":-0.9855751991271973,"285":-0.3771211504936218,"286":0.1349150836467743,"287":-1.4596235752105713,"288":-2.649127244949341,"289":-1.3836941719055176,"290":0.7044423818588257,"291":-1.3017659187316895,"292":0.8273711800575256,"293":-0.7113580107688904,"294":0.8269098401069641,"295":-0.9152530431747437,"296":-0.9602640867233276,"297":2.982156276702881,"298":1.907749056816101,"299":0.4584042429924011,"300":-1.1724257469177246,"301":-0.9505687952041626,"302":-2.6431379318237305,"303":-0.43595537543296814,"304":0.5990649461746216,"305":0.5698030591011047,"306":-0.9618228077888489,"307":-0.6605516672134399,"308":-0.5766055583953857,"309":2.087209701538086,"310":-0.1893707662820816,"311":0.19673265516757965,"312":0.042775653302669525,"313":0.8066903948783875,"314":-2.204313039779663,"315":1.4054114818572998,"316":-1.6258174180984497,"317":-0.8511939644813538,"318":-0.5274209976196289,"319":-0.39098048210144043,"320":-1.8092118501663208,"321":1.393043875694275,"322":1.3979413509368896,"323":-0.3539975881576538,"324":0.5797723531723022,"325":0.15855756402015686,"326":0.5342191457748413,"327":0.9455368518829346,"328":-1.594551920890808,"329":1.130400538444519,"330":0.6842843294143677,"331":-0.4842180907726288,"332":-0.3715100586414337,"333":-0.8562232255935669,"334":-1.1267247200012207,"335":0.8439457416534424,"336":0.6538675427436829,"337":0.5095964670181274,"338":-1.1147531270980835,"339":0.5707569718360901,"340":-0.2012537121772766,"341":0.48305410146713257,"342":-0.27481380105018616,"343":0.3028411865234375,"344":-0.44235801696777344,"345":1.194833517074585,"346":-0.1653708517551422,"347":0.8169053792953491,"348":-0.9785897731781006,"349":-1.3399877548217773,"350":-0.48230040073394775,"351":0.7295396327972412,"352":-1.211538553237915,"353":-0.6896294355392456,"354":-0.9656447172164917,"355":0.4460698664188385,"356":-3.1392998695373535,"357":-1.1197935342788696,"358":0.2435969114303589,"359":0.761650800704956,"360":-1.613406777381897,"361":1.1297587156295776,"362":0.6880454421043396,"363":1.053383231163025,"364":0.5590139031410217,"365":-1.4184163808822632,"366":-0.42360860109329224,"367":-1.6645487546920776,"368":-0.3290482461452484,"369":0.9771419167518616,"370":-2.9644675254821777,"371":-0.5113311409950256,"372":0.8904339075088501,"373":0.013602894730865955,"374":-1.0880573987960815,"375":0.054208312183618546,"376":1.9032188653945923,"377":0.46218761801719666,"378":-1.1775133609771729,"379":-0.007307729218155146,"380":0.4773840010166168,"381":-0.016031846404075623,"382":1.4228346347808838,"383":-1.6436554193496704,"384":-0.49567711353302,"385":0.7005014419555664,"386":0.23970884084701538,"387":-0.11152805387973785,"388":-0.6485744118690491,"389":1.4825196266174316,"390":0.8919535279273987,"391":0.873828649520874,"392":-1.6727004051208496,"393":-0.5542986392974854,"394":1.2780778408050537,"395":0.8828622698783875,"396":-1.0670768022537231,"397":1.969840168952942,"398":0.10497947782278061,"399":-0.435796856880188,"400":0.8904361724853516,"401":2.3955321311950684,"402":-1.478795051574707,"403":1.5479438304901123,"404":-0.5749461650848389,"405":1.1759101152420044,"406":1.8439608812332153,"407":1.137294054031372,"408":-0.7750322222709656,"409":0.5087651610374451,"410":0.8637555837631226,"411":1.0041762590408325,"412":-0.712273895740509,"413":1.0298120975494385,"414":0.36795297265052795,"415":-0.3866298198699951,"416":-1.2101082801818848,"417":-0.05873934179544449,"418":1.3113675117492676,"419":-1.346007227897644,"420":3.098691701889038,"421":0.48945727944374084,"422":-0.5654983520507812,"423":0.27978262305259705,"424":0.2869361340999603,"425":-0.44895583391189575,"426":0.0850246250629425,"427":-0.363855242729187,"428":-0.357624888420105,"429":0.07355739176273346,"430":-0.682366132736206,"431":1.5014203786849976,"432":0.8457452058792114,"433":-1.090550184249878,"434":0.209409698843956,"435":-0.5068153142929077,"436":-0.742038369178772,"437":0.09967116266489029,"438":-0.6298869848251343,"439":0.7692556977272034,"440":-0.8438498377799988,"441":0.3829052150249481,"442":-0.2632206678390503,"443":0.5719786286354065,"444":-1.2715375423431396,"445":-0.779570996761322,"446":-0.3600704073905945,"447":1.6191366910934448,"448":0.4690430760383606,"449":-0.8718722462654114,"450":-0.4589298367500305,"451":-0.04596434161067009,"452":0.6481987833976746,"453":0.08503095805644989,"454":-0.06041736900806427,"455":-0.13740268349647522,"456":-2.1871750354766846,"457":0.3741424083709717,"458":0.31554004549980164,"459":1.174802541732788,"460":-0.42333629727363586,"461":-1.0561127662658691,"462":0.04313158243894577,"463":0.3909873068332672,"464":-0.6319789886474609,"465":2.419177770614624,"466":0.33810511231422424,"467":0.19132745265960693,"468":-1.7506334781646729,"469":1.539144515991211,"470":0.9532716870307922,"471":-0.5013951063156128,"472":-1.493220567703247,"473":0.6500826478004456,"474":1.1868585348129272,"475":1.6351789236068726,"476":-1.0464094877243042,"477":-2.475227117538452,"478":-0.13257034122943878,"479":-0.2636004090309143,"480":0.0749075636267662,"481":1.4413508176803589,"482":0.957339882850647,"483":0.7733919024467468,"484":0.5227622985839844,"485":2.5893263816833496,"486":0.008243615739047527,"487":-0.5538135766983032,"488":-1.1570860147476196,"489":-0.5745384097099304,"490":-0.15278403460979462,"491":0.07412642240524292,"492":0.6198123693466187,"493":2.5718443393707275,"494":-0.39501315355300903,"495":-2.2477192878723145,"496":0.032704271376132965,"497":-0.07422470301389694,"498":-0.8905299305915833,"499":0.40674591064453125,"500":0.6256799697875977,"501":-0.015635021030902863,"502":1.0328233242034912,"503":0.13944444060325623,"504":0.1329047530889511,"505":-0.4017137587070465,"506":-0.785626232624054,"507":-1.4745858907699585,"508":1.144035816192627,"509":0.11700258404016495,"510":0.13620907068252563,"511":-2.007174015045166,"512":0.44173663854599,"513":-1.4273759126663208,"514":-0.5710638761520386,"515":-0.978827178478241,"516":0.05281104892492294,"517":-0.9301778674125671,"518":0.5097255706787109,"519":-0.06819687783718109,"520":1.5531134605407715,"521":1.3744257688522339,"522":0.11358398199081421,"523":-0.6487940549850464,"524":1.4723286628723145,"525":-1.4247387647628784,"526":-1.2800596952438354,"527":1.29450261592865,"528":1.1134488582611084,"529":-1.5165611505508423,"530":-0.5895776748657227,"531":-1.2027925252914429,"532":1.828812837600708,"533":-0.9415892362594604,"534":-2.0239479541778564,"535":0.42535680532455444,"536":1.8306422233581543,"537":0.2530503571033478,"538":-0.9965299963951111,"539":-0.15772683918476105,"540":-0.559394121170044,"541":0.04052010923624039,"542":1.1135218143463135,"543":1.1959285736083984,"544":0.41200634837150574,"545":1.1963086128234863,"546":0.25527456402778625,"547":0.21208494901657104,"548":1.0031334161758423,"549":0.8438553214073181,"550":-0.7298651933670044,"551":0.3991212546825409,"552":-0.33249667286872864,"553":-1.6994026899337769,"554":-1.8980814218521118,"555":-0.4490049183368683,"556":-0.21087278425693512,"557":1.0270285606384277,"558":0.9002838730812073,"559":0.030205288901925087,"560":0.7629125118255615,"561":-1.8411253690719604,"562":1.5171509981155396,"563":-0.37977877259254456,"564":0.0019383589969947934,"565":0.5979905724525452,"566":0.2614746391773224,"567":-1.4924765825271606,"568":-0.6985169053077698,"569":-0.6367857456207275,"570":0.05409994348883629,"571":-1.0703057050704956,"572":1.438133955001831,"573":0.7515280246734619,"574":-0.2720017731189728,"575":0.11601490527391434,"576":0.15180107951164246,"577":-0.34418562054634094,"578":-0.6745482087135315,"579":-0.022464798763394356,"580":-2.132723808288574,"581":-1.6526286602020264,"582":0.3664490282535553,"583":0.9608714580535889,"584":-1.2050431966781616,"585":0.7725847363471985,"586":0.3479975163936615,"587":0.5539032816886902,"588":1.5745724439620972,"589":0.24753817915916443,"590":-0.5732519626617432,"591":-1.310990810394287,"592":0.5343390703201294,"593":1.7389962673187256,"594":-2.757356643676758,"595":1.008367896080017,"596":0.7780739665031433,"597":-0.34266936779022217,"598":0.9583191275596619,"599":1.3746449947357178,"600":1.3923944234848022,"601":-0.2415124922990799,"602":0.28858569264411926,"603":0.5232117176055908,"604":0.34744176268577576,"605":1.570718765258789,"606":0.9414567947387695,"607":-1.7303738594055176,"608":1.295552372932434,"609":0.70116126537323,"610":0.8020985126495361,"611":1.0302857160568237,"612":-0.6132115125656128,"613":0.7571091055870056,"614":-2.0057413578033447,"615":0.6045726537704468,"616":1.6208789348602295,"617":-0.8448633551597595,"618":-0.6149660348892212,"619":-0.6602806448936462,"620":-0.10494424402713776,"621":0.7602818012237549,"622":2.4630420207977295,"623":0.5754772424697876,"624":1.7881717681884766,"625":-1.4564005136489868,"626":1.0190153121948242,"627":-0.06779787689447403,"628":-0.3917049467563629,"629":-0.5865094661712646,"630":0.9698066711425781,"631":-1.317489504814148,"632":-0.12719768285751343,"633":0.9129935503005981,"634":0.41862422227859497,"635":-0.7499428987503052,"636":1.6963937282562256,"637":2.031404495239258,"638":-0.9615443348884583,"639":-0.13913388550281525}},"forgetHidden":{"rows":20,"columns":20,"weights":{"0":-0.7851876020431519,"1":0.3218317925930023,"2":0.2387446165084839,"3":0.4077650010585785,"4":-0.6233553886413574,"5":0.030406445264816284,"6":-0.026247641071677208,"7":1.3895676136016846,"8":0.9320570826530457,"9":0.18670442700386047,"10":-0.5487381219863892,"11":-0.07000312209129333,"12":0.21209809184074402,"13":-0.6217907667160034,"14":1.1864488124847412,"15":-0.7820340394973755,"16":-1.040738582611084,"17":0.5911559462547302,"18":0.05335114151239395,"19":-0.994927167892456,"20":-0.7658339142799377,"21":-2.245469570159912,"22":-1.6250693798065186,"23":-1.0916690826416016,"24":1.3140381574630737,"25":0.47938549518585205,"26":-0.8294652700424194,"27":0.8309219479560852,"28":-0.748569905757904,"29":-1.4998583793640137,"30":-0.960382878780365,"31":0.7750294804573059,"32":1.3900200128555298,"33":-0.3891695439815521,"34":-0.1836605966091156,"35":-0.16093780100345612,"36":0.39538905024528503,"37":0.954505443572998,"38":0.16306544840335846,"39":0.31058186292648315,"40":-0.6472666263580322,"41":-1.0561631917953491,"42":-2.1854281425476074,"43":-0.4896467626094818,"44":0.8311222195625305,"45":0.4312966465950012,"46":-1.113895297050476,"47":-0.2823139727115631,"48":-0.18462318181991577,"49":-1.5248724222183228,"50":-0.5865290760993958,"51":-0.6537022590637207,"52":1.1833685636520386,"53":0.8040774464607239,"54":0.5883530378341675,"55":-0.3749019205570221,"56":0.6487317085266113,"57":0.2708742320537567,"58":0.15468432009220123,"59":-1.1680288314819336,"60":-0.38466691970825195,"61":-0.4283733367919922,"62":0.3561252951622009,"63":0.1269121915102005,"64":-0.13390658795833588,"65":-0.8052554726600647,"66":-0.8760668635368347,"67":-0.6234490275382996,"68":0.0477142333984375,"69":-0.7245624661445618,"70":0.8783949613571167,"71":-0.6992297172546387,"72":0.4691065847873688,"73":1.2271969318389893,"74":-0.9058359861373901,"75":-0.7927300333976746,"76":1.401342749595642,"77":-0.732772171497345,"78":0.7674465775489807,"79":-0.7519634962081909,"80":1.1262856721878052,"81":0.4932847321033478,"82":1.067783236503601,"83":-1.5612419843673706,"84":-0.65107262134552,"85":0.03196631744503975,"86":0.819818913936615,"87":-0.8800497651100159,"88":-1.7251347303390503,"89":-0.2796465754508972,"90":-1.8338757753372192,"91":0.9117490649223328,"92":-0.044602882117033005,"93":0.4654935598373413,"94":-1.013284683227539,"95":-0.5019047260284424,"96":-0.14670401811599731,"97":-0.054306838661432266,"98":-1.2256665229797363,"99":-0.011942995712161064,"100":-1.5355619192123413,"101":0.3344937562942505,"102":0.187351793050766,"103":0.5895178318023682,"104":0.024214865639805794,"105":1.5185770988464355,"106":0.05064138025045395,"107":0.30366814136505127,"108":0.034141238778829575,"109":0.0030948584899306297,"110":-0.8064166903495789,"111":-0.505466103553772,"112":0.09829296171665192,"113":-0.9693110585212708,"114":-0.9470770359039307,"115":-0.40207988023757935,"116":-0.8885686993598938,"117":-0.9232119917869568,"118":-0.8006922006607056,"119":-0.7330825328826904,"120":0.6664790511131287,"121":-3.2302045822143555,"122":0.39781808853149414,"123":-2.992196798324585,"124":-0.2145400047302246,"125":-0.10426625609397888,"126":0.32359790802001953,"127":0.2898086607456207,"128":2.61478590965271,"129":1.577341914176941,"130":2.032935619354248,"131":-0.7099044322967529,"132":-0.21905279159545898,"133":0.2373449057340622,"134":-0.7213354706764221,"135":-1.8626593351364136,"136":-0.2577740550041199,"137":0.34521448612213135,"138":-0.02069762349128723,"139":-0.6754717826843262,"140":1.0976622104644775,"141":2.6760141849517822,"142":3.406574010848999,"143":-0.26791107654571533,"144":1.2390028238296509,"145":1.6779829263687134,"146":0.9259190559387207,"147":0.6762623190879822,"148":0.26529327034950256,"149":0.5890263319015503,"150":1.595113754272461,"151":0.23852981626987457,"152":-0.6374697089195251,"153":-0.5208700299263,"154":0.649752140045166,"155":-1.164076328277588,"156":-1.8325384855270386,"157":0.4741078019142151,"158":-0.9590889811515808,"159":-2.3918187618255615,"160":0.20010492205619812,"161":2.0103113651275635,"162":1.3382313251495361,"163":0.6564822196960449,"164":-0.20725636184215546,"165":-0.4572676718235016,"166":-3.0443222522735596,"167":-0.7384341359138489,"168":1.141075611114502,"169":-0.4765765368938446,"170":-0.5114074349403381,"171":-1.3021605014801025,"172":-0.4094952940940857,"173":-0.42613065242767334,"174":-0.44207513332366943,"175":0.0022518823388963938,"176":-1.0529619455337524,"177":-2.035101890563965,"178":-0.837369978427887,"179":-0.49397578835487366,"180":0.8058251142501831,"181":-0.5849659442901611,"182":0.15800011157989502,"183":0.10569741576910019,"184":1.1564089059829712,"185":-0.0557536706328392,"186":0.11504226922988892,"187":0.12540306150913239,"188":-0.20152553915977478,"189":-0.4355315566062927,"190":1.0984244346618652,"191":-0.3660041391849518,"192":2.581601619720459,"193":0.4619889557361603,"194":0.10174724459648132,"195":-0.2246410846710205,"196":-0.562675416469574,"197":0.4807682931423187,"198":-0.053462523967027664,"199":0.24103569984436035,"200":2.9299042224884033,"201":1.2878334522247314,"202":1.611708402633667,"203":0.2698149085044861,"204":-0.8950263857841492,"205":-1.69874906539917,"206":0.5724223256111145,"207":-1.3827853202819824,"208":-1.4218857288360596,"209":1.6252882480621338,"210":-0.9658372402191162,"211":0.6478930711746216,"212":-4.115952968597412,"213":-0.937346875667572,"214":-0.24953769147396088,"215":1.0677282810211182,"216":-2.746666193008423,"217":-0.5141416788101196,"218":-3.5357093811035156,"219":-1.8611724376678467,"220":-0.9050078392028809,"221":-0.545494556427002,"222":-0.36372947692871094,"223":1.73390793800354,"224":0.19225697219371796,"225":-0.6716816425323486,"226":-1.3296176195144653,"227":-0.7221453189849854,"228":-0.03218451142311096,"229":-0.9360560774803162,"230":0.6367760896682739,"231":-0.14992070198059082,"232":-0.984953761100769,"233":-0.21328464150428772,"234":-0.5881220102310181,"235":-0.8037601709365845,"236":0.6871582269668579,"237":0.5424496531486511,"238":0.983603298664093,"239":0.7723931074142456,"240":-0.4118651747703552,"241":0.025517474859952927,"242":-1.248197317123413,"243":1.4714226722717285,"244":0.9919010996818542,"245":-0.3118082284927368,"246":2.808159112930298,"247":0.8824987411499023,"248":0.9741361737251282,"249":2.412834644317627,"250":-1.4899300336837769,"251":-2.0120491981506348,"252":0.8346430063247681,"253":-1.647197961807251,"254":1.2921336889266968,"255":-1.1195541620254517,"256":-2.999781608581543,"257":0.3937965929508209,"258":-1.7840487957000732,"259":-1.8107181787490845,"260":0.5556250810623169,"261":0.3428412079811096,"262":-1.1124626398086548,"263":0.41331946849823,"264":-0.4258415699005127,"265":-0.23862728476524353,"266":-0.20860394835472107,"267":-0.019244417548179626,"268":1.4607372283935547,"269":-0.24412383139133453,"270":0.008527109399437904,"271":-1.3970972299575806,"272":0.9812576770782471,"273":0.4845450222492218,"274":-0.2825307250022888,"275":0.2676439881324768,"276":-1.0995845794677734,"277":0.2967829704284668,"278":-0.6278377175331116,"279":-0.26131683588027954,"280":-0.7767860293388367,"281":-2.6492791175842285,"282":-1.2770384550094604,"283":-0.7976939082145691,"284":-0.33751964569091797,"285":3.0989491939544678,"286":-1.7664744853973389,"287":1.1245384216308594,"288":1.5621387958526611,"289":-1.340449571609497,"290":-0.34622785449028015,"291":-1.6734647750854492,"292":-1.9194426536560059,"293":-0.81417316198349,"294":0.8963179588317871,"295":-1.9306652545928955,"296":-3.5123894214630127,"297":1.1168262958526611,"298":-3.300520658493042,"299":-1.629693865776062,"300":2.083357334136963,"301":1.732185959815979,"302":2.0594160556793213,"303":1.2434396743774414,"304":1.2249828577041626,"305":-2.040682077407837,"306":-0.5138843059539795,"307":-1.2967404127120972,"308":2.0910089015960693,"309":1.4869487285614014,"310":1.4195469617843628,"311":-1.6870783567428589,"312":0.6836254596710205,"313":1.4932889938354492,"314":0.9731626510620117,"315":0.9784111976623535,"316":-3.2950315475463867,"317":-0.5600631833076477,"318":-3.7394583225250244,"319":-1.2464118003845215,"320":-0.7217034697532654,"321":-1.1050024032592773,"322":-1.5422658920288086,"323":-0.7476102709770203,"324":-0.9864715933799744,"325":0.835637092590332,"326":-0.5569601058959961,"327":-0.23446249961853027,"328":-0.6212460398674011,"329":-2.3700740337371826,"330":0.1580456644296646,"331":1.1581989526748657,"332":1.190654993057251,"333":-0.4941367506980896,"334":-0.7324501872062683,"335":-0.13132160902023315,"336":1.319730520248413,"337":0.4783038794994354,"338":3.0329458713531494,"339":-1.055280089378357,"340":0.029861493036150932,"341":-1.4665448665618896,"342":-1.1870059967041016,"343":0.2536155581474304,"344":0.6171855330467224,"345":-0.26404082775115967,"346":-0.17469224333763123,"347":-0.6706854104995728,"348":0.022128863260149956,"349":-0.5933948159217834,"350":-0.07247783988714218,"351":-0.39517247676849365,"352":0.3152965307235718,"353":0.23451094329357147,"354":-0.7131894826889038,"355":-0.34761157631874084,"356":0.4904877543449402,"357":1.8459270000457764,"358":0.05516470968723297,"359":2.004213809967041,"360":-0.9537345767021179,"361":-0.5686466097831726,"362":0.5683217644691467,"363":-2.1466948986053467,"364":-1.8489832878112793,"365":0.22297117114067078,"366":-1.3316149711608887,"367":-1.1558316946029663,"368":-1.1619726419448853,"369":-2.397350311279297,"370":-2.259129285812378,"371":1.7605916261672974,"372":0.0021655026357620955,"373":2.4900636672973633,"374":-0.17624428868293762,"375":0.39086073637008667,"376":1.375332236289978,"377":-0.344811350107193,"378":2.1104674339294434,"379":2.1637473106384277,"380":0.48826539516448975,"381":-2.0712087154388428,"382":-2.059108018875122,"383":2.0421323776245117,"384":2.024024486541748,"385":-0.2725839912891388,"386":0.4482558071613312,"387":-1.2075107097625732,"388":0.9220998883247375,"389":-0.05672859400510788,"390":2.2106993198394775,"391":-1.7020899057388306,"392":0.48334455490112305,"393":-0.040037453174591064,"394":-0.5473902821540833,"395":-1.6434859037399292,"396":-1.493369221687317,"397":2.092571258544922,"398":0.42870938777923584,"399":1.3193247318267822}},"forgetBias":{"rows":20,"columns":1,"weights":{"0":0,"1":0,"2":0,"3":0,"4":0,"5":0,"6":0,"7":0,"8":0,"9":0,"10":0,"11":0,"12":0,"13":0,"14":0,"15":0,"16":0,"17":0,"18":0,"19":0}},"outputMatrix":{"rows":20,"columns":32,"weights":{"0":-1.1947270631790161,"1":-0.4608244001865387,"2":1.0671190023422241,"3":-1.6282777786254883,"4":-0.49646496772766113,"5":-0.13313600420951843,"6":1.5087640285491943,"7":-2.1298577785491943,"8":0.7705627679824829,"9":1.6596766710281372,"10":1.232643961906433,"11":-1.604210615158081,"12":-0.2815597951412201,"13":-1.1725035905838013,"14":0.06319750100374222,"15":0.14637087285518646,"16":1.0631223917007446,"17":-0.838030993938446,"18":-0.4035244584083557,"19":1.6951590776443481,"20":0.37718793749809265,"21":1.8430217504501343,"22":0.29399338364601135,"23":2.1234471797943115,"24":-0.10019020736217499,"25":2.3502769470214844,"26":-1.404100775718689,"27":1.540705919265747,"28":-1.4868727922439575,"29":-1.8376812934875488,"30":0.8181823492050171,"31":0.48861318826675415,"32":0.4080270528793335,"33":-0.7076993584632874,"34":0.5227409601211548,"35":0.15310817956924438,"36":0.8401939868927002,"37":-0.6849783062934875,"38":-1.5893992185592651,"39":0.0336056649684906,"40":0.3551923334598541,"41":-1.3988838195800781,"42":-1.7034165859222412,"43":-0.1684694141149521,"44":-0.07567841559648514,"45":-1.333326816558838,"46":1.9720723628997803,"47":-0.3150053024291992,"48":0.10232055932283401,"49":-1.050536870956421,"50":3.6897835731506348,"51":-1.7854825258255005,"52":-1.0587347745895386,"53":-0.4335702955722809,"54":-0.577565610408783,"55":-2.5537846088409424,"56":-0.4139130413532257,"57":-0.2889859676361084,"58":-0.72603839635849,"59":-0.47386443614959717,"60":1.2065050601959229,"61":-0.14773908257484436,"62":-0.9697819352149963,"63":-0.46877941489219666,"64":0.4681859314441681,"65":0.4240941107273102,"66":0.03862055391073227,"67":0.9367836713790894,"68":1.343866229057312,"69":0.18855711817741394,"70":-1.1363728046417236,"71":1.9496712684631348,"72":0.5266906023025513,"73":-1.469517707824707,"74":-2.1710205078125,"75":0.1159922182559967,"76":0.5121952295303345,"77":0.49835091829299927,"78":0.12881067395210266,"79":0.3682304620742798,"80":0.13531076908111572,"81":-0.9237633943557739,"82":1.3564331531524658,"83":-0.47883084416389465,"84":-0.13385151326656342,"85":-2.277125597000122,"86":0.21069641411304474,"87":-1.0058249235153198,"88":-0.19469816982746124,"89":-1.711715817451477,"90":1.9045370817184448,"91":-1.5686676502227783,"92":0.8287097215652466,"93":1.095993995666504,"94":-0.4908962547779083,"95":0.43948355317115784,"96":-0.2847161293029785,"97":0.11952374130487442,"98":1.6873806715011597,"99":1.680627465248108,"100":1.1510345935821533,"101":0.3939031958580017,"102":-2.727454662322998,"103":-0.9815019369125366,"104":2.664243221282959,"105":-1.646659016609192,"106":-0.1011105626821518,"107":-1.8905693292617798,"108":-0.004605219699442387,"109":0.01560424454510212,"110":1.6133893728256226,"111":0.5302742123603821,"112":1.0036811828613281,"113":-1.4865325689315796,"114":1.1595757007598877,"115":0.21329393982887268,"116":-0.6741105318069458,"117":-0.3191505968570709,"118":-0.7341678738594055,"119":0.6798028945922852,"120":-0.6632094979286194,"121":0.060910873115062714,"122":0.5704533457756042,"123":-1.9044033288955688,"124":1.226089358329773,"125":-0.3573419153690338,"126":-0.0995393767952919,"127":0.28678831458091736,"128":-0.5014358162879944,"129":-1.0532954931259155,"130":0.51915043592453,"131":-0.4642176330089569,"132":1.0424995422363281,"133":-0.6748599410057068,"134":-0.49726346135139465,"135":1.0405054092407227,"136":0.14634351432323456,"137":-0.27956825494766235,"138":-1.2943986654281616,"139":-1.253598928451538,"140":-0.156520813703537,"141":-0.6824216246604919,"142":-0.7746548056602478,"143":0.11183338612318039,"144":1.5163501501083374,"145":-1.0334030389785767,"146":0.1515895277261734,"147":-0.8226041197776794,"148":0.15075042843818665,"149":-0.38608554005622864,"150":0.016995785757899284,"151":0.17790022492408752,"152":0.37868428230285645,"153":-0.41650983691215515,"154":-0.3842666745185852,"155":-0.5664701461791992,"156":0.8388963937759399,"157":0.5453019738197327,"158":-0.41208750009536743,"159":1.1257280111312866,"160":-2.1634864807128906,"161":-0.40764036774635315,"162":0.29809269309043884,"163":-2.3801188468933105,"164":-1.4846891164779663,"165":-0.9057046175003052,"166":2.0381548404693604,"167":-0.6541804075241089,"168":-0.9584624171257019,"169":1.3961403369903564,"170":1.096157431602478,"171":-0.12017229199409485,"172":-0.7896453142166138,"173":-0.8096261620521545,"174":-1.8288260698318481,"175":-0.35289037227630615,"176":0.27744078636169434,"177":0.5961654782295227,"178":-1.1320319175720215,"179":1.0247660875320435,"180":-0.09432423859834671,"181":2.054262161254883,"182":-0.48221996426582336,"183":0.9427347779273987,"184":-0.344413697719574,"185":0.8503362536430359,"186":-1.4327210187911987,"187":3.015697717666626,"188":-2.8875842094421387,"189":-0.1299985647201538,"190":-0.3128197491168976,"191":-0.1438651978969574,"192":-0.6543095707893372,"193":0.3508206605911255,"194":1.6331419944763184,"195":-0.903398334980011,"196":-0.6456450819969177,"197":0.535976767539978,"198":-0.5045910477638245,"199":-1.7220268249511719,"200":-0.17444488406181335,"201":1.8885626792907715,"202":1.876216173171997,"203":0.13647137582302094,"204":-2.4452908039093018,"205":0.3235629200935364,"206":-0.7007791996002197,"207":-0.6724732518196106,"208":1.0375128984451294,"209":0.08823355287313461,"210":0.38833099603652954,"211":0.26884347200393677,"212":-2.124638557434082,"213":1.8144621849060059,"214":0.7929981350898743,"215":0.23056097328662872,"216":-1.7896026372909546,"217":2.460233211517334,"218":-0.9366267919540405,"219":1.6335505247116089,"220":-1.7809444665908813,"221":-0.5643960237503052,"222":-0.9616742134094238,"223":-0.5137861967086792,"224":-0.3726576566696167,"225":0.36860471963882446,"226":0.03676478937268257,"227":-1.2522555589675903,"228":-2.036306619644165,"229":0.055741842836141586,"230":0.24417397379875183,"231":-0.7798633575439453,"232":-0.5646408796310425,"233":1.6614203453063965,"234":1.458486795425415,"235":0.1638936698436737,"236":-0.9251145720481873,"237":0.7378550171852112,"238":0.4305402636528015,"239":-0.4066365361213684,"240":0.3192223906517029,"241":0.26110100746154785,"242":-1.64482581615448,"243":2.3621273040771484,"244":-0.20744308829307556,"245":1.2247956991195679,"246":0.914552628993988,"247":0.26532238721847534,"248":0.1647833287715912,"249":1.4046931266784668,"250":-0.6546631455421448,"251":1.4249656200408936,"252":-1.0253592729568481,"253":1.3833467960357666,"254":0.648790180683136,"255":-0.7211054563522339,"256":0.32156240940093994,"257":0.5188557505607605,"258":2.3919432163238525,"259":0.24409827589988708,"260":-1.6029038429260254,"261":2.254453659057617,"262":2.0291757583618164,"263":-0.4399217665195465,"264":-0.49936553835868835,"265":-0.8670653700828552,"266":-0.4110395908355713,"267":0.7364969253540039,"268":-1.1767246723175049,"269":1.2226793766021729,"270":-0.4191463589668274,"271":-1.0020678043365479,"272":-0.49892544746398926,"273":-0.5091538429260254,"274":0.7482669353485107,"275":1.1768711805343628,"276":-1.278674840927124,"277":-0.1461573988199234,"278":-0.38078078627586365,"279":-0.12891028821468353,"280":-0.5191245079040527,"281":-0.477125883102417,"282":-2.088224172592163,"283":-0.8322397470474243,"284":0.13345566391944885,"285":2.383932590484619,"286":-2.459644079208374,"287":-0.2650042772293091,"288":0.32894694805145264,"289":1.0436856746673584,"290":-0.16563548147678375,"291":-0.9694507122039795,"292":-1.2249939441680908,"293":-0.9990069270133972,"294":1.6788628101348877,"295":1.7455580234527588,"296":1.2100334167480469,"297":-0.16998961567878723,"298":-1.4683432579040527,"299":-0.7887573838233948,"300":-1.352918028831482,"301":0.4431699216365814,"302":-1.1003164052963257,"303":1.651612401008606,"304":-0.8426125049591064,"305":0.1615367829799652,"306":0.44850748777389526,"307":-0.10767444968223572,"308":-1.6085222959518433,"309":0.2080441415309906,"310":0.23312515020370483,"311":-1.7370073795318604,"312":-1.3126020431518555,"313":-1.0298348665237427,"314":0.405160516500473,"315":0.45525187253952026,"316":-0.3267512321472168,"317":0.6052001714706421,"318":-2.5768067836761475,"319":0.5583194494247437,"320":0.21323959529399872,"321":-0.23996862769126892,"322":0.5910063982009888,"323":-1.1287641525268555,"324":-0.5832751393318176,"325":-0.852220892906189,"326":1.1368769407272339,"327":3.211696147918701,"328":1.6358122825622559,"329":-1.336135983467102,"330":-3.220933198928833,"331":-1.3164029121398926,"332":-0.05852876231074333,"333":-0.05552832782268524,"334":-0.2087215632200241,"335":1.5828969478607178,"336":0.15154507756233215,"337":0.6213194727897644,"338":0.8050508499145508,"339":-0.8617380857467651,"340":-0.28302010893821716,"341":-0.3085651397705078,"342":0.5546230673789978,"343":-0.03538430482149124,"344":0.6975699067115784,"345":-0.32810524106025696,"346":0.9831430912017822,"347":0.18586918711662292,"348":-0.4068654179573059,"349":0.17945897579193115,"350":-0.20668794214725494,"351":1.846563696861267,"352":1.3285611867904663,"353":0.6941229104995728,"354":0.19844256341457367,"355":1.8337476253509521,"356":-0.46184277534484863,"357":0.04023509472608566,"358":-1.5923869609832764,"359":-0.3258655369281769,"360":-0.19930991530418396,"361":-2.254669666290283,"362":-1.541314721107483,"363":0.06374776363372803,"364":0.773200511932373,"365":0.6377373337745667,"366":0.30168581008911133,"367":-0.5502649545669556,"368":-0.16463477909564972,"369":-1.1796621084213257,"370":2.135777711868286,"371":-1.3809788227081299,"372":-0.6189413070678711,"373":-1.7279090881347656,"374":0.5244238376617432,"375":-0.8154526352882385,"376":-0.6453133821487427,"377":-0.6134360432624817,"378":0.7284470200538635,"379":-2.508946418762207,"380":2.3733365535736084,"381":0.48217377066612244,"382":-0.6573581695556641,"383":-1.319279432296753,"384":-0.18200482428073883,"385":0.08597394078969955,"386":-0.18944530189037323,"387":-1.0888694524765015,"388":-0.935279905796051,"389":-0.7059336304664612,"390":2.1277272701263428,"391":1.205566644668579,"392":-1.2061543464660645,"393":1.422703504562378,"394":0.23854146897792816,"395":-0.1424969583749771,"396":-0.14050628244876862,"397":-0.07288839668035507,"398":-1.1907942295074463,"399":-0.4594608247280121,"400":0.4164457619190216,"401":2.1315674781799316,"402":-2.433241367340088,"403":0.896974503993988,"404":-0.028970351442694664,"405":-0.3605171740055084,"406":-1.0754187107086182,"407":-0.8468300104141235,"408":0.680539071559906,"409":-0.3627527356147766,"410":-0.48264697194099426,"411":1.2587618827819824,"412":-1.3724614381790161,"413":1.5182896852493286,"414":-0.30629658699035645,"415":-0.2017161101102829,"416":-0.8570065498352051,"417":-0.19065478444099426,"418":-0.11061707884073257,"419":-0.37221091985702515,"420":-1.2851948738098145,"421":-0.02701994590461254,"422":0.23123717308044434,"423":-1.656647801399231,"424":-0.9413403868675232,"425":1.852378487586975,"426":1.8913377523422241,"427":0.8267590999603271,"428":-0.7164483666419983,"429":0.553613007068634,"430":-1.3066984415054321,"431":-0.7312787175178528,"432":-0.49990972876548767,"433":1.1943261623382568,"434":-2.563554048538208,"435":1.30100417137146,"436":-0.5296786427497864,"437":-0.3422384560108185,"438":1.0088316202163696,"439":2.1675333976745605,"440":0.2560409903526306,"441":1.2725080251693726,"442":-0.8978003263473511,"443":0.484947144985199,"444":-0.8917494416236877,"445":-0.13184984028339386,"446":0.5232360363006592,"447":-0.8972609639167786,"448":-0.5285283327102661,"449":-0.16961278021335602,"450":2.408463954925537,"451":-1.1426057815551758,"452":0.411289244890213,"453":0.8963107466697693,"454":0.8340750932693481,"455":-0.885612428188324,"456":0.8985689878463745,"457":-0.5856139659881592,"458":-1.1328521966934204,"459":-2.242624044418335,"460":-0.20031246542930603,"461":0.6774095296859741,"462":-1.156657099723816,"463":-0.8040838241577148,"464":1.3421021699905396,"465":-1.004854440689087,"466":0.7377744317054749,"467":-0.20622262358665466,"468":0.5891815423965454,"469":0.5557214021682739,"470":0.851728081703186,"471":0.7905409932136536,"472":0.10697221010923386,"473":0.3348661959171295,"474":-2.280216693878174,"475":-0.7953027486801147,"476":0.441393107175827,"477":0.9334380626678467,"478":0.37343552708625793,"479":-1.2424426078796387,"480":0.4445340931415558,"481":0.29700523614883423,"482":-0.6632241606712341,"483":0.5820428133010864,"484":-0.7781131267547607,"485":-0.1793701946735382,"486":0.30812183022499084,"487":0.8077570199966431,"488":-1.0057772397994995,"489":0.09007197618484497,"490":0.16330426931381226,"491":0.6678239107131958,"492":-0.06395594030618668,"493":0.5437722206115723,"494":-0.24756231904029846,"495":-0.4922071397304535,"496":-0.16357041895389557,"497":0.319907546043396,"498":-0.731265127658844,"499":1.2476108074188232,"500":0.016027187928557396,"501":-1.3229588270187378,"502":0.0327887237071991,"503":0.18641448020935059,"504":0.15246360003948212,"505":-0.5767784118652344,"506":-0.7387252449989319,"507":0.18778440356254578,"508":-0.009918157011270523,"509":1.218665599822998,"510":-0.22069497406482697,"511":-0.7590053081512451,"512":0.878775954246521,"513":-0.40592923760414124,"514":-1.6933083534240723,"515":-0.44156211614608765,"516":-0.15448728203773499,"517":-1.630319356918335,"518":-0.6643668413162231,"519":-0.31073975563049316,"520":1.2008830308914185,"521":-2.081960678100586,"522":-2.155930995941162,"523":-0.0848868191242218,"524":0.8033182621002197,"525":-1.1653376817703247,"526":1.809617042541504,"527":0.3492884039878845,"528":1.2735235691070557,"529":-0.34713613986968994,"530":1.6177849769592285,"531":-1.052558183670044,"532":0.3739851415157318,"533":-0.10106569528579712,"534":-1.6572253704071045,"535":-1.4305058717727661,"536":0.2670706808567047,"537":-0.8804268836975098,"538":0.17411206662654877,"539":0.03008507564663887,"540":0.7272845506668091,"541":-0.35670796036720276,"542":0.03598976135253906,"543":0.08536890894174576,"544":0.2769460678100586,"545":-0.5419105887413025,"546":-0.1628352254629135,"547":1.4472167491912842,"548":1.9207334518432617,"549":-0.17763327062129974,"550":-0.09190845489501953,"551":1.111963152885437,"552":0.54051673412323,"553":-2.6981985569000244,"554":-2.594428777694702,"555":-1.1810036897659302,"556":1.6248191595077515,"557":-0.31433621048927307,"558":0.5291721224784851,"559":0.8076789379119873,"560":-0.40059006214141846,"561":-0.7014860510826111,"562":2.4124834537506104,"563":-1.2984428405761719,"564":0.42582836747169495,"565":-1.4197545051574707,"566":-0.28472959995269775,"567":-1.8548784255981445,"568":0.31435519456863403,"569":-1.159111499786377,"570":-0.2295866459608078,"571":-1.7793710231781006,"572":1.7530416250228882,"573":0.7459093332290649,"574":-0.7719419598579407,"575":0.7562676668167114,"576":0.203070268034935,"577":0.22185727953910828,"578":0.623092770576477,"579":0.48703527450561523,"580":2.15297794342041,"581":-1.101436972618103,"582":-0.082930788397789,"583":0.7759237289428711,"584":2.1175999641418457,"585":-0.5409613251686096,"586":-0.4774937629699707,"587":-2.952331304550171,"588":-0.3744443953037262,"589":0.6572347283363342,"590":0.9064152836799622,"591":2.4936373233795166,"592":1.1422663927078247,"593":0.2466505616903305,"594":1.0411503314971924,"595":0.014562122523784637,"596":-0.8345728516578674,"597":0.05828399583697319,"598":-0.9036191701889038,"599":-0.01362027321010828,"600":-1.2984917163848877,"601":-0.38244226574897766,"602":2.2349939346313477,"603":-0.4894654154777527,"604":-0.0042850603349506855,"605":0.14370115101337433,"606":-1.3697481155395508,"607":1.831138014793396,"608":0.5401659607887268,"609":-0.2145598828792572,"610":0.17508693039417267,"611":-0.02919630892574787,"612":-0.36818596720695496,"613":1.091933250427246,"614":-0.7256569862365723,"615":-0.26985105872154236,"616":-0.11329758167266846,"617":-0.5311092734336853,"618":-0.4923662543296814,"619":0.6563721895217896,"620":-0.18170082569122314,"621":-0.35073307156562805,"622":-0.041056279093027115,"623":-0.39995452761650085,"624":-0.4229820966720581,"625":-0.012472337111830711,"626":1.2255170345306396,"627":-0.7162007689476013,"628":0.2638343274593353,"629":0.1807396113872528,"630":1.0782381296157837,"631":0.12447278946638107,"632":0.9417197108268738,"633":0.07036720961332321,"634":-0.7535891532897949,"635":-0.8217822909355164,"636":0.8148213028907776,"637":0.5748904347419739,"638":0.6679486036300659,"639":0.24676090478897095}},"outputHidden":{"rows":20,"columns":20,"weights":{"0":-1.5600863695144653,"1":-0.5298518538475037,"2":1.168768286705017,"3":-0.9199334979057312,"4":-0.6181284189224243,"5":1.0469673871994019,"6":0.2919544577598572,"7":-2.0959291458129883,"8":-1.4342228174209595,"9":-0.02617471292614937,"10":-1.6277661323547363,"11":0.13060563802719116,"12":0.09688688814640045,"13":0.6368932723999023,"14":-1.8964900970458984,"15":1.189133644104004,"16":0.32352665066719055,"17":-0.00024069781647995114,"18":0.7257696390151978,"19":0.5133416056632996,"20":-0.3148512542247772,"21":-0.4623092710971832,"22":-0.1757451742887497,"23":0.16760538518428802,"24":1.5152946710586548,"25":0.5179957747459412,"26":-0.38096168637275696,"27":-0.9867304563522339,"28":-1.0781091451644897,"29":0.2740009129047394,"30":0.9010612368583679,"31":-0.3004138469696045,"32":0.014678999781608582,"33":0.22239144146442413,"34":-1.196626901626587,"35":0.31443214416503906,"36":0.2669892907142639,"37":0.4388537108898163,"38":-0.7189198732376099,"39":0.23076020181179047,"40":0.07973423600196838,"41":-0.8117853999137878,"42":-2.5145339965820312,"43":1.400112271308899,"44":0.11486279219388962,"45":0.7996835708618164,"46":0.7389457821846008,"47":-0.9601054787635803,"48":2.8844618797302246,"49":0.6171866655349731,"50":-0.3393584191799164,"51":-2.1431267261505127,"52":0.5024576783180237,"53":0.32274702191352844,"54":1.135994553565979,"55":-0.14846071600914001,"56":-0.08339410275220871,"57":1.2868679761886597,"58":-0.06409646570682526,"59":0.5819718241691589,"60":-0.005907726474106312,"61":-1.356339693069458,"62":-0.547261655330658,"63":-2.2926456928253174,"64":-1.4325878620147705,"65":-0.127538800239563,"66":-3.071401357650757,"67":-0.7283565402030945,"68":0.4909420907497406,"69":-2.3386154174804688,"70":0.9335294961929321,"71":1.757988691329956,"72":-1.2173298597335815,"73":1.295952558517456,"74":0.24080640077590942,