{"type":"LSTM","options":{"inputSize":32,"inputRange":32,"hiddenLayers":[20,20],"outputSize":32,"decayRate":0.999,"smoothEps":1e-8,"regc":0.000001,"clipval":5,"maxPredictionLength":100,"dataFormatter":{"values":["Hello How are you","Greeting","Hello Good morning","Hi!","Good evening","The world is a terrible place!","Sad","I dont feel good about this","I feel terrible","Thankyou","Happy","That sounds good","The weather feels beautiful today"],"indexTable":{"H":0,"e":1,"l":2,"o":3," ":4,"w":5,"a":6,"r":7,"y":8,"u":9,"G":10,"t":11,"i":12,"n":13,"g":14,"d":15,"m":16,"!":17,"v":18,"T":19,"h":20,"s":21,"b":22,"p":23,"c":24,"S":25,"I":26,"f":27,"k":28,"stop-input":29,"start-output":30,"unrecognized":31},"characterTable":{"0":"H","1":"e","2":"l","3":"o","4":" ","5":"w","6":"a","7":"r","8":"y","9":"u","10":"G","11":"t","12":"i","13":"n","14":"g","15":"d","16":"m","17":"!","18":"v","19":"T","20":"h","21":"s","22":"b","23":"p","24":"c","25":"S","26":"I","27":"f","28":"k","29":null,"30":null,"31":null},"characters":["H","e","l","o"," ","w","a","r","y","u","G","t","i","n","g","d","m","!","v","T","h","s","b","p","c","S","I","f","k","stop-input","start-output","unrecognized"],"specialIndexes":[29,30,31]}},"input":{"rows":33,"columns":32,"weights":{"0":0.051737334579229355,"1":0.6857691407203674,"2":-0.0381537564098835,"3":-0.40692374110221863,"4":-0.35762831568717957,"5":-0.2710549533367157,"6":0.4735853970050812,"7":0.5003122091293335,"8":-0.0021932790987193584,"9":0.3152792155742645,"10":-0.43873313069343567,"11":0.49548086524009705,"12":0.008093222044408321,"13":1.4803292751312256,"14":-0.060158491134643555,"15":0.5255763530731201,"16":-0.7448733448982239,"17":0.03747410699725151,"18":0.19221815466880798,"19":0.8424558639526367,"20":0.6439481377601624,"21":-0.974922776222229,"22":0.4752538204193115,"23":0.2507072389125824,"24":0.5634657144546509,"25":0.14189265668392181,"26":0.07926205545663834,"27":0.21181295812129974,"28":0.6959016919136047,"29":-0.7212303876876831,"30":-0.12510421872138977,"31":-0.3596741557121277,"32":-0.7536362409591675,"33":-0.3304327428340912,"34":-1.6244667768478394,"35":-0.7861438989639282,"36":0.4784116744995117,"37":-0.14554791152477264,"38":0.14703898131847382,"39":2.247098207473755,"40":2.637474298477173,"41":1.7373545169830322,"42":-0.1280404031276703,"43":-0.16957437992095947,"44":-1.1425725221633911,"45":2.315049648284912,"46":4.4138264656066895,"47":1.844768762588501,"48":-0.25721266865730286,"49":1.7068233489990234,"50":0.4769180119037628,"51":1.8047200441360474,"52":-0.21016500890254974,"53":-0.9952086210250854,"54":-0.6010538935661316,"55":-0.2964320480823517,"56":-0.3486255407333374,"57":1.1720548868179321,"58":-1.741858720779419,"59":-0.6293968558311462,"60":2.0587496757507324,"61":0.5875492691993713,"62":0.31136929988861084,"63":-0.5375294089317322,"64":-0.5403123497962952,"65":-0.531227707862854,"66":0.6342971324920654,"67":0.8544509410858154,"68":-1.0013843774795532,"69":2.5965168476104736,"70":-1.8574877977371216,"71":-1.2808725833892822,"72":-1.2069196701049805,"73":-2.0330238342285156,"74":0.8967416286468506,"75":-0.3585844039916992,"76":1.5197439193725586,"77":-1.2565944194793701,"78":-0.178121879696846,"79":-0.7024650573730469,"80":0.6742846369743347,"81":-1.2107077836990356,"82":-0.9566965103149414,"83":-1.7122489213943481,"84":-0.5500330328941345,"85":0.798291802406311,"86":0.9072059392929077,"87":-0.23552577197551727,"88":-0.6909892559051514,"89":-1.2395213842391968,"90":0.3483620584011078,"91":1.6118147373199463,"92":-1.4883393049240112,"93":0.4949958622455597,"94":-1.2198681831359863,"95":1.0164587497711182,"96":-2.6387624740600586,"97":3.0008654594421387,"98":-1.8223570585250854,"99":0.15684835612773895,"100":2.212007999420166,"101":-0.2247115522623062,"102":0.8864074349403381,"103":-0.8015628457069397,"104":-0.04579644277691841,"105":-0.00795727875083685,"106":0.1265794336795807,"107":-1.2527658939361572,"108":-0.8343881368637085,"109":-0.9470566511154175,"110":-0.5525352954864502,"111":0.051503244787454605,"112":1.7831405401229858,"113":-0.2395540028810501,"114":-0.8794068694114685,"115":-0.38361555337905884,"116":-2.2807505130767822,"117":-1.3581655025482178,"118":0.723626971244812,"119":-3.5164432525634766,"120":-2.540369749069214,"121":-0.22638635337352753,"122":0.2764556407928467,"123":0.20178218185901642,"124":0.8240146636962891,"125":0.7201603651046753,"126":-0.12599150836467743,"127":-0.43752196431159973,"128":-1.1390098333358765,"129":1.817077875137329,"130":-0.5015362501144409,"131":-0.5448850989341736,"132":0.029871467500925064,"133":-0.5523566007614136,"134":0.30824804306030273,"135":-0.6375358700752258,"136":-0.12459366768598557,"137":0.29123589396476746,"138":0.11515309661626816,"139":-0.22762277722358704,"140":-0.04564960300922394,"141":0.30823537707328796,"142":-0.22437988221645355,"143":0.8645915389060974,"144":-0.16680628061294556,"145":0.16694842278957367,"146":0.27674368023872375,"147":1.1605615615844727,"148":0.08162634074687958,"149":-0.05876963585615158,"150":-1.1122767925262451,"151":-0.4321204423904419,"152":-0.16580858826637268,"153":0.07318583130836487,"154":-0.7068465352058411,"155":0.13616521656513214,"156":1.2575016021728516,"157":0.17162136733531952,"158":0.05426463857293129,"159":-0.5640192627906799,"160":0.33442115783691406,"161":-0.41432568430900574,"162":0.2431623935699463,"163":-1.2007566690444946,"164":0.19518038630485535,"165":-0.4286912977695465,"166":-0.09783662855625153,"167":-0.054662156850099564,"168":1.0046948194503784,"169":1.124374508857727,"170":0.4501195549964905,"171":0.2639419436454773,"172":-0.5124562382698059,"173":1.2560704946517944,"174":1.351905107498169,"175":-0.5330444574356079,"176":-0.47262945771217346,"177":1.0328071117401123,"178":1.185673475265503,"179":0.12846049666404724,"180":0.9833976030349731,"181":0.021829823032021523,"182":-0.5051355361938477,"183":1.11495840549469,"184":1.0421415567398071,"185":0.8557695746421814,"186":-0.6846389174461365,"187":-0.8258057832717896,"188":0.7148991823196411,"189":-0.2560440003871918,"190":0.5696573853492737,"191":0.32430601119995117,"192":-0.022406188771128654,"193":0.6020437479019165,"194":-0.048369232565164566,"195":-1.509647011756897,"196":-0.7137998342514038,"197":-2.08351731300354,"198":3.10122013092041,"199":-0.22715578973293304,"200":1.5863659381866455,"201":0.28767871856689453,"202":-2.5888547897338867,"203":-0.2330418974161148,"204":-1.1722902059555054,"205":-0.35550549626350403,"206":0.40151694416999817,"207":2.017184019088745,"208":0.742745041847229,"209":2.2338762283325195,"210":1.611142873764038,"211":0.7101097106933594,"212":-0.5099925398826599,"213":1.0208654403686523,"214":-0.9280983209609985,"215":-0.4898911416530609,"216":0.26116943359375,"217":2.5906014442443848,"218":-2.231565475463867,"219":-1.9053200483322144,"220":-2.388122081756592,"221":1.7519207000732422,"222":1.6735796928405762,"223":-2.5857932567596436,"224":0.22763295471668243,"225":1.0950011014938354,"226":-1.9133011102676392,"227":0.9216964244842529,"228":1.4674012660980225,"229":-0.24251163005828857,"230":-1.49810791015625,"231":1.325006365776062,"232":-0.9846566915512085,"233":0.2236739993095398,"234":1.091192364692688,"235":0.29679590463638306,"236":0.7440563440322876,"237":0.7081155180931091,"238":-0.46759456396102905,"239":-1.0838723182678223,"240":-0.6897151470184326,"241":-1.0697580575942993,"242":-1.2491892576217651,"243":-0.44494694471359253,"244":-0.058580487966537476,"245":-3.4203686714172363,"246":-0.44761666655540466,"247":0.6208705306053162,"248":0.42961522936820984,"249":-0.5905603766441345,"250":0.9103196263313293,"251":0.47019439935684204,"252":4.471527099609375,"253":-2.6551103591918945,"254":-1.1142674684524536,"255":0.44105225801467896,"256":0.6773380041122437,"257":-1.1065723896026611,"258":1.1824843883514404,"259":1.0171188116073608,"260":-1.439765453338623,"261":0.34384122490882874,"262":-0.4856463670730591,"263":2.1279211044311523,"264":-1.3164780139923096,"265":-0.6776755452156067,"266":0.9388267397880554,"267":1.6637450456619263,"268":0.6604002118110657,"269":-1.311476707458496,"270":-0.20831647515296936,"271":-1.8762046098709106,"272":-1.2705342769622803,"273":-1.8270573616027832,"274":-1.6264922618865967,"275":0.5019546151161194,"276":0.40228623151779175,"277":-0.6991511583328247,"278":-0.3905118703842163,"279":1.1270960569381714,"280":1.064094066619873,"281":-1.1508817672729492,"282":1.3817404508590698,"283":1.666873574256897,"284":-0.011034700088202953,"285":-0.5328462719917297,"286":-1.2317628860473633,"287":0.21177852153778076,"288":-0.10792191326618195,"289":-0.7726510167121887,"290":0.24483922123908997,"291":-0.9921231269836426,"292":0.017307518050074577,"293":-0.9441408514976501,"294":-2.156528949737549,"295":1.1070101261138916,"296":0.23446880280971527,"297":1.3753412961959839,"298":3.3511555194854736,"299":1.058458924293518,"300":0.981070876121521,"301":2.619166851043701,"302":2.3976800441741943,"303":-1.485442042350769,"304":-1.9586138725280762,"305":-0.1229315847158432,"306":1.4182772636413574,"307":-0.663812518119812,"308":1.652925729751587,"309":-2.187052011489868,"310":-2.1816999912261963,"311":1.7400884628295898,"312":2.943286418914795,"313":0.6568847298622131,"314":-0.9960565567016602,"315":-0.18688906729221344,"316":3.3968780040740967,"317":1.3049131631851196,"318":-0.9066007733345032,"319":2.735612392425537,"320":-0.7626461386680603,"321":0.5459537506103516,"322":-0.30542299151420593,"323":0.7061058878898621,"324":1.3362901210784912,"325":0.6019013524055481,"326":-0.5481213927268982,"327":0.17059226334095,"328":-0.6905084252357483,"329":-0.7911566495895386,"330":1.8576469421386719,"331":-0.877853512763977,"332":0.6164805293083191,"333":-0.011316710151731968,"334":1.8663573265075684,"335":-2.3670620918273926,"336":0.8605108857154846,"337":-1.7900738716125488,"338":-0.8998222947120667,"339":-0.40089917182922363,"340":-0.4099191129207611,"341":-1.7687443494796753,"342":1.509691596031189,"343":-0.9408152103424072,"344":-0.6231583952903748,"345":-0.9622297883033752,"346":2.116730213165283,"347":1.3942351341247559,"348":1.2644661664962769,"349":-1.6639225482940674,"350":-0.1319442093372345,"351":1.5229605436325073,"352":0.9058032631874084,"353":-1.2408305406570435,"354":0.32296043634414673,"355":3.2643134593963623,"356":-0.16857893764972687,"357":1.4320225715637207,"358":-1.1126456260681152,"359":0.9988123774528503,"360":-3.7421295642852783,"361":-1.5237675905227661,"362":2.6690566539764404,"363":1.1598535776138306,"364":4.146046161651611,"365":-2.505392074584961,"366":-1.3772196769714355,"367":-1.7249374389648438,"368":-1.4466875791549683,"369":-3.777592897415161,"370":-3.718937635421753,"371":-0.6558287739753723,"372":0.24959421157836914,"373":-1.2570968866348267,"374":0.916397750377655,"375":1.1314663887023926,"376":0.6566526889801025,"377":-3.423849582672119,"378":1.3637423515319824,"379":4.144954204559326,"380":3.1529951095581055,"381":1.1678017377853394,"382":-3.3672983646392822,"383":2.0405962467193604,"384":-0.6479024887084961,"385":0.402055561542511,"386":-0.4711304306983948,"387":0.30280444025993347,"388":0.5939042568206787,"389":0.8821069598197937,"390":-0.7222692966461182,"391":-1.6453808546066284,"392":-0.5686421990394592,"393":-0.8160600066184998,"394":0.5022719502449036,"395":-0.8663889765739441,"396":0.03688851371407509,"397":-2.330080986022949,"398":-0.6127600073814392,"399":-1.0563316345214844,"400":1.5906111001968384,"401":-0.10043216496706009,"402":-0.5514028072357178,"403":-1.5275678634643555,"404":-1.2851613759994507,"405":1.7127256393432617,"406":-0.2899799942970276,"407":-1.151193380355835,"408":-1.3409141302108765,"409":-0.3228471577167511,"410":0.5824130177497864,"411":0.05530808866024017,"412":-1.593000054359436,"413":0.7733849287033081,"414":-0.2486279159784317,"415":0.46733030676841736,"416":2.019667863845825,"417":-0.8005671501159668,"418":0.880748450756073,"419":0.03720725700259209,"420":-1.128366231918335,"421":0.8926252126693726,"422":-0.1297808587551117,"423":2.507406711578369,"424":-0.24785280227661133,"425":-0.6517580151557922,"426":-0.6736626029014587,"427":1.6488522291183472,"428":-0.11546268314123154,"429":1.9761242866516113,"430":0.39407163858413696,"431":0.28863945603370667,"432":-2.0718865394592285,"433":0.3772311508655548,"434":-0.4156377911567688,"435":-0.08577822893857956,"436":1.1021705865859985,"437":-0.7467353343963623,"438":0.9518018960952759,"439":1.1799631118774414,"440":0.7189964056015015,"441":-0.2452046275138855,"442":0.306006520986557,"443":0.6696413159370422,"444":-0.0006659057689830661,"445":-1.3153454065322876,"446":0.06940371543169022,"447":-0.48253917694091797,"448":0.27460482716560364,"449":0.15160979330539703,"450":-0.4348335564136505,"451":1.4636170864105225,"452":1.026537299156189,"453":0.4480162560939789,"454":0.3628101944923401,"455":-2.3015263080596924,"456":-0.9040517807006836,"457":-1.1536800861358643,"458":-0.5795965194702148,"459":0.20883816480636597,"460":2.6811299324035645,"461":-1.9195338487625122,"462":-3.724310874938965,"463":1.1650258302688599,"464":0.04419161379337311,"465":0.2719815969467163,"466":-0.6385094523429871,"467":-0.5138526558876038,"468":0.31810617446899414,"469":-0.85713130235672,"470":2.2875149250030518,"471":0.1589604914188385,"472":0.16207058727741241,"473":-1.0090274810791016,"474":0.12709958851337433,"475":0.6098049879074097,"476":1.0948410034179688,"477":-1.2485411167144775,"478":-1.1165597438812256,"479":0.0777553915977478,"480":0.08468502014875412,"481":-0.0404835119843483,"482":0.37222522497177124,"483":1.7687708139419556,"484":-0.33739393949508667,"485":1.1276451349258423,"486":-1.0574169158935547,"487":-1.2582534551620483,"488":-1.6880954504013062,"489":-1.6899439096450806,"490":0.906865119934082,"491":0.6418832540512085,"492":1.8255078792572021,"493":-1.4962756633758545,"494":-0.5874091386795044,"495":-0.6023762822151184,"496":-0.4270094931125641,"497":-2.0935263633728027,"498":-1.9596840143203735,"499":-0.7071046829223633,"500":-0.21357358992099762,"501":-0.6943404674530029,"502":-0.12691882252693176,"503":0.6577063798904419,"504":-0.30760273337364197,"505":-1.6868960857391357,"506":0.14742839336395264,"507":2.2534618377685547,"508":0.1313311755657196,"509":0.24676570296287537,"510":-1.5504993200302124,"511":0.021198512986302376,"512":-0.8807048797607422,"513":-0.8467680811882019,"514":0.020320622250437737,"515":-0.988238513469696,"516":-0.8528021574020386,"517":0.6698967218399048,"518":-1.4471192359924316,"519":0.030115367844700813,"520":0.1294959932565689,"521":-0.15637928247451782,"522":0.35024288296699524,"523":0.025851357728242874,"524":0.2978929579257965,"525":2.106412410736084,"526":0.5535538196563721,"527":0.03498844802379608,"528":-1.8038146495819092,"529":0.3639339506626129,"530":0.6411965489387512,"531":-0.37071293592453003,"532":0.4866795837879181,"533":0.24579428136348724,"534":-1.1367288827896118,"535":1.6510769128799438,"536":1.2919694185256958,"537":-0.1668831706047058,"538":-0.3118366003036499,"539":0.4002465009689331,"540":0.6244928240776062,"541":-0.7394698858261108,"542":-0.18625138700008392,"543":0.38995125889778137,"544":-2.544243335723877,"545":1.841391682624817,"546":-2.1182897090911865,"547":-1.7409167289733887,"548":-1.2035949230194092,"549":3.519381046295166,"550":-3.731309413909912,"551":-2.2227516174316406,"552":-4.485796928405762,"553":0.50630784034729,"554":0.5837234854698181,"555":-2.6198413372039795,"556":7.226311683654785,"557":-0.30705535411834717,"558":-4.412270545959473,"559":2.893826484680176,"560":0.9171298742294312,"561":-3.48689603805542,"562":-2.4793334007263184,"563":0.5275312662124634,"564":-5.079739570617676,"565":4.116713523864746,"566":-3.7138540744781494,"567":-2.786224126815796,"568":-3.9446358680725098,"569":-1.0467334985733032,"570":-3.5810153484344482,"571":3.050016164779663,"572":-0.6078923940658569,"573":1.6036803722381592,"574":-5.574053764343262,"575":0.622851550579071,"576":0.3303775489330292,"577":-2.94823956489563,"578":2.7241711616516113,"579":-1.3751963376998901,"580":-2.558112144470215,"581":-4.006243705749512,"582":2.22613787651062,"583":2.6942622661590576,"584":1.0908153057098389,"585":4.223940372467041,"586":-0.9284413456916809,"587":2.374188184738159,"588":0.9593266844749451,"589":-1.344380497932434,"590":-0.972198486328125,"591":4.072056293487549,"592":-3.560199022293091,"593":0.9497804641723633,"594":3.0534253120422363,"595":3.634488344192505,"596":2.3320887088775635,"597":1.3085440397262573,"598":-2.1988577842712402,"599":3.8751792907714844,"600":3.273649215698242,"601":3.4545156955718994,"602":-3.261482000350952,"603":-0.8313857913017273,"604":-1.2639400959014893,"605":2.5246217250823975,"606":0.8400787115097046,"607":-1.321259617805481,"608":1.5340532064437866,"609":-1.6477832794189453,"610":1.9693092107772827,"611":0.9674821496009827,"612":-1.9277911186218262,"613":0.9676035642623901,"614":-0.8769168257713318,"615":3.677079439163208,"616":-1.6198596954345703,"617":-1.100716233253479,"618":1.6168408393859863,"619":2.2233283519744873,"620":1.879307746887207,"621":-2.755744218826294,"622":1.9500478506088257,"623":-1.6434266567230225,"624":-1.9861459732055664,"625":-2.3880536556243896,"626":-1.3691504001617432,"627":-0.8189175128936768,"628":1.701776146888733,"629":-2.6068406105041504,"630":1.502597451210022,"631":1.7186955213546753,"632":1.7827377319335938,"633":-1.4297832250595093,"634":1.4135844707489014,"635":2.190886974334717,"636":2.3737258911132812,"637":-0.6187748312950134,"638":-1.7796399593353271,"639":1.6913522481918335,"640":0.6185824275016785,"641":0.08022689074277878,"642":1.3235719203948975,"643":1.555875301361084,"644":0.06404313445091248,"645":-1.0206594467163086,"646":2.5604934692382812,"647":-0.232848659157753,"648":1.363020896911621,"649":0.3562830090522766,"650":-0.5603994131088257,"651":0.6685099601745605,"652":-0.6438804268836975,"653":-1.9329476356506348,"654":0.7254050374031067,"655":-1.378556728363037,"656":-1.0172505378723145,"657":-1.929879903793335,"658":-1.6759976148605347,"659":1.9882639646530151,"660":-0.1146559789776802,"661":2.3376564979553223,"662":-1.3398520946502686,"663":0.377058207988739,"664":-0.1863156408071518,"665":0.31717002391815186,"666":1.3396236896514893,"667":1.4633443355560303,"668":-3.419739246368408,"669":0.4164222180843353,"670":1.3506975173950195,"671":-1.7668012380599976,"672":-0.2340191751718521,"673":-0.2752951979637146,"674":0.843260645866394,"675":0.20106680691242218,"676":-1.3007991313934326,"677":0.4069727957248688,"678":0.7101523876190186,"679":0.46020278334617615,"680":0.6502991914749146,"681":-1.1408790349960327,"682":-1.24491286277771,"683":-0.8481581807136536,"684":-2.009653091430664,"685":1.365020513534546,"686":-0.6883980631828308,"687":0.12810981273651123,"688":-0.025550181046128273,"689":2.024916887283325,"690":0.12187548726797104,"691":0.32251206040382385,"692":1.7958273887634277,"693":-0.021870722994208336,"694":0.98790442943573,"695":-0.882297933101654,"696":0.741204559803009,"697":-0.452046662569046,"698":-0.0752798393368721,"699":-1.2093415260314941,"700":-0.3726303279399872,"701":-0.7983434796333313,"702":1.7560200691223145,"703":-1.3296653032302856,"704":0.9674918055534363,"705":1.4475337266921997,"706":-0.21867673099040985,"707":-2.5620574951171875,"708":0.42249250411987305,"709":-3.156489133834839,"710":2.8016955852508545,"711":-0.21862374246120453,"712":1.579791784286499,"713":1.8412842750549316,"714":-2.623516082763672,"715":0.12443733960390091,"716":-1.8180718421936035,"717":0.00863823015242815,"718":0.18744336068630219,"719":2.152625560760498,"720":0.40981510281562805,"721":2.772791862487793,"722":2.899702548980713,"723":0.40632498264312744,"724":0.8471227288246155,"725":0.8923382759094238,"726":-2.197693109512329,"727":0.12010117620229721,"728":0.6001495122909546,"729":2.444108724594116,"730":-2.292783260345459,"731":-1.9685783386230469,"732":-0.5199204087257385,"733":2.674468517303467,"734":1.597731113433838,"735":-3.101746082305908,"736":-5.209108829498291,"737":0.8714216351509094,"738":-2.360999584197998,"739":-2.012958288192749,"740":-0.432361364364624,"741":-1.9489459991455078,"742":0.5149691700935364,"743":-0.9788879156112671,"744":1.5032492876052856,"745":1.9030327796936035,"746":-0.1615707278251648,"747":-3.549260377883911,"748":1.5168848037719727,"749":0.4535997807979584,"750":0.6819337010383606,"751":2.2834417819976807,"752":0.5536866784095764,"753":0.25960057973861694,"754":1.3383930921554565,"755":4.029789924621582,"756":-2.5480153560638428,"757":-0.4073827266693115,"758":-1.4965232610702515,"759":-1.0613995790481567,"760":-2.5617833137512207,"761":1.0803545713424683,"762":-1.9107909202575684,"763":-0.02425309456884861,"764":2.3031129837036133,"765":0.1396876573562622,"766":-1.090376853942871,"767":-0.18691527843475342,"768":0.021002745255827904,"769":0.11928041279315948,"770":-0.7987950444221497,"771":-0.7786871790885925,"772":0.10832137614488602,"773":-1.9783613681793213,"774":1.5129386186599731,"775":1.0949599742889404,"776":1.1806175708770752,"777":2.071190118789673,"778":-0.9434514045715332,"779":0.04202470928430557,"780":0.34080806374549866,"781":1.3294810056686401,"782":0.8975891470909119,"783":1.815423846244812,"784":-1.4472264051437378,"785":0.6190451383590698,"786":1.5375609397888184,"787":1.5307296514511108,"788":-0.5684728026390076,"789":1.1172664165496826,"790":-2.009612798690796,"791":0.9185544848442078,"792":0.3857842683792114,"793":1.5048178434371948,"794":-2.170984983444214,"795":-1.1992160081863403,"796":-0.5463347434997559,"797":2.467301368713379,"798":1.0379148721694946,"799":-0.8027926683425903,"800":1.6325408220291138,"801":-1.2871463298797607,"802":1.2449891567230225,"803":-1.3863524198532104,"804":0.2285672128200531,"805":-2.587650775909424,"806":1.8251581192016602,"807":-0.41869500279426575,"808":3.529658317565918,"809":0.8264551162719727,"810":-1.4578343629837036,"811":0.667809784412384,"812":-3.2808589935302734,"813":-1.1659213304519653,"814":0.6407588720321655,"815":1.1897892951965332,"816":1.6429638862609863,"817":3.3961024284362793,"818":2.9839417934417725,"819":-1.6317692995071411,"820":3.1660735607147217,"821":-0.1556985229253769,"822":1.9008573293685913,"823":0.5679610371589661,"824":4.964982032775879,"825":3.1147828102111816,"826":-1.181089162826538,"827":-4.058905601501465,"828":-3.855611562728882,"829":-1.3163625001907349,"830":3.905911922454834,"831":-1.4227486848831177,"832":-0.9888337254524231,"833":0.09764204919338226,"834":0.6031076312065125,"835":-1.0937696695327759,"836":-0.4983768165111542,"837":-0.4304805099964142,"838":0.25168344378471375,"839":-0.4467622637748718,"840":0.9741120934486389,"841":0.019223161041736603,"842":0.4139622151851654,"843":-0.714640736579895,"844":-2.426424026489258,"845":0.4345218539237976,"846":2.2341458797454834,"847":-0.79395592212677,"848":1.7287486791610718,"849":0.38546493649482727,"850":0.3572442829608917,"851":0.46967175602912903,"852":-1.420259714126587,"853":3.7842352390289307,"854":-1.8400845527648926,"855":-2.4121286869049072,"856":-2.165642499923706,"857":0.4118732213973999,"858":0.6648263335227966,"859":-0.9798387289047241,"860":-3.552487373352051,"861":-0.7389272451400757,"862":1.1954013109207153,"863":-0.24357910454273224,"864":-0.5857688784599304,"865":-1.1212670803070068,"866":1.0467594861984253,"867":0.8923009634017944,"868":-1.8029628992080688,"869":1.522515892982483,"870":-0.7466409206390381,"871":-3.223708152770996,"872":-2.0640149116516113,"873":-1.1300761699676514,"874":-1.077984094619751,"875":-0.8497475385665894,"876":3.9155430793762207,"877":-4.700066566467285,"878":-4.374021053314209,"879":-0.03387027606368065,"880":-1.1714777946472168,"881":-1.3694982528686523,"882":-1.3345890045166016,"883":-0.28040918707847595,"884":-1.749910831451416,"885":0.00366570963524282,"886":1.2264260053634644,"887":0.0754188746213913,"888":-2.035144090652466,"889":-1.7273330688476562,"890":0.573642373085022,"891":2.320000410079956,"892":0.2708866000175476,"893":0.05223763734102249,"894":-3.3671042919158936,"895":0.6072202324867249,"896":2.9394335746765137,"897":-1.2683746814727783,"898":0.7170819044113159,"899":-0.4088532030582428,"900":-1.2153822183609009,"901":0.44251808524131775,"902":-0.9505864977836609,"903":2.105940580368042,"904":-0.3562745451927185,"905":0.06377417594194412,"906":-1.022328495979309,"907":1.5675338506698608,"908":1.0439200401306152,"909":4.13134765625,"910":-0.9026718735694885,"911":0.6274891495704651,"912":-3.5506184101104736,"913":0.41988325119018555,"914":0.2909530997276306,"915":0.11743441224098206,"916":0.74610835313797,"917":-0.4567120671272278,"918":-0.020883819088339806,"919":1.9811136722564697,"920":0.44632038474082947,"921":0.0375007688999176,"922":-0.06461207568645477,"923":0.4502220153808594,"924":0.10015863925218582,"925":-2.229166030883789,"926":-0.11346122622489929,"927":-0.46927306056022644,"928":-0.2475113421678543,"929":1.8276827335357666,"930":-3.06514573097229,"931":-2.900487184524536,"932":0.3108263313770294,"933":-0.2928099036216736,"934":2.6369223594665527,"935":-0.7308345437049866,"936":1.8121392726898193,"937":3.857254981994629,"938":-2.151743173599243,"939":-0.2979598045349121,"940":1.3132712841033936,"941":1.791042685508728,"942":4.197504043579102,"943":3.946033239364624,"944":-2.7932004928588867,"945":0.003996548242866993,"946":3.0326197147369385,"947":3.44343900680542,"948":-0.5149681568145752,"949":3.3854293823242188,"950":-4.1643829345703125,"951":-0.00919964350759983,"952":-0.22107581794261932,"953":1.3739523887634277,"954":-3.824237108230591,"955":0.37586739659309387,"956":-1.1380565166473389,"957":5.293787956237793,"958":-0.10892385989427567,"959":-2.4981324672698975,"960":0.8933947682380676,"961":-1.4863877296447754,"962":1.033569097518921,"963":-0.29545527696609497,"964":-2.1233608722686768,"965":0.506633460521698,"966":-0.22790995240211487,"967":0.021572129800915718,"968":0.08265841007232666,"969":0.2558155953884125,"970":0.9001415371894836,"971":0.348723828792572,"972":-0.012310225516557693,"973":-0.3332294821739197,"974":1.832292914390564,"975":-0.30910995602607727,"976":0.08283716440200806,"977":0.04873306304216385,"978":0.21225930750370026,"979":-0.296943336725235,"980":0.8590872883796692,"981":0.70038902759552,"982":0.23160602152347565,"983":0.28972458839416504,"984":1.257016658782959,"985":0.16886557638645172,"986":0.21510659158229828,"987":-0.5659914612770081,"988":-1.7721925973892212,"989":-0.45919063687324524,"990":-0.05097121372818947,"991":0.7704483866691589,"992":0.45096343755722046,"993":-0.5483349561691284,"994":0.3678262233734131,"995":0.8435599207878113,"996":-0.5305055975914001,"997":0.6493239402770996,"998":-0.9525201320648193,"999":0.17003163695335388,"1000":-0.48473575711250305,"1001":-0.7664445638656616,"1002":0.5259087681770325,"1003":0.3386657238006592,"1004":1.3357713222503662,"1005":-0.11055897176265717,"1006":-1.8029924631118774,"1007":-0.38050922751426697,"1008":-0.2998312711715698,"1009":-0.6758888363838196,"1010":-0.6590030789375305,"1011":-1.3165793418884277,"1012":0.868912935256958,"1013":-1.4787174463272095,"1014":0.9143154621124268,"1015":0.46229004859924316,"1016":0.5266130566596985,"1017":-0.9317132234573364,"1018":0.5413000583648682,"1019":0.41467657685279846,"1020":0.9378716945648193,"1021":-0.732294499874115,"1022":-0.6395571231842041,"1023":1.04468834400177,"1024":-0.04418959468603134,"1025":-0.03180214390158653,"1026":-0.04495294392108917,"1027":-0.0460168831050396,"1028":0.006407405249774456,"1029":0.04259289428591728,"1030":-0.016572386026382446,"1031":-0.02130189724266529,"1032":0.001445684814825654,"1033":-0.02770845778286457,"1034":0.037299856543540955,"1035":0.07172878086566925,"1036":-0.030972979962825775,"1037":-0.0019336403347551823,"1038":-0.030368728563189507,"1039":0.07051977515220642,"1040":-0.0715964138507843,"1041":-0.021112866699695587,"1042":-0.027158407494425774,"1043":-0.05848933756351471,"1044":0.048252951353788376,"1045":-0.060994796454906464,"1046":-0.024229159578680992,"1047":-0.028797300532460213,"1048":0.029712622985243797,"1049":-0.0498158223927021,"1050":-0.05699300765991211,"1051":-0.04335733503103256,"1052":0.04531789943575859,"1053":0.07661338150501251,"1054":-0.007819435559213161,"1055":-0.035023804754018784}},"hiddenLayers":[{"inputMatrix":{"rows":20,"columns":32,"weights":{"0":0.9982545971870422,"1":-0.5240857601165771,"2":0.16691629588603973,"3":0.0027928424533456564,"4":0.7668893933296204,"5":-0.4433292746543884,"6":0.319997102022171,"7":1.873408317565918,"8":0.17719708383083344,"9":0.8477440476417542,"10":-0.29129889607429504,"11":1.097628116607666,"12":-0.18462231755256653,"13":1.2100112438201904,"14":1.7326995134353638,"15":0.5641187429428101,"16":-0.9025248289108276,"17":0.06106055900454521,"18":0.3988876938819885,"19":0.15188008546829224,"20":1.1541715860366821,"21":-0.4281260073184967,"22":0.18710751831531525,"23":1.2857900857925415,"24":1.7854405641555786,"25":0.11491922289133072,"26":-0.6585923433303833,"27":0.19121699035167694,"28":-0.16591693460941315,"29":1.2400784492492676,"30":0.1326817274093628,"31":-0.16011516749858856,"32":-0.08333529531955719,"33":-1.3014392852783203,"34":0.8018556237220764,"35":0.21316936612129211,"36":-0.9839109778404236,"37":1.8478927612304688,"38":-2.5209641456604004,"39":0.25066128373146057,"40":-1.477123498916626,"41":-1.0141162872314453,"42":1.5866169929504395,"43":0.2841900587081909,"44":2.1739518642425537,"45":-0.18528437614440918,"46":-0.09343403577804565,"47":-0.6597746014595032,"48":-0.35992977023124695,"49":-0.4680650532245636,"50":-0.6913010478019714,"51":-1.4015899896621704,"52":0.2527749240398407,"53":-0.5024250745773315,"54":0.47253015637397766,"55":0.435523122549057,"56":0.5303522348403931,"57":-1.1692206859588623,"58":0.8454198241233826,"59":1.7126952409744263,"60":0.22222837805747986,"61":-0.9471174478530884,"62":-1.7160558700561523,"63":1.6900397539138794,"64":-0.8528286218643188,"65":-0.4483625888824463,"66":-0.6721644401550293,"67":0.2571747899055481,"68":1.137128472328186,"69":0.26854294538497925,"70":0.06225545331835747,"71":0.5180612206459045,"72":0.6465227007865906,"73":-0.393428772687912,"74":-0.06337279081344604,"75":-1.8502641916275024,"76":-0.7735022902488708,"77":-0.46547555923461914,"78":-0.26841557025909424,"79":0.2922930121421814,"80":2.98730731010437,"81":0.5848685503005981,"82":-0.045875027775764465,"83":-0.5455260276794434,"84":-0.9019252061843872,"85":-0.47390660643577576,"86":1.7454090118408203,"87":-1.6808737516403198,"88":-0.7626342177391052,"89":0.6623371243476868,"90":-0.1739647537469864,"91":-0.4985964298248291,"92":-1.381669044494629,"93":-0.07334083318710327,"94":0.5220358967781067,"95":-0.01429811492562294,"96":-0.03887661546468735,"97":-1.0941662788391113,"98":0.4339838922023773,"99":0.36916062235832214,"100":-1.327075481414795,"101":1.3353310823440552,"102":-0.6990005970001221,"103":0.217336505651474,"104":-0.7045596837997437,"105":-1.0901764631271362,"106":0.6602072715759277,"107":0.37928307056427,"108":0.517749011516571,"109":-0.3790316581726074,"110":0.23376618325710297,"111":-0.45076972246170044,"112":-0.5513939261436462,"113":0.17545361816883087,"114":-0.5447747707366943,"115":-0.7233022451400757,"116":0.1282145380973816,"117":0.5049070119857788,"118":0.49176135659217834,"119":0.07728123664855957,"120":0.11943291872739792,"121":-1.3011871576309204,"122":0.8921310305595398,"123":0.8211914896965027,"124":-0.45127809047698975,"125":-0.723375141620636,"126":-1.0380959510803223,"127":0.9929644465446472,"128":0.5087260603904724,"129":-1.0049282312393188,"130":0.6960694193840027,"131":0.24243877828121185,"132":-0.34155213832855225,"133":0.08298329263925552,"134":0.7766246199607849,"135":-0.9598597288131714,"136":0.5226809978485107,"137":0.03356597200036049,"138":-0.05712159723043442,"139":-0.4456443190574646,"140":-0.4631320536136627,"141":-1.1126782894134521,"142":0.7350814342498779,"143":-0.18745338916778564,"144":1.2600964307785034,"145":0.2831633687019348,"146":0.15925142168998718,"147":-0.5194449424743652,"148":0.26818352937698364,"149":2.718137264251709,"150":-0.0009023587917909026,"151":-0.5356890559196472,"152":0.04923906922340393,"153":0.6872338056564331,"154":0.27181476354599,"155":-0.4993801414966583,"156":-4.356887340545654,"157":1.641444206237793,"158":1.2981840372085571,"159":-0.201628640294075,"160":-1.6973013877868652,"161":1.6021716594696045,"162":-0.6966584920883179,"163":-0.8884751200675964,"164":0.2045510858297348,"165":0.3910819888114929,"166":-0.25934281945228577,"167":-1.2456345558166504,"168":-0.101540207862854,"169":-0.14212407171726227,"170":-0.2752925753593445,"171":-1.1053414344787598,"172":-0.7948271036148071,"173":-0.2789253890514374,"174":-0.6530385613441467,"175":0.5572990775108337,"176":1.5755671262741089,"177":0.3704655170440674,"178":0.27559760212898254,"179":0.3938963711261749,"180":-1.766863465309143,"181":1.8241177797317505,"182":-0.6640516519546509,"183":-1.7330254316329956,"184":-1.7904407978057861,"185":0.42128071188926697,"186":-0.41345301270484924,"187":0.009501203894615173,"188":-1.6118334531784058,"189":1.266501545906067,"190":0.019372960552573204,"191":-0.3712787628173828,"192":1.7692451477050781,"193":-1.6562659740447998,"194":1.7177443504333496,"195":0.6568077802658081,"196":-1.3315198421478271,"197":0.18028059601783752,"198":-0.0825287401676178,"199":-0.33182427287101746,"200":-0.45559677481651306,"201":-0.16429784893989563,"202":-0.17471225559711456,"203":1.6585513353347778,"204":1.3498693704605103,"205":-0.25349658727645874,"206":-0.02458244562149048,"207":0.7544016242027283,"208":-1.9061291217803955,"209":0.20078080892562866,"210":-0.07539889961481094,"211":-0.2601775825023651,"212":2.1642415523529053,"213":-0.1851407289505005,"214":0.9280981421470642,"215":2.1622297763824463,"216":1.8180509805679321,"217":-0.869037926197052,"218":-0.33608734607696533,"219":0.5099632143974304,"220":-0.47783005237579346,"221":0.6261745095252991,"222":-0.9241253137588501,"223":0.7887272238731384,"224":0.8467721343040466,"225":-1.4329630136489868,"226":1.4773138761520386,"227":-0.4270293414592743,"228":-0.7381704449653625,"229":0.42994147539138794,"230":-0.41826748847961426,"231":-0.22201572358608246,"232":0.11670716106891632,"233":0.02012300305068493,"234":0.49902820587158203,"235":0.8304573893547058,"236":-0.0879819318652153,"237":0.19882506132125854,"238":0.2976604402065277,"239":-0.9543747901916504,"240":-0.3027837872505188,"241":0.1679198443889618,"242":0.3472385108470917,"243":-1.3813488483428955,"244":0.46639683842658997,"245":1.956968069076538,"246":-0.8997512459754944,"247":0.7371000647544861,"248":0.5642300844192505,"249":0.6258596181869507,"250":0.45067277550697327,"251":0.15358580648899078,"252":-2.107050895690918,"253":-0.5339347720146179,"254":0.5402429103851318,"255":0.281930536031723,"256":0.6406900882720947,"257":0.512359082698822,"258":-0.3824111819267273,"259":-0.1787819117307663,"260":0.24149496853351593,"261":0.18881800770759583,"262":0.7576187252998352,"263":0.13517393171787262,"264":0.5143035054206848,"265":-0.08687379956245422,"266":-1.600370168685913,"267":-0.3950522243976593,"268":-0.8272548317909241,"269":0.8024234771728516,"270":-0.09721934050321579,"271":0.4885311424732208,"272":-0.045901671051979065,"273":0.8861719965934753,"274":-0.020587485283613205,"275":-0.024512603878974915,"276":-0.011469481512904167,"277":0.7876698970794678,"278":0.266520619392395,"279":-0.1369740068912506,"280":-0.29812031984329224,"281":0.23354850709438324,"282":0.1662323772907257,"283":-0.44246628880500793,"284":-1.1606289148330688,"285":-0.0036136587150394917,"286":1.1216552257537842,"287":-1.3920724391937256,"288":-0.48348739743232727,"289":-0.5678636431694031,"290":0.05079960450530052,"291":0.4877990782260895,"292":0.1622675359249115,"293":0.602715253829956,"294":-1.0960500240325928,"295":-0.7807231545448303,"296":-0.07085930556058884,"297":-0.6605459451675415,"298":0.8709846138954163,"299":-0.5359587669372559,"300":-0.2022559940814972,"301":-0.7043730616569519,"302":-0.953501284122467,"303":-0.8149223327636719,"304":1.4687927961349487,"305":-0.21986627578735352,"306":-0.12287043035030365,"307":-1.854554533958435,"308":0.2362363338470459,"309":0.2937532365322113,"310":1.282159686088562,"311":-0.9756507277488708,"312":-0.186226025223732,"313":-0.30318599939346313,"314":0.9091472029685974,"315":-0.2754170298576355,"316":-1.3141032457351685,"317":-1.736862063407898,"318":0.6088985800743103,"319":0.9553313851356506,"320":0.17456534504890442,"321":-0.1107795238494873,"322":0.10283681750297546,"323":1.1514273881912231,"324":0.36215877532958984,"325":1.1859253644943237,"326":0.1793878823518753,"327":-0.44029149413108826,"328":-0.23937533795833588,"329":-1.2488300800323486,"330":0.7570915818214417,"331":-0.06514687091112137,"332":-0.09789592027664185,"333":-1.4870182275772095,"334":0.9080789089202881,"335":-1.193009376525879,"336":0.6966302394866943,"337":-0.9442129135131836,"338":-1.3236584663391113,"339":-0.9259930849075317,"340":-0.38935181498527527,"341":0.5401300191879272,"342":1.700270652770996,"343":-0.4684370160102844,"344":-0.5764760375022888,"345":-0.8754708170890808,"346":1.6388522386550903,"347":0.4571419358253479,"348":-1.0018579959869385,"349":0.41335058212280273,"350":-0.2963904142379761,"351":1.243937373161316,"352":-0.5924603343009949,"353":0.1616312712430954,"354":-0.26731598377227783,"355":-0.058317963033914566,"356":1.3082799911499023,"357":-1.0798667669296265,"358":0.9148200750350952,"359":0.17685909569263458,"360":0.9929386377334595,"361":0.5853731632232666,"362":0.3464738428592682,"363":-0.24239346385002136,"364":-0.9273874163627625,"365":-0.3802076280117035,"366":-0.17480410635471344,"367":0.40264785289764404,"368":0.38422098755836487,"369":0.3448541760444641,"370":0.4873034358024597,"371":0.2669479548931122,"372":0.5110951662063599,"373":-0.22712378203868866,"374":-0.4466751217842102,"375":-0.025631187483668327,"376":0.46265560388565063,"377":0.870513916015625,"378":-0.7266899347305298,"379":-0.38460469245910645,"380":-0.4859156310558319,"381":0.7726932764053345,"382":1.641831398010254,"383":-0.33160504698753357,"384":-0.48620152473449707,"385":0.5329474210739136,"386":-0.12953998148441315,"387":-1.2490483522415161,"388":-0.11546197533607483,"389":-0.818719208240509,"390":0.8142976760864258,"391":-0.04804873839020729,"392":1.0195356607437134,"393":0.7633337378501892,"394":-0.944689929485321,"395":-0.49282321333885193,"396":-0.5461121797561646,"397":1.0079843997955322,"398":0.2667536735534668,"399":1.308134913444519,"400":0.020575955510139465,"401":0.9926429986953735,"402":1.1809468269348145,"403":0.7715206742286682,"404":-0.11570481956005096,"405":0.7767447829246521,"406":-1.2967222929000854,"407":-0.2870200276374817,"408":-0.010128522291779518,"409":0.9015259146690369,"410":-1.1628947257995605,"411":-0.8421964645385742,"412":-0.9492619633674622,"413":0.13735313713550568,"414":0.9580874443054199,"415":-1.034432053565979,"416":-0.23976147174835205,"417":-0.819329023361206,"418":0.4689914882183075,"419":0.6898360252380371,"420":-0.5869830846786499,"421":1.2256505489349365,"422":-1.266234278678894,"423":-0.2836771011352539,"424":-1.9420167207717896,"425":-0.32496947050094604,"426":1.771459698677063,"427":-0.0685160756111145,"428":1.8844820261001587,"429":-1.1218739748001099,"430":0.1394311636686325,"431":-1.7549569606781006,"432":0.47143033146858215,"433":-1.1861017942428589,"434":-0.6796591281890869,"435":-0.6574458479881287,"436":-0.45842039585113525,"437":-0.5950125455856323,"438":1.4076467752456665,"439":-0.5281796455383301,"440":-0.41997548937797546,"441":-0.04919498786330223,"442":1.4682425260543823,"443":1.2813841104507446,"444":-0.8247463703155518,"445":-0.3636525273323059,"446":-2.417062997817993,"447":1.8063197135925293,"448":1.263607382774353,"449":-1.113918662071228,"450":0.9565719962120056,"451":-0.355826735496521,"452":-0.9563227295875549,"453":-0.4669032394886017,"454":0.6552913784980774,"455":0.9253628253936768,"456":0.47476235032081604,"457":0.383546382188797,"458":-0.25808531045913696,"459":1.2258496284484863,"460":-0.8945109844207764,"461":0.031159037724137306,"462":0.6172158122062683,"463":0.2953062057495117,"464":-0.9088990688323975,"465":0.45119380950927734,"466":0.23394820094108582,"467":0.4146904945373535,"468":1.1002923250198364,"469":0.96211838722229,"470":-0.08829107135534286,"471":0.944765567779541,"472":1.1507388353347778,"473":0.3401435315608978,"474":-0.3170478940010071,"475":-0.5556761026382446,"476":-1.5757710933685303,"477":0.08564545959234238,"478":0.769041121006012,"479":-0.5188626646995544,"480":-0.327244371175766,"481":1.003575325012207,"482":0.4760683476924896,"483":-0.20888231694698334,"484":-0.8549768328666687,"485":0.16163089871406555,"486":0.44588541984558105,"487":-2.1798110008239746,"488":-0.26003947854042053,"489":-0.42111027240753174,"490":-0.25597846508026123,"491":-0.08377617597579956,"492":-0.34482499957084656,"493":-0.9337205290794373,"494":-0.4967086911201477,"495":-0.025604987516999245,"496":0.2833671271800995,"497":-0.2030070275068283,"498":-0.18779829144477844,"499":-0.22032620012760162,"500":-0.8409075140953064,"501":2.148221492767334,"502":-1.3389500379562378,"503":-0.5175907015800476,"504":-1.2774689197540283,"505":-0.25421342253685,"506":0.10192167013883591,"507":-0.12147790938615799,"508":-0.9383280873298645,"509":1.3157117366790771,"510":-0.27478453516960144,"511":-0.22279775142669678,"512":-0.7035549283027649,"513":-0.4263141453266144,"514":0.17969456315040588,"515":-0.3426506519317627,"516":-0.4219886362552643,"517":2.242838144302368,"518":-2.955052137374878,"519":-0.8162783980369568,"520":-1.2832562923431396,"521":-0.5007148385047913,"522":2.273387908935547,"523":-0.2894603908061981,"524":1.9333839416503906,"525":-0.5010396242141724,"526":-0.6723483204841614,"527":-1.6453825235366821,"528":0.2121969312429428,"529":-1.1143718957901,"530":-0.028573110699653625,"531":-1.3649742603302002,"532":0.031133055686950684,"533":0.3020855486392975,"534":-0.7730265259742737,"535":0.13625265657901764,"536":0.3106834292411804,"537":-0.2667621672153473,"538":0.6882874965667725,"539":1.464698314666748,"540":0.12592153251171112,"541":0.2661718428134918,"542":-1.4287086725234985,"543":1.9902424812316895,"544":-0.09990571439266205,"545":0.09559536725282669,"546":0.13271838426589966,"547":0.31685948371887207,"548":1.45893394947052,"549":-0.5407376289367676,"550":0.1572684794664383,"551":0.2881365120410919,"552":-0.18124493956565857,"553":-1.0514386892318726,"554":-0.5311693549156189,"555":-0.5520139932632446,"556":-1.6715044975280762,"557":0.07898081094026566,"558":-1.70648992061615,"559":-0.18139337003231049,"560":2.2412166595458984,"561":0.6058306097984314,"562":0.10550625622272491,"563":-1.1378593444824219,"564":0.352153480052948,"565":-1.383570671081543,"566":1.4614923000335693,"567":-0.8139772415161133,"568":0.29809796810150146,"569":0.27567991614341736,"570":-0.336094468832016,"571":-0.49275511503219604,"572":-0.8798689246177673,"573":-0.05636637285351753,"574":1.762897253036499,"575":-0.46793073415756226,"576":0.17292101681232452,"577":0.008016740903258324,"578":-0.21494893729686737,"579":1.2724140882492065,"580":0.6419066190719604,"581":1.7200260162353516,"582":-1.281331181526184,"583":-0.2581336796283722,"584":-1.7003415822982788,"585":-1.7075140476226807,"586":0.353949636220932,"587":0.30720070004463196,"588":1.0319645404815674,"589":-0.618769645690918,"590":-0.34799665212631226,"591":-1.1051559448242188,"592":0.07592714577913284,"593":-0.8048745393753052,"594":-1.3751988410949707,"595":-0.3344922661781311,"596":-0.31985580921173096,"597":-0.4762442409992218,"598":0.3466363847255707,"599":-0.15136776864528656,"600":-0.30693307518959045,"601":-1.3140829801559448,"602":1.4527958631515503,"603":1.983209252357483,"604":0.8648270964622498,"605":-0.2795027792453766,"606":-1.3067572116851807,"607":0.3075289726257324,"608":-0.7412508130073547,"609":0.7904819846153259,"610":-0.5634805560112,"611":-1.3740653991699219,"612":0.2763983905315399,"613":-0.32186877727508545,"614":0.5693268179893494,"615":-0.08594905585050583,"616":0.915464460849762,"617":0.42999786138534546,"618":-1.3520275354385376,"619":-0.14272944629192352,"620":-0.4486658275127411,"621":1.0758674144744873,"622":-0.9223905205726624,"623":0.983140766620636,"624":-0.15341772139072418,"625":0.6882109045982361,"626":0.9017756581306458,"627":0.08100642263889313,"628":0.16858838498592377,"629":-0.30873405933380127,"630":-0.8496151566505432,"631":-0.27982640266418457,"632":0.14369790256023407,"633":1.190170168876648,"634":-0.6995573043823242,"635":0.2687990665435791,"636":-0.4818539321422577,"637":-1.2608892917633057,"638":1.4517967700958252,"639":-2.2408864498138428}},"inputHidden":{"rows":20,"columns":20,"weights":{"0":-0.7948158383369446,"1":0.6667827367782593,"2":0.5282300114631653,"3":-0.2498624622821808,"4":-1.0035046339035034,"5":-0.2207087129354477,"6":0.6276633739471436,"7":0.38237032294273376,"8":-1.2411078214645386,"9":0.6655760407447815,"10":1.7563529014587402,"11":0.4476662278175354,"12":-0.3393498957157135,"13":0.4365614056587219,"14":-0.07292027026414871,"15":1.2027841806411743,"16":-0.24294905364513397,"17":0.803692102432251,"18":-0.30604812502861023,"19":-0.6448456645011902,"20":0.2247108370065689,"21":0.815584123134613,"22":0.06536101549863815,"23":-1.1082217693328857,"24":-0.6307932734489441,"25":-0.196019247174263,"26":-0.04930253326892853,"27":-0.6317475438117981,"28":0.4842129647731781,"29":-1.1043720245361328,"30":0.004778077360242605,"31":-0.7406473159790039,"32":0.31879520416259766,"33":-1.6843231916427612,"34":0.6585205793380737,"35":0.4548940658569336,"36":-1.428614616394043,"37":0.5523033738136292,"38":1.9132781028747559,"39":-0.969008207321167,"40":-0.8667113780975342,"41":0.9975873231887817,"42":-1.6383637189865112,"43":-1.7914472818374634,"44":-0.8184975981712341,"45":-2.181593656539917,"46":1.7310434579849243,"47":0.009120325557887554,"48":0.7325556874275208,"49":-1.2658010721206665,"50":-0.9733896851539612,"51":-0.47188055515289307,"52":-1.395890474319458,"53":-1.311192274093628,"54":1.0634139776229858,"55":-0.08018159121274948,"56":-1.1190000772476196,"57":-0.5398288369178772,"58":1.5376836061477661,"59":-2.3746776580810547,"60":-0.7799760103225708,"61":1.233121395111084,"62":0.2659658193588257,"63":-0.7567125558853149,"64":-1.0943557024002075,"65":0.3255765438079834,"66":2.0196993350982666,"67":-2.1553289890289307,"68":2.246537923812866,"69":-0.7130658626556396,"70":0.9178119897842407,"71":-1.4470709562301636,"72":0.13180789351463318,"73":-1.6296650171279907,"74":2.2923026084899902,"75":2.397735595703125,"76":-0.7894299030303955,"77":0.3251953721046448,"78":1.0717699527740479,"79":-0.008445759303867817,"80":0.16573677957057953,"81":0.11526059359312057,"82":0.319242000579834,"83":-0.0011240465100854635,"84":-0.6046293377876282,"85":0.6593433618545532,"86":1.6993579864501953,"87":-0.3849208354949951,"88":1.099353313446045,"89":0.1040860265493393,"90":1.4218215942382812,"91":0.87981116771698,"92":0.11057985574007034,"93":-0.10867487639188766,"94":-1.4455119371414185,"95":1.1993452310562134,"96":0.14253218472003937,"97":0.06522464752197266,"98":-0.02912542223930359,"99":-0.9290800094604492,"100":0.7697592973709106,"101":0.8986191749572754,"102":-0.9820564389228821,"103":-0.7296126484870911,"104":1.298601746559143,"105":-1.6030229330062866,"106":-0.5204668641090393,"107":0.6984082460403442,"108":-0.5928667783737183,"109":-1.9710173606872559,"110":0.1783335655927658,"111":-0.4970817565917969,"112":0.3675747513771057,"113":-0.3647516965866089,"114":-0.19236251711845398,"115":0.806381106376648,"116":-0.6174915432929993,"117":-0.07062730193138123,"118":0.9156147241592407,"119":-1.0661640167236328,"120":0.275240033864975,"121":1.4854522943496704,"122":-0.5125142931938171,"123":0.2607452869415283,"124":-0.23455719649791718,"125":-2.990372657775879,"126":0.3116743266582489,"127":-0.19454827904701233,"128":0.6295719146728516,"129":0.2947811484336853,"130":-0.9625647068023682,"131":0.5701350569725037,"132":-0.6907790899276733,"133":-0.6798809170722961,"134":-0.7720757126808167,"135":-0.651030957698822,"136":-0.1795770823955536,"137":-0.25777143239974976,"138":0.46410831809043884,"139":-0.3977918028831482,"140":-1.9471549987792969,"141":2.049964427947998,"142":-0.3190353512763977,"143":-1.683059811592102,"144":1.1231743097305298,"145":-0.09038691222667694,"146":1.4570403099060059,"147":0.31037113070487976,"148":-0.16343297064304352,"149":-1.414155125617981,"150":0.5491819977760315,"151":1.987022876739502,"152":-0.28350600600242615,"153":-0.8389358520507812,"154":0.8155074715614319,"155":1.15314781665802,"156":-0.44922080636024475,"157":-1.348142385482788,"158":0.4530409574508667,"159":-1.065337061882019,"160":-0.4458271861076355,"161":1.6255338191986084,"162":-0.951693594455719,"163":-1.8731660842895508,"164":3.9874191284179688,"165":-0.37244662642478943,"166":1.8885313272476196,"167":0.07212084531784058,"168":-0.7352389693260193,"169":-1.3428101539611816,"170":-0.09957350045442581,"171":0.1305745542049408,"172":-0.7280886769294739,"173":-2.32783842086792,"174":-0.5788606405258179,"175":2.333315372467041,"176":-2.6314451694488525,"177":-0.7558760643005371,"178":1.9399573802947998,"179":-1.3597265481948853,"180":-1.0969645977020264,"181":0.8439209461212158,"182":-0.4301189184188843,"183":-0.5587090253829956,"184":-2.973845958709717,"185":-0.043862152844667435,"186":0.9779090881347656,"187":-2.158524513244629,"188":1.9075853824615479,"189":1.1965970993041992,"190":0.8611398935317993,"191":-2.641876697540283,"192":-0.1534767746925354,"193":-1.3214080333709717,"194":1.5569922924041748,"195":3.062364339828491,"196":-1.5090619325637817,"197":0.1741214543581009,"198":1.3187445402145386,"199":-1.0601201057434082,"200":2.176645517349243,"201":-0.33052220940589905,"202":-0.5993000268936157,"203":1.0970426797866821,"204":0.2319522202014923,"205":1.2906793355941772,"206":-0.5604346394538879,"207":0.8370340466499329,"208":-0.7878161072731018,"209":0.4956071972846985,"210":2.8695523738861084,"211":0.18916986882686615,"212":1.8005093336105347,"213":0.29367244243621826,"214":-0.6168814301490784,"215":1.4323370456695557,"216":-1.0295459032058716,"217":-0.3149246871471405,"218":-1.666943073272705,"219":-0.3112209737300873,"220":1.1969677209854126,"221":-0.1712949275970459,"222":-0.6940817832946777,"223":0.07977090775966644,"224":2.6198651790618896,"225":1.469638466835022,"226":-0.7948246598243713,"227":0.11151248961687088,"228":-0.36927860975265503,"229":0.014846241101622581,"230":0.8721837997436523,"231":3.0925872325897217,"232":1.5378384590148926,"233":-1.8296542167663574,"234":-2.144272804260254,"235":-1.0039602518081665,"236":-0.6445444822311401,"237":-1.7617530822753906,"238":0.25214701890945435,"239":-0.4382273256778717,"240":1.9059398174285889,"241":0.9304993152618408,"242":-1.9607717990875244,"243":-1.126685380935669,"244":1.1689385175704956,"245":-0.3153356611728668,"246":0.3370104134082794,"247":1.2523473501205444,"248":-1.077637791633606,"249":-0.7354441285133362,"250":-1.0199486017227173,"251":1.257190465927124,"252":-0.10901779681444168,"253":-1.131895899772644,"254":-1.445346474647522,"255":-0.3377836346626282,"256":-1.1999986171722412,"257":-1.5617061853408813,"258":1.6653388738632202,"259":-0.21390819549560547,"260":-0.17601439356803894,"261":1.1778035163879395,"262":-1.378197431564331,"263":-0.6337623596191406,"264":-0.2416466921567917,"265":0.3184070885181427,"266":0.12282208353281021,"267":-0.341951459646225,"268":-0.712019681930542,"269":-0.6532737016677856,"270":0.17785945534706116,"271":-0.7338916659355164,"272":-3.189723491668701,"273":-1.3179500102996826,"274":-0.2940203845500946,"275":1.278687834739685,"276":-0.8067734241485596,"277":-1.7816115617752075,"278":0.8434551954269409,"279":-0.7577866315841675,"280":1.3183761835098267,"281":0.5841150879859924,"282":-0.2826126217842102,"283":-0.7291314601898193,"284":0.7444683909416199,"285":-1.007685661315918,"286":-0.34492793679237366,"287":0.013378599658608437,"288":-0.8545957207679749,"289":-1.8173977136611938,"290":0.2542572319507599,"291":0.0005795861943624914,"292":-1.2806984186172485,"293":-0.7031701803207397,"294":0.6259741187095642,"295":0.17585588991641998,"296":-0.8632339239120483,"297":-0.47157472372055054,"298":0.16884292662143707,"299":0.32953333854675293,"300":-0.2820439040660858,"301":-0.59639573097229,"302":3.213916778564453,"303":0.09475582093000412,"304":-1.7033418416976929,"305":-0.02035875990986824,"306":0.12670722603797913,"307":-0.8232481479644775,"308":0.5825961828231812,"309":2.7406582832336426,"310":-1.3290950059890747,"311":-0.940549910068512,"312":0.8619309663772583,"313":0.1699313372373581,"314":1.1917777061462402,"315":0.48553478717803955,"316":-1.0806950330734253,"317":1.6172572374343872,"318":0.3884037733078003,"319":0.9066258072853088,"320":0.42285969853401184,"321":-0.15505006909370422,"322":-0.7023419141769409,"323":0.3940971791744232,"324":0.3920363783836365,"325":0.38550081849098206,"326":-0.15274977684020996,"327":0.7587620615959167,"328":-1.173816204071045,"329":0.150045707821846,"330":1.2551989555358887,"331":0.5967432260513306,"332":-0.05716900900006294,"333":0.0007900681812316179,"334":-0.919161856174469,"335":-0.5772194862365723,"336":-0.1980871707201004,"337":-0.7422098517417908,"338":0.24991047382354736,"339":-2.3089654445648193,"340":-2.0147383213043213,"341":2.623915672302246,"342":-1.3866288661956787,"343":-2.0790441036224365,"344":1.911795973777771,"345":-1.0752692222595215,"346":1.1712571382522583,"347":-0.836246132850647,"348":-0.03839623183012009,"349":-1.2606371641159058,"350":-0.06195186823606491,"351":1.2514116764068604,"352":-0.5544251799583435,"353":-1.1744080781936646,"354":-0.1995144784450531,"355":-0.41570502519607544,"356":-1.7362210750579834,"357":-1.037870168685913,"358":0.9077222943305969,"359":-2.5959081649780273,"360":0.7345379590988159,"361":0.2605811059474945,"362":-0.5699508190155029,"363":0.05783471837639809,"364":-0.09290007501840591,"365":0.03959069773554802,"366":0.2850416600704193,"367":0.7105320692062378,"368":-0.7005001902580261,"369":-0.14783816039562225,"370":0.9560877084732056,"371":-0.1355002224445343,"372":-0.3340674638748169,"373":0.09912263602018356,"374":0.10826200991868973,"375":0.04604369401931763,"376":0.576415479183197,"377":-1.192685604095459,"378":-0.5005370378494263,"379":-2.0900278091430664,"380":-1.334509253501892,"381":0.24290059506893158,"382":1.28172767162323,"383":-0.6563124656677246,"384":-0.5287373065948486,"385":-0.49312710762023926,"386":0.7072058320045471,"387":-0.26484814286231995,"388":1.3452225923538208,"389":0.5371747612953186,"390":-2.9154160022735596,"391":-0.6448972821235657,"392":0.1798868179321289,"393":-1.61520254611969,"394":0.16458341479301453,"395":-1.0308868885040283,"396":-2.061004638671875,"397":1.363816499710083,"398":1.6442235708236694,"399":0.3536037504673004}},"inputBias":{"rows":20,"columns":1,"weights":{"0":0.14037658274173737,"1":-1.912089228630066,"2":-1.1611945629119873,"3":-0.8298915028572083,"4":-0.8942402005195618,"5":-0.1160554587841034,"6":-0.8334822058677673,"7":-0.9795289039611816,"8":-1.2461750507354736,"9":-0.8410119414329529,"10":0.11409763246774673,"11":-1.1902189254760742,"12":-0.7080235481262207,"13":-0.6852231025695801,"14":-0.618113100528717,"15":0.732312798500061,"16":-1.4632269144058228,"17":-1.0055608749389648,"18":-0.2656880021095276,"19":1.2521467208862305}},"forgetMatrix":{"rows":20,"columns":32,"weights":{"0":-0.18244722485542297,"1":0.202623188495636,"2":0.03607139736413956,"3":-0.6261048913002014,"4":0.1215638816356659,"5":-1.2074881792068481,"6":0.8225697875022888,"7":0.15121257305145264,"8":0.6111260056495667,"9":0.5070761442184448,"10":-0.9051222205162048,"11":-0.33435747027397156,"12":-0.6604814529418945,"13":0.13295765221118927,"14":-0.3971900939941406,"15":1.1207468509674072,"16":-0.3094619810581207,"17":0.21054908633232117,"18":0.9655308723449707,"19":-0.14863313734531403,"20":0.5295619964599609,"21":-0.19565649330615997,"22":-0.5275720357894897,"23":0.05253128707408905,"24":0.6077935099601746,"25":0.6564069986343384,"26":-1.4686133861541748,"27":-0.35947874188423157,"28":0.3100133240222931,"29":0.4580012559890747,"30":1.1408896446228027,"31":-0.8749059438705444,"32":1.1255441904067993,"33":-0.9824947714805603,"34":1.1385493278503418,"35":0.4725125730037689,"36":-0.6067460775375366,"37":-0.1768093705177307,"38":-0.4818132519721985,"39":0.8493197560310364,"40":-0.2974325716495514,"41":-0.2956044673919678,"42":0.14803144335746765,"43":1.1409205198287964,"44":0.6442838907241821,"45":0.1330740600824356,"46":-0.44525665044784546,"47":-0.36675554513931274,"48":-1.6732524633407593,"49":-0.23814818263053894,"50":0.05168363079428673,"51":-0.4907550811767578,"52":0.7640106081962585,"53":-0.7828836441040039,"54":0.5727850794792175,"55":1.6708577871322632,"56":0.8580051064491272,"57":-0.3451078534126282,"58":0.0814979076385498,"59":0.2970287799835205,"60":0.38350924849510193,"61":-1.013397455215454,"62":-0.4950583577156067,"63":0.49818605184555054,"64":-0.06848855316638947,"65":-0.11693143099546432,"66":-0.09769332408905029,"67":0.7180162668228149,"68":1.0518165826797485,"69":0.0673193410038948,"70":0.1069272980093956,"71":-0.36768078804016113,"72":1.3288942575454712,"73":-0.6719638705253601,"74":0.6651608943939209,"75":-0.12367833405733109,"76":-1.4140125513076782,"77":-0.5626217722892761,"78":-0.5725974440574646,"79":-1.078231930732727,"80":0.8866815567016602,"81":-0.3616245687007904,"82":-0.5946860909461975,"83":-1.002187728881836,"84":-0.4770076870918274,"85":-0.13164988160133362,"86":1.0461513996124268,"87":-0.5530426502227783,"88":-0.46296706795692444,"89":-0.08959662169218063,"90":1.356008529663086,"91":-0.8705748319625854,"92":-0.5415507555007935,"93":-1.8011034727096558,"94":1.016645073890686,"95":0.5205133557319641,"96":-0.8436428904533386,"97":0.6545213460922241,"98":-0.2406400740146637,"99":0.15028789639472961,"100":0.6584028005599976,"101":-1.9477808475494385,"102":2.665945053100586,"103":-0.5361866354942322,"104":0.3791779577732086,"105":0.5540168881416321,"106":-1.3765791654586792,"107":-0.498286634683609,"108":0.12953747808933258,"109":-0.6133113503456116,"110":-0.8521283864974976,"111":1.690252423286438,"112":0.18306992948055267,"113":1.0756549835205078,"114":0.33572301268577576,"115":1.9253438711166382,"116":0.14451654255390167,"117":-0.15762530267238617,"118":0.238590806722641,"119":-0.23676227033138275,"120":-0.07131914049386978,"121":0.23271788656711578,"122":-1.196751594543457,"123":-1.103740930557251,"124":0.19474458694458008,"125":0.7051217555999756,"126":0.34867197275161743,"127":-1.6431169509887695,"128":0.09375668317079544,"129":1.1226637363433838,"130":-0.7717032432556152,"131":-0.5226401686668396,"132":1.7476881742477417,"133":-1.7772352695465088,"134":0.21938784420490265,"135":1.0105016231536865,"136":0.4048670530319214,"137":1.0975285768508911,"138":-0.3894900977611542,"139":0.5527961254119873,"140":-0.3575429618358612,"141":1.8352102041244507,"142":0.6142350435256958,"143":1.6340796947479248,"144":-0.16653631627559662,"145":-0.3499557077884674,"146":0.622177004814148,"147":1.2647582292556763,"148":0.0658823773264885,"149":-2.317941427230835,"150":-0.3873630166053772,"151":-0.22177653014659882,"152":0.03849872201681137,"153":0.24642348289489746,"154":-2.2963361740112305,"155":0.06392437219619751,"156":1.9926316738128662,"157":1.0133808851242065,"158":-0.16176201403141022,"159":-0.19272686541080475,"160":0.8333054184913635,"161":-1.1643402576446533,"162":1.097598910331726,"163":-0.4871063232421875,"164":-0.8815048336982727,"165":-0.23602652549743652,"166":0.2681904435157776,"167":1.2793285846710205,"168":1.690660834312439,"169":0.25109389424324036,"170":-0.40975239872932434,"171":0.7359253168106079,"172":-1.916426420211792,"173":-0.2884911298751831,"174":-0.18962281942367554,"175":-0.6295819282531738,"176":-0.8337259292602539,"177":0.8860317468643188,"178":0.7151806354522705,"179":-0.4650250971317291,"180":1.36576247215271,"181":0.7669348120689392,"182":-1.355059266090393,"183":1.095847487449646,"184":1.292995810508728,"185":1.2152345180511475,"186":0.11631486564874649,"187":-1.3233723640441895,"188":-0.9599091410636902,"189":-1.0387564897537231,"190":1.2543492317199707,"191":-0.7312015295028687,"192":-0.48641061782836914,"193":1.074815034866333,"194":-0.18273097276687622,"195":-0.009038565680384636,"196":0.3828202486038208,"197":-0.8997581005096436,"198":1.4467710256576538,"199":-1.2469412088394165,"200":0.611607015132904,"201":-0.04071413725614548,"202":-0.8492048978805542,"203":-0.7480112314224243,"204":-1.4816362857818604,"205":-0.21836304664611816,"206":-0.1410474181175232,"207":0.33109399676322937,"208":1.4171087741851807,"209":0.7185194492340088,"210":0.10428076982498169,"211":0.7492672204971313,"212":-0.6971599459648132,"213":0.9673975706100464,"214":-0.050499338656663895,"215":-1.3998851776123047,"216":-1.0435843467712402,"217":0.5554402470588684,"218":0.2925471365451813,"219":-0.6255679130554199,"220":-1.2763290405273438,"221":0.46771374344825745,"222":1.3497968912124634,"223":-0.9686732292175293,"224":-0.44061392545700073,"225":-1.0794529914855957,"226":0.6401174664497375,"227":-0.8350825905799866,"228":-0.36641353368759155,"229":-0.322193443775177,"230":1.1233935356140137,"231":-0.4691355228424072,"232":0.14004194736480713,"233":0.6145325303077698,"234":-1.1335337162017822,"235":-0.3392372131347656,"236":0.831032395362854,"237":0.6391610503196716,"238":-0.799773633480072,"239":0.8147396445274353,"240":0.222232386469841,"241":0.325013667345047,"242":0.7922182083129883,"243":0.738261878490448,"244":-0.36233416199684143,"245":0.7830696702003479,"246":-0.2515154778957367,"247":-0.07618647068738937,"248":-0.2322492003440857,"249":0.7777649164199829,"250":-0.10750918835401535,"251":0.5153927206993103,"252":-1.5429595708847046,"253":-0.815455973148346,"254":0.23997490108013153,"255":-1.1458083391189575,"256":1.0770938396453857,"257":-0.025976769626140594,"258":0.34538140892982483,"259":0.6140862107276917,"260":-0.6485205292701721,"261":-0.690004825592041,"262":2.313373327255249,"263":0.21658451855182648,"264":-0.5842918157577515,"265":-0.28955021500587463,"266":-0.8031017780303955,"267":-0.24878421425819397,"268":0.2749021053314209,"269":-1.1597179174423218,"270":0.6372349858283997,"271":-0.10653142631053925,"272":0.12078559398651123,"273":-0.3354676365852356,"274":-0.5832323431968689,"275":0.28799232840538025,"276":-0.4290604889392853,"277":0.8225588798522949,"278":1.0562043190002441,"279":-0.4715190827846527,"280":-0.40860500931739807,"281":-0.23120778799057007,"282":0.9950424432754517,"283":-0.2667562663555145,"284":-1.6585692167282104,"285":2.5144286155700684,"286":-0.09483317285776138,"287":-0.45898741483688354,"288":-0.7455976605415344,"289":-0.3876469135284424,"290":0.6687875390052795,"291":-0.7736626267433167,"292":-0.9033179879188538,"293":0.9669481515884399,"294":-0.18145301938056946,"295":-1.6424522399902344,"296":-0.03201497346162796,"297":-0.612064003944397,"298":-0.4583112895488739,"299":-0.9097197651863098,"300":-0.21747584640979767,"301":-0.008600213564932346,"302":-0.5346099138259888,"303":-0.09129752218723297,"304":0.6825761198997498,"305":0.5533642768859863,"306":-0.3249626159667969,"307":0.11225785315036774,"308":-0.8991665244102478,"309":2.5790421962738037,"310":0.28579163551330566,"311":-1.0850056409835815,"312":-1.1836293935775757,"313":0.19983112812042236,"314":0.44520553946495056,"315":-0.2845311760902405,"316":-2.6384050846099854,"317":-0.532676637172699,"318":0.3399509787559509,"319":-0.24301549792289734,"320":-0.7755807638168335,"321":1.062588095664978,"322":-1.274659276008606,"323":-0.6271122097969055,"324":1.0660749673843384,"325":-0.7455618381500244,"326":0.8391428589820862,"327":-0.4005061388015747,"328":0.04599422961473465,"329":1.0558786392211914,"330":-0.8135222792625427,"331":-0.9642226099967957,"332":0.37023478746414185,"333":-0.04178783297538757,"334":-0.22715160250663757,"335":0.522159993648529,"336":0.8239638209342957,"337":0.5173694491386414,"338":0.7702134251594543,"339":0.8212657570838928,"340":-0.7094179391860962,"341":0.5571189522743225,"342":-0.9484580755233765,"343":-1.2011454105377197,"344":-0.6916106939315796,"345":0.688347339630127,"346":-0.7997353672981262,"347":-0.5387065410614014,"348":-0.3260723352432251,"349":1.0133517980575562,"350":0.008029954507946968,"351":-0.8727113604545593,"352":-0.10925797373056412,"353":-0.09788237512111664,"354":0.1807098388671875,"355":-1.105842113494873,"356":-0.20946156978607178,"357":-0.9152930378913879,"358":0.3822898268699646,"359":0.09756754338741302,"360":0.5064348578453064,"361":0.9698253273963928,"362":-0.8906583189964294,"363":-0.33236992359161377,"364":-0.6527050733566284,"365":1.124060034751892,"366":0.056068260222673416,"367":1.6382672786712646,"368":-0.1851235181093216,"369":0.5952015519142151,"370":1.2212085723876953,"371":0.4315718412399292,"372":0.09995073825120926,"373":-0.3333459496498108,"374":-0.3563080132007599,"375":0.2121206670999527,"376":0.295011043548584,"377":0.9637027978897095,"378":-1.3968671560287476,"379":-0.9844081997871399,"380":0.5982137322425842,"381":0.43395665287971497,"382":0.47671568393707275,"383":-0.8628519177436829,"384":0.4501245319843292,"385":-1.0344842672348022,"386":0.8685662150382996,"387":0.3823294937610626,"388":-0.9685142040252686,"389":0.37761837244033813,"390":-0.09196241199970245,"391":-0.015434164553880692,"392":-0.028475360944867134,"393":-0.26272255182266235,"394":-0.213542178273201,"395":0.8719522953033447,"396":0.3499176800251007,"397":-0.14165285229682922,"398":-0.3253494203090668,"399":-0.14654362201690674,"400":-0.5297799706459045,"401":0.17214234173297882,"402":-0.09430155903100967,"403":-0.5180239081382751,"404":0.754625678062439,"405":1.1786680221557617,"406":0.1951945573091507,"407":0.10399474203586578,"408":0.7733367085456848,"409":-0.19260813295841217,"410":0.4713976979255676,"411":-0.2276778370141983,"412":-1.7885595560073853,"413":0.04019977152347565,"414":-0.09908432513475418,"415":0.1248415932059288,"416":1.486892580986023,"417":-1.2464553117752075,"418":1.1836907863616943,"419":0.7161966562271118,"420":-0.6250579357147217,"421":0.16736333072185516,"422":-0.428677499294281,"423":1.3058046102523804,"424":-0.2047502100467682,"425":-0.47263771295547485,"426":0.6785032749176025,"427":1.2212189435958862,"428":0.6226844191551208,"429":-0.26908910274505615,"430":0.840106725692749,"431":-0.6165732741355896,"432":-1.1905453205108643,"433":-0.2643469572067261,"434":-0.2519650459289551,"435":-0.7556285262107849,"436":1.5475722551345825,"437":-1.0365878343582153,"438":0.9064881205558777,"439":0.9325510263442993,"440":1.578525185585022,"441":-0.5995975732803345,"442":0.5930755734443665,"443":0.3341497778892517,"444":0.8620238900184631,"445":-1.1165297031402588,"446":-0.24211369454860687,"447":0.8104129433631897,"448":-0.04041513800621033,"449":0.19272510707378387,"450":-0.05864575132727623,"451":-1.6648677587509155,"452":0.3547775149345398,"453":-0.6664456725120544,"454":0.1367502212524414,"455":0.028096074238419533,"456":0.6747764945030212,"457":0.0909971073269844,"458":-1.7135899066925049,"459":-0.060946907848119736,"460":-0.20909681916236877,"461":1.1747101545333862,"462":-0.3833911418914795,"463":2.177380084991455,"464":-0.1757059544324875,"465":1.1892411708831787,"466":1.3184431791305542,"467":0.34301263093948364,"468":0.16566555202007294,"469":0.5550635457038879,"470":-1.6718354225158691,"471":-0.016753260046243668,"472":-0.06076648831367493,"473":1.563637137413025,"474":-2.1505661010742188,"475":-0.787351667881012,"476":-0.7207615971565247,"477":0.3188941180706024,"478":0.5933636426925659,"479":-1.243859052658081,"480":-0.3170414865016937,"481":1.82406747341156,"482":-1.18126380443573,"483":-0.13482733070850372,"484":1.0992320775985718,"485":-1.1554926633834839,"486":1.0664286613464355,"487":-0.33567094802856445,"488":0.5894657373428345,"489":0.6649256348609924,"490":-0.5573997497558594,"491":-0.2193380445241928,"492":-0.30619004368782043,"493":0.671445369720459,"494":-0.3846935033798218,"495":0.9628245234489441,"496":-0.22717167437076569,"497":0.7299210429191589,"498":0.7346996665000916,"499":0.8073821067810059,"500":0.21846313774585724,"501":-0.9058675765991211,"502":-0.11285600066184998,"503":0.05758669227361679,"504":0.24952660501003265,"505":0.6354056000709534,"506":-1.2223485708236694,"507":-0.6754196882247925,"508":1.1300408840179443,"509":0.3450876474380493,"510":0.3527021110057831,"511":-0.7550844550132751,"512":-1.5231397151947021,"513":0.17858847975730896,"514":-0.3910963237285614,"515":0.3527863025665283,"516":0.08420634269714355,"517":1.1862579584121704,"518":-2.032804012298584,"519":-1.0404554605484009,"520":-0.7890226244926453,"521":-1.0904167890548706,"522":0.9747852087020874,"523":-0.42155471444129944,"524":0.19536495208740234,"525":-0.20739318430423737,"526":-1.5749424695968628,"527":-1.0823321342468262,"528":0.16355149447917938,"529":-0.8578978180885315,"530":-0.5932278633117676,"531":-0.9344437718391418,"532":-0.567508339881897,"533":0.6104187369346619,"534":-1.4016157388687134,"535":-0.25849491357803345,"536":-0.5855242013931274,"537":-0.5845036506652832,"538":0.9586857557296753,"539":1.3163338899612427,"540":0.4427787661552429,"541":-1.975006103515625,"542":-0.34943845868110657,"543":0.46635541319847107,"544":-0.7177198529243469,"545":0.9168505668640137,"546":-1.0664938688278198,"547":-0.029270023107528687,"548":0.6831983923912048,"549":-0.005327488295733929,"550":0.45910054445266724,"551":-1.7695311307907104,"552":0.12618112564086914,"553":-0.013683341443538666,"554":-1.1395281553268433,"555":-0.4044962525367737,"556":0.6950878500938416,"557":-0.5318612456321716,"558":-0.6598919630050659,"559":1.5127410888671875,"560":0.5699218511581421,"561":0.12229576706886292,"562":0.3385750353336334,"563":-0.035469476133584976,"564":-0.5137891173362732,"565":0.3451012969017029,"566":0.059046801179647446,"567":-0.9335290193557739,"568":-0.3358233571052551,"569":0.04900571331381798,"570":-1.4751570224761963,"571":0.23542092740535736,"572":-0.25225651264190674,"573":0.5632782578468323,"574":-0.203240305185318,"575":-0.7596423029899597,"576":0.8801729679107666,"577":-1.8891081809997559,"578":2.439610719680786,"579":-0.2361256629228592,"580":-2.3832662105560303,"581":0.05130431428551674,"582":-0.12237589806318283,"583":1.5951136350631714,"584":0.04583422467112541,"585":0.08168460428714752,"586":-0.10787222534418106,"587":1.2777811288833618,"588":0.27161526679992676,"589":0.08958075940608978,"590":2.3929152488708496,"591":-0.03250770643353462,"592":-1.0539952516555786,"593":-0.024777166545391083,"594":0.3303530514240265,"595":0.1338738054037094,"596":1.3796308040618896,"597":0.7844167947769165,"598":-0.1079941838979721,"599":1.235211968421936,"600":1.106555700302124,"601":-0.05075762793421745,"602":-0.10933810472488403,"603":0.27796459197998047,"604":-1.4895635843276978,"605":0.5286482572555542,"606":0.10108193755149841,"607":-0.06732293963432312,"608":-0.49309003353118896,"609":-0.6738013029098511,"610":-0.13788002729415894,"611":0.06451939046382904,"612":-0.9243535995483398,"613":-0.02032904513180256,"614":1.1866517066955566,"615":-0.40245333313941956,"616":0.3021065294742584,"617":0.6445890665054321,"618":-0.2872341275215149,"619":-0.28235185146331787,"620":0.9278119206428528,"621":-0.18230517208576202,"622":-0.7637242078781128,"623":0.3133623003959656,"624":-0.39390963315963745,"625":-0.8550810217857361,"626":-0.2552587687969208,"627":1.204717755317688,"628":-1.5753087997436523,"629":2.041661500930786,"630":-1.3430272340774536,"631":-0.10848783701658249,"632":-1.096272587776184,"633":0.46606093645095825,"634":0.24800008535385132,"635":0.14991611242294312,"636":-1.7676870822906494,"637":1.040635108947754,"638":-0.3505186438560486,"639":0.13605481386184692}},"forgetHidden":{"rows":20,"columns":20,"weights":{"0":-1.800965666770935,"1":-0.44436293840408325,"2":0.8525863289833069,"3":-0.23054154217243195,"4":-0.8862055540084839,"5":0.021901756525039673,"6":-0.43455466628074646,"7":-1.5796434879302979,"8":1.6592516899108887,"9":0.11917884647846222,"10":0.3895949125289917,"11":-1.4789248704910278,"12":-0.4022824168205261,"13":-1.0660431385040283,"14":0.8567073941230774,"15":0.9315198659896851,"16":0.1780122071504593,"17":0.9156818389892578,"18":0.47491610050201416,"19":-0.05475618317723274,"20":-0.6030218601226807,"21":0.7939107418060303,"22":0.37875431776046753,"23":-0.932750403881073,"24":0.7762183547019958,"25":0.041485145688056946,"26":-0.42133083939552307,"27":-1.1465948820114136,"28":0.6229389309883118,"29":-0.4782860279083252,"30":0.3424313962459564,"31":-0.20141753554344177,"32":-0.008928751572966576,"33":-1.0217698812484741,"34":-0.6435954570770264,"35":0.22484757006168365,"36":0.025952596217393875,"37":-0.8394068479537964,"38":0.7534681558609009,"39":0.14066645503044128,"40":-0.10309773683547974,"41":-1.3372807502746582,"42":0.74057537317276,"43":1.022962212562561,"44":-0.8674039244651794,"45":1.0829812288284302,"46":-1.1173824071884155,"47":0.10229235887527466,"48":0.581243634223938,"49":1.0075958967208862,"50":1.5961405038833618,"51":0.04869240149855614,"52":0.090955451130867,"53":1.601578950881958,"54":-0.6267879605293274,"55":1.8809956312179565,"56":1.1361548900604248,"57":0.9248475432395935,"58":-1.3345729112625122,"59":-0.725445032119751,"60":0.3321581482887268,"61":-0.12077458947896957,"62":-0.14351001381874084,"63":0.015739833936095238,"64":0.7183822393417358,"65":0.453106552362442,"66":0.011779071763157845,"67":-0.1739758849143982,"68":0.2674727737903595,"69":-0.02123277820646763,"70":0.11203321814537048,"71":0.22932341694831848,"72":0.17138713598251343,"73":0.037952691316604614,"74":0.08874033391475677,"75":0.6790103912353516,"76":0.5530556440353394,"77":0.08797522634267807,"78":-0.15483257174491882,"79":0.19595003128051758,"80":-0.009260434657335281,"81":0.30295178294181824,"82":0.17960841953754425,"83":0.022176116704940796,"84":0.26292484998703003,"85":-0.1289016455411911,"86":0.21008822321891785,"87":0.21383264660835266,"88":0.0016611847095191479,"89":-0.2246357947587967,"90":-0.5270208716392517,"91":-0.25274863839149475,"92":-0.42718276381492615,"93":-0.5963210463523865,"94":-0.390575647354126,"95":0.314541757106781,"96":-0.4242284893989563,"97":-0.19950920343399048,"98":0.5347332954406738,"99":-1.228810429573059,"100":-0.13620269298553467,"101":-0.0061756884679198265,"102":-0.24886098504066467,"103":-0.3908694386482239,"104":-0.9166910648345947,"105":0.38771674036979675,"106":0.010980278253555298,"107":0.016332590952515602,"108":0.0670827105641365,"109":-0.17713896930217743,"110":0.007876656949520111,"111":-1.6934682130813599,"112":-0.6651004552841187,"113":0.3708045482635498,"114":-0.01897001639008522,"115":1.2393481731414795,"116":0.8205460906028748,"117":-0.1346699595451355,"118":0.44552376866340637,"119":-0.9216037392616272,"120":0.059999968856573105,"121":-0.42554011940956116,"122":0.059401728212833405,"123":0.4393579065799713,"124":0.7340103387832642,"125":0.10095173120498657,"126":-0.3664880096912384,"127":-0.1286551058292389,"128":-0.17278353869915009,"129":-0.12735699117183685,"130":0.7253254055976868,"131":0.39674878120422363,"132":-0.4598541557788849,"133":0.2548978924751282,"134":-0.9208005666732788,"135":0.6150780916213989,"136":0.09258829057216644,"137":-0.24835772812366486,"138":-0.6620168685913086,"139":-0.5945869088172913,"140":1.6555655002593994,"141":1.196608066558838,"142":-0.7239843606948853,"143":0.35138630867004395,"144":0.7766596078872681,"145":0.4701891541481018,"146":1.7575162649154663,"147":1.283851146697998,"148":-0.2499828189611435,"149":-0.6940048336982727,"150":0.11976420879364014,"151":0.4792480170726776,"152":-0.5004213452339172,"153":-0.3293379843235016,"154":-0.760779082775116,"155":1.6498897075653076,"156":-0.9841184020042419,"157":-0.9989175796508789,"158":-0.17234492301940918,"159":-0.8042647242546082,"160":0.8731545209884644,"161":-0.5891857147216797,"162":-0.3502771258354187,"163":-0.5608831644058228,"164":-2.018120527267456,"165":-0.4446727931499481,"166":1.5300226211547852,"167":0.7637327909469604,"168":-0.5738345384597778,"169":-0.7502383589744568,"170":-0.039551202207803726,"171":-0.9944663047790527,"172":0.35623863339424133,"173":0.42703548073768616,"174":0.9479318261146545,"175":1.5411310195922852,"176":0.2610563039779663,"177":0.5053987503051758,"178":-0.13488899171352386,"179":1.0261324644088745,"180":0.6296555399894714,"181":0.6471890211105347,"182":0.6334801912307739,"183":-0.6639333963394165,"184":0.0840350091457367,"185":-0.12694159150123596,"186":0.17344172298908234,"187":-0.40301814675331116,"188":-0.5653650760650635,"189":0.12031637132167816,"190":0.5704805850982666,"191":0.538048267364502,"192":0.2351311296224594,"193":-0.5440224409103394,"194":0.1803886890411377,"195":0.5351171493530273,"196":-1.5425539016723633,"197":0.556339681148529,"198":0.6827603578567505,"199":0.7355815172195435,"200":0.7186056971549988,"201":-0.631093442440033,"202":-0.3531307876110077,"203":0.10007409751415253,"204":1.302728295326233,"205":0.5694107413291931,"206":-0.5110689997673035,"207":1.1629743576049805,"208":-0.9727783799171448,"209":0.17951492965221405,"210":-0.243730828166008,"211":0.5717450380325317,"212":-0.04144908860325813,"213":0.18041348457336426,"214":-1.3860183954238892,"215":-0.2087233066558838,"216":-0.21917934715747833,"217":-0.8202499747276306,"218":-0.14628753066062927,"219":-1.0233596563339233,"220":-1.1863495111465454,"221":-0.011752201244235039,"222":2.092757225036621,"223":0.47927600145339966,"224":-1.1476333141326904,"225":1.9169011116027832,"226":-0.5996876358985901,"227":-1.2044941186904907,"228":1.4178619384765625,"229":2.0004451274871826,"230":1.2263710498809814,"231":-1.349082589149475,"232":-0.5754116177558899,"233":1.0362755060195923,"234":1.0814037322998047,"235":0.9439710378646851,"236":0.0749129056930542,"237":1.8066060543060303,"238":-0.9618476033210754,"239":1.216623067855835,"240":-1.2524458169937134,"241":-0.45922499895095825,"242":0.5001856088638306,"243":0.7251032590866089,"244":0.9395530819892883,"245":-0.16034801304340363,"246":-0.645702600479126,"247":-1.0554192066192627,"248":0.776160478591919,"249":0.6911880970001221,"250":0.6055359244346619,"251":-0.31212055683135986,"252":0.7729352712631226,"253":-0.0657782331109047,"254":-1.0325191020965576,"255":0.673438310623169,"256":0.7842797636985779,"257":0.45086216926574707,"258":-0.2832866311073303,"259":0.29364317655563354,"260":-0.2610343098640442,"261":0.5883393883705139,"262":0.21621297299861908,"263":0.054205697029829025,"264":-0.0043263304978609085,"265":-0.88283371925354,"266":0.969537615776062,"267":-0.4747188091278076,"268":1.0196619033813477,"269":0.19734786450862885,"270":-0.24063996970653534,"271":-0.2057528793811798,"272":-0.002781607210636139,"273":-0.9505418539047241,"274":0.32919541001319885,"275":-0.5522379279136658,"276":-0.6385998129844666,"277":0.10266192257404327,"278":0.026961861178278923,"279":0.49158671498298645,"280":0.6045817136764526,"281":-0.05298583582043648,"282":-4.176681041717529,"283":0.43379509449005127,"284":2.554710626602173,"285":-0.8967911005020142,"286":0.554981529712677,"287":0.6226469278335571,"288":-1.2536475658416748,"289":-2.4551045894622803,"290":-0.056549664586782455,"291":0.8736549019813538,"292":-0.4816524386405945,"293":-0.5212860703468323,"294":-0.32971400022506714,"295":-0.13404454290866852,"296":-0.5287542343139648,"297":-1.3618006706237793,"298":0.6217817068099976,"299":-0.9226801991462708,"300":-0.4880608320236206,"301":-0.394326388835907,"302":0.13215947151184082,"303":0.34906524419784546,"304":-1.070056676864624,"305":-0.11969586461782455,"306":-0.557176411151886,"307":-1.015852689743042,"308":0.8890079855918884,"309":1.044890284538269,"310":-0.6072729825973511,"311":-0.9806873798370361,"312":0.49770021438598633,"313":0.46459776163101196,"314":1.661267876625061,"315":-0.2664920389652252,"316":0.39516976475715637,"317":0.2746184170246124,"318":0.1703191101551056,"319":1.065841794013977,"320":-0.18275856971740723,"321":-0.8021972179412842,"322":-0.2599996030330658,"323":0.8447697162628174,"324":-0.4019472002983093,"325":1.8384311199188232,"326":-1.1557685136795044,"327":-0.143563374876976,"328":-0.40309515595436096,"329":0.11377568542957306,"330":0.46796926856040955,"331":1.4366443157196045,"332":0.8318464756011963,"333":-0.48149600625038147,"334":-0.7259488105773926,"335":-0.010485699400305748,"336":0.14050190150737762,"337":-3.1700327396392822,"338":0.10034020990133286,"339":-0.5055497884750366,"340":-0.21202054619789124,"341":0.4677897095680237,"342":0.7782351970672607,"343":-0.8223464488983154,"344":-0.054729584604501724,"345":-0.6742996573448181,"346":0.27555516362190247,"347":-0.3390984535217285,"348":0.6478040218353271,"349":0.15386629104614258,"350":0.5053542852401733,"351":0.6895601749420166,"352":0.6830057501792908,"353":-0.6081106662750244,"354":-0.3938240110874176,"355":0.11964669078588486,"356":0.010639249347150326,"357":0.025867588818073273,"358":0.11630743741989136,"359":-0.08003538101911545,"360":1.0486921072006226,"361":0.9946975708007812,"362":-0.807039737701416,"363":-0.8958441019058228,"364":0.961353600025177,"365":-0.07198477536439896,"366":0.6682509779930115,"367":0.8854650855064392,"368":-0.5645281076431274,"369":-1.2188565731048584,"370":0.6796166300773621,"371":1.4322681427001953,"372":-0.29480722546577454,"373":-0.6828782558441162,"374":0.31884557008743286,"375":0.3950544595718384,"376":-0.9251980781555176,"377":-0.9766678810119629,"378":0.18314853310585022,"379":-0.8366700410842896,"380":1.5926847457885742,"381":-0.08337042480707169,"382":-2.4948558807373047,"383":1.2972239255905151,"384":0.08859287947416306,"385":-1.249306321144104,"386":0.7092760801315308,"387":1.664764404296875,"388":-1.2345476150512695,"389":-1.0105020999908447,"390":0.5284934639930725,"391":0.31131407618522644,"392":-0.7495710849761963,"393":0.6486645340919495,"394":-0.09220393002033234,"395":1.7411521673202515,"396":-1.3793892860412598,"397":-1.059357762336731,"398":-0.704086422920227,"399":-1.4381273984909058}},"forgetBias":{"rows":20,"columns":1,"weights":{"0":0,"1":0,"2":0,"3":0,"4":0,"5":0,"6":0,"7":0,"8":0,"9":0,"10":0,"11":0,"12":0,"13":0,"14":0,"15":0,"16":0,"17":0,"18":0,"19":0}},"outputMatrix":{"rows":20,"columns":32,"weights":{"0":0.1793488711118698,"1":0.0769028589129448,"2":0.187860369682312,"3":-1.76649808883667,"4":-0.41858115792274475,"5":-0.7826040983200073,"6":0.16459940373897552,"7":0.4737102687358856,"8":0.7257912755012512,"9":1.5406913757324219,"10":-0.19464585185050964,"11":0.603114128112793,"12":-0.8157069683074951,"13":1.729081153869629,"14":1.184739589691162,"15":1.1347066164016724,"16":-0.9764588475227356,"17":0.9146416187286377,"18":1.899366855621338,"19":0.3561076521873474,"20":0.6990498900413513,"21":0.1811169534921646,"22":-1.16648530960083,"23":0.5565700531005859,"24":0.7946449518203735,"25":1.3727591037750244,"26":-1.11226487159729,"27":-0.9953845739364624,"28":-0.21855725347995758,"29":1.328249454498291,"30":0.8453333973884583,"31":-0.39548051357269287,"32":-0.2558465898036957,"33":-1.7425625324249268,"34":1.1953967809677124,"35":-0.10810351371765137,"36":-2.1074254512786865,"37":1.1689330339431763,"38":0.13043154776096344,"39":0.09886287897825241,"40":-1.0694440603256226,"41":-0.46098068356513977,"42":-1.4041261672973633,"43":0.033061765134334564,"44":1.7832988500595093,"45":-0.7143201231956482,"46":-1.368343710899353,"47":1.0010937452316284,"48":-0.9324923753738403,"49":-0.15311726927757263,"50":-0.45634156465530396,"51":0.3211559057235718,"52":-0.15543372929096222,"53":0.7563378810882568,"54":0.5240876078605652,"55":0.7059643268585205,"56":0.04496541991829872,"57":-0.1924138218164444,"58":-0.04277743026614189,"59":1.7821178436279297,"60":-1.7937506437301636,"61":-0.26917633414268494,"62":-0.85965895652771,"63":-0.9869704246520996,"64":-0.7227897644042969,"65":0.39508384466171265,"66":-0.8063872456550598,"67":-1.3313459157943726,"68":0.6055168509483337,"69":-0.10712139308452606,"70":0.6026882529258728,"71":-1.3180327415466309,"72":0.4142681360244751,"73":0.434478223323822,"74":-0.5627011656761169,"75":-1.2807656526565552,"76":-0.916648268699646,"77":-0.1577596813440323,"78":-0.186520516872406,"79":1.1281685829162598,"80":1.5037965774536133,"81":1.372856855392456,"82":1.1403249502182007,"83":0.6963887810707092,"84":-0.8493191599845886,"85":0.3840690553188324,"86":0.08234188705682755,"87":-0.8280269503593445,"88":-0.6000595092773438,"89":1.1398086547851562,"90":-1.4065951108932495,"91":-0.9669865965843201,"92":-0.9750387072563171,"93":0.1793259084224701,"94":0.3783596158027649,"95":-0.6883167028427124,"96":0.628817081451416,"97":-1.116738200187683,"98":1.202802300453186,"99":0.5715682506561279,"100":-1.5783764123916626,"101":1.2806450128555298,"102":0.17425481975078583,"103":-0.24499382078647614,"104":-0.6356047987937927,"105":-1.2118929624557495,"106":-1.2769585847854614,"107":0.3469022214412689,"108":0.300374299287796,"109":-1.7377880811691284,"110":-0.516290545463562,"111":0.8104114532470703,"112":-0.43074098229408264,"113":0.6878047585487366,"114":-1.096543788909912,"115":-0.22037464380264282,"116":0.20144252479076385,"117":1.4028983116149902,"118":0.29342877864837646,"119":0.5790106654167175,"120":-0.04686291515827179,"121":-0.7546303868293762,"122":0.3417673707008362,"123":0.8728203773498535,"124":-2.292860507965088,"125":-0.3240278959274292,"126":-0.062242548912763596,"127":-0.8881855010986328,"128":0.2538808584213257,"129":0.24607138335704803,"130":0.3288968503475189,"131":-0.08960600197315216,"132":-0.11879263073205948,"133":-0.047036949545145035,"134":0.46117106080055237,"135":0.26374348998069763,"136":0.260618656873703,"137":0.1772850900888443,"138":0.5532695651054382,"139":-0.08565118163824081,"140":-1.105525255203247,"141":-0.6495656967163086,"142":1.633668303489685,"143":-0.6853537559509277,"144":1.0050089359283447,"145":0.32765352725982666,"146":0.11859358847141266,"147":-0.13466419279575348,"148":0.3371817469596863,"149":1.1622430086135864,"150":-0.0008495135116390884,"151":-0.39363551139831543,"152":0.051730263978242874,"153":0.21934425830841064,"154":0.32841598987579346,"155":-0.6711477637290955,"156":-1.7878338098526,"157":1.1280019283294678,"158":0.9140492081642151,"159":-0.015580819919705391,"160":-0.8634749054908752,"161":0.8729380965232849,"162":-0.4237716794013977,"163":-0.38671261072158813,"164":0.015528080053627491,"165":0.19854578375816345,"166":-0.365588903427124,"167":-1.5615389347076416,"168":-0.07206805795431137,"169":0.28505924344062805,"170":0.4464302062988281,"171":-0.9382049441337585,"172":0.2334548979997635,"173":-0.48116716742515564,"174":-1.0472179651260376,"175":-0.5455194711685181,"176":1.0950331687927246,"177":-0.5696566104888916,"178":-0.21051113307476044,"179":-0.19320090115070343,"180":-1.1588160991668701,"181":0.91904217004776,"182":0.22198551893234253,"183":-1.5548186302185059,"184":-2.0268771648406982,"185":0.10752847790718079,"186":0.7505741119384766,"187":-0.46292564272880554,"188":-0.121115542948246,"189":-1.0269619226455688,"190":-0.6409245133399963,"191":0.7077812552452087,"192":-1.1746900081634521,"193":-0.83232581615448,"194":0.6900462508201599,"195":-0.36676260828971863,"196":-1.023071527481079,"197":1.3563615083694458,"198":-2.9206185340881348,"199":-0.9303459525108337,"200":-1.078281283378601,"201":-0.41855254769325256,"202":2.4281558990478516,"203":-0.041238799691200256,"204":2.0820813179016113,"205":-0.9680383205413818,"206":-0.8867673873901367,"207":-1.5769795179367065,"208":0.09796007722616196,"209":-1.0546059608459473,"210":0.25812196731567383,"211":-1.4404704570770264,"212":-0.39520737528800964,"213":0.9568793773651123,"214":-0.7558067440986633,"215":0.06329265236854553,"216":0.0842931792140007,"217":-0.5839540362358093,"218":0.8230786323547363,"219":1.1507956981658936,"220":-0.754142165184021,"221":-0.5121708512306213,"222":-1.785620093345642,"223":2.4367759227752686,"224":-0.19521194696426392,"225":-0.30406689643859863,"226":-0.2860985994338989,"227":-1.288240909576416,"228":0.19108520448207855,"229":-0.6612753868103027,"230":-0.15038573741912842,"231":-0.48658379912376404,"232":0.34065893292427063,"233":0.9930362701416016,"234":0.0898825153708458,"235":0.0498458594083786,"236":0.5508909225463867,"237":0.6985383033752441,"238":-0.6739016771316528,"239":0.3721572458744049,"240":-0.3616429567337036,"241":0.7377086281776428,"242":1.1591843366622925,"243":0.04915577545762062,"244":-0.12931929528713226,"245":1.6052957773208618,"246":-2.789557456970215,"247":0.42190930247306824,"248":-0.0830540731549263,"249":1.32193124294281,"250":-1.27955961227417,"251":-0.06238728389143944,"252":-1.2500311136245728,"253":-0.1826775223016739,"254":0.517558753490448,"255":0.01180468313395977,"256":1.2664164304733276,"257":-0.8668308258056641,"258":0.43014323711395264,"259":0.6559727787971497,"260":0.06730330735445023,"261":-0.3389544188976288,"262":0.061463985592126846,"263":0.9670993685722351,"264":0.46491390466690063,"265":-0.026886306703090668,"266":0.0008133150404319167,"267":0.5410385727882385,"268":-0.6098913550376892,"269":-0.0600505992770195,"270":0.2380862832069397,"271":-0.9638265371322632,"272":-0.584745466709137,"273":0.3442961275577545,"274":0.3210494816303253,"275":-1.098519206047058,"276":0.7584242224693298,"277":0.7502549290657043,"278":-0.3407261073589325,"279":0.9006460309028625,"280":0.9713979363441467,"281":0.25077468156814575,"282":-0.11354266852140427,"283":-1.1902744770050049,"284":-1.2955942153930664,"285":0.4888922870159149,"286":1.7398587465286255,"287":-0.0007853116258047521,"288":-0.10267016291618347,"289":-1.2476626634597778,"290":0.9981305003166199,"291":-0.5715924501419067,"292":-1.513901710510254,"293":0.8155087232589722,"294":-0.8853945732116699,"295":-0.27967125177383423,"296":0.4544876217842102,"297":-0.2510496973991394,"298":0.1618659794330597,"299":-0.33606478571891785,"300":-0.46071764826774597,"301":-0.6865054368972778,"302":-1.0559974908828735,"303":-0.7501730918884277,"304":0.9209749102592468,"305":0.7853599786758423,"306":0.8479864597320557,"307":-1.2563307285308838,"308":0.3453177213668823,"309":1.5870286226272583,"310":-0.015869155526161194,"311":-0.08319271355867386,"312":0.20027558505535126,"313":0.8694878816604614,"314":0.5280690789222717,"315":-0.7834770083427429,"316":-2.4070820808410645,"317":-0.9843418598175049,"318":0.9989945888519287,"319":0.25606751441955566,"320":-1.575938105583191,"321":0.29361191391944885,"322":-0.21884219348430634,"323":-0.44907844066619873,"324":0.3287714421749115,"325":-0.15900087356567383,"326":0.22610688209533691,"327":0.044062305241823196,"328":0.06243450194597244,"329":0.19316868484020233,"330":-0.19184158742427826,"331":-1.780151605606079,"332":-0.36402764916419983,"333":0.25816357135772705,"334":-0.010085683315992355,"335":-0.43354323506355286,"336":1.1007673740386963,"337":0.06323844939470291,"338":0.2134808748960495,"339":0.3844660818576813,"340":-1.259994626045227,"341":0.01807994581758976,"342":0.271719753742218,"343":-2.1428592205047607,"344":-1.2452226877212524,"345":0.15396447479724884,"346":0.36987078189849854,"347":-0.1674298346042633,"348":-0.2713787257671356,"349":-0.3315238356590271,"350":0.03408370167016983,"351":0.05471109598875046,"352":-0.15358345210552216,"353":0.33214765787124634,"354":-0.42688480019569397,"355":-0.20860475301742554,"356":0.9471473693847656,"357":-1.080125093460083,"358":1.0056390762329102,"359":-0.087982177734375,"360":0.2615172564983368,"361":-0.8525944948196411,"362":-1.2571626901626587,"363":-0.85535728931427,"364":-1.5633021593093872,"365":-0.8828314542770386,"366":-0.2983362376689911,"367":1.5207536220550537,"368":1.038003921508789,"369":0.7513085603713989,"370":0.2358981966972351,"371":-0.3473459482192993,"372":-0.5980993509292603,"373":0.9070058465003967,"374":-0.34548866748809814,"375":-0.8180568814277649,"376":-0.7256661057472229,"377":0.27759280800819397,"378":-1.131913661956787,"379":-1.1687175035476685,"380":-0.3372254967689514,"381":1.683520793914795,"382":1.5668456554412842,"383":-1.2650588750839233,"384":-1.4208587408065796,"385":-0.13321825861930847,"386":-0.5168688297271729,"387":-0.7284826636314392,"388":0.2548316419124603,"389":0.8886882662773132,"390":-0.8964808583259583,"391":0.0857328549027443,"392":-0.13015304505825043,"393":-0.038195278495550156,"394":1.431972861289978,"395":-1.044213056564331,"396":0.6269367933273315,"397":0.046881213784217834,"398":1.0490292310714722,"399":0.8727009892463684,"400":1.1579220294952393,"401":-0.809962272644043,"402":0.3770126402378082,"403":-0.34273219108581543,"404":-1.5410428047180176,"405":0.5618410110473633,"406":0.39762669801712036,"407":-1.0140293836593628,"408":-1.0325007438659668,"409":-0.3440890312194824,"410":-0.8182626962661743,"411":1.6998826265335083,"412":-0.7830191850662231,"413":0.8511391282081604,"414":-1.5583322048187256,"415":1.1100398302078247,"416":0.6276772618293762,"417":-0.22904446721076965,"418":0.44789209961891174,"419":1.0426427125930786,"420":-0.2789897322654724,"421":0.09866279363632202,"422":0.013979842886328697,"423":0.14780598878860474,"424":-0.1947592794895172,"425":-0.5917916893959045,"426":0.49499964714050293,"427":0.18099284172058105,"428":-0.10718215256929398,"429":-1.7524164915084839,"430":-0.7665311098098755,"431":-1.4275166988372803,"432":0.4759095013141632,"433":-0.28895890712738037,"434":-1.058310866355896,"435":-1.0641487836837769,"436":0.01907351054251194,"437":-0.26093369722366333,"438":1.4521918296813965,"439":-0.7886091470718384,"440":-0.4289807081222534,"441":-0.43069061636924744,"442":3.074249744415283,"443":-0.2086157500743866,"444":-1.022515058517456,"445":-2.0144331455230713,"446":0.43386831879615784,"447":0.45821183919906616,"448":-0.18093998730182648,"449":0.4488684833049774,"450":0.27484965324401855,"451":-0.4308806359767914,"452":-0.35185298323631287,"453":-0.2807445824146271,"454":1.3546090126037598,"455":-0.936987042427063,"456":-0.0917041227221489,"457":0.3844512403011322,"458":-0.3221943974494934,"459":-0.7787085771560669,"460":0.2883637547492981,"461":-1.5033318996429443,"462":0.4022945761680603,"463":1.076926350593567,"464":0.9099836945533752,"465":0.019485492259263992,"466":0.18390507996082306,"467":0.6259792447090149,"468":-0.11558438092470169,"469":1.8453612327575684,"470":-0.4047951102256775,"471":-0.5497299432754517,"472":-0.2753467261791229,"473":0.34968334436416626,"474":-0.7044243812561035,"475":0.13875967264175415,"476":-2.952378273010254,"477":2.138857841491699,"478":0.2355877310037613,"479":-0.7006893754005432,"480":-0.9495202898979187,"481":0.6395644545555115,"482":-0.6712989211082458,"483":-0.1389293223619461,"484":0.46558940410614014,"485":-0.10036473721265793,"486":0.8565728664398193,"487":-0.5529267191886902,"488":-0.00783033948391676,"489":-0.10221779346466064,"490":-1.1093320846557617,"491":-1.0681216716766357,"492":-0.09046933799982071,"493":-0.04268794506788254,"494":-0.9571310877799988,"495":0.8752898573875427,"496":1.0448857545852661,"497":0.15726087987422943,"498":-0.014369123615324497,"499":0.0036754258908331394,"500":-1.2800419330596924,"501":0.7573525905609131,"502":-0.8714910745620728,"503":-1.2073705196380615,"504":-1.2266403436660767,"505":0.18069706857204437,"506":-1.2525521516799927,"507":-0.16562128067016602,"508":-0.3425924777984619,"509":2.466820478439331,"510":-0.18017703294754028,"511":-1.0988816022872925,"512":0.32915815711021423,"513":-1.050729513168335,"514":0.8456401228904724,"515":-0.09049380570650101,"516":-1.1427830457687378,"517":0.4418799877166748,"518":-0.6443428993225098,"519":1.7303581237792969,"520":-0.12235536426305771,"521":-0.06984537839889526,"522":1.5214226245880127,"523":0.5683727264404297,"524":-0.2188735455274582,"525":0.5937501192092896,"526":1.9460915327072144,"527":-1.8820451498031616,"528":-0.5501440167427063,"529":-0.9649904370307922,"530":-0.38289737701416016,"531":-0.3965279161930084,"532":0.4596051275730133,"533":-0.834894061088562,"534":-0.1869882196187973,"535":0.6426456570625305,"536":0.723656415939331,"537":0.03197208791971207,"538":1.370850920677185,"539":0.6231427788734436,"540":0.27956897020339966,"541":-0.627558171749115,"542":0.1392127275466919,"543":0.7514070868492126,"544":-0.9821510314941406,"545":0.7704432606697083,"546":-1.0123618841171265,"547":-0.006712568923830986,"548":1.7976514101028442,"549":-0.8583120703697205,"550":1.3741626739501953,"551":-0.5901615023612976,"552":0.3144371509552002,"553":-0.25845247507095337,"554":-1.5515509843826294,"555":-1.4604238271713257,"556":0.05919632688164711,"557":-1.4341782331466675,"558":-1.490850806236267,"559":1.7234930992126465,"560":1.7069244384765625,"561":0.8827010989189148,"562":0.5520325303077698,"563":0.021900277584791183,"564":-0.4327188730239868,"565":-0.2911652624607086,"566":0.13364574313163757,"567":-0.8104109168052673,"568":0.11993149667978287,"569":0.9118301272392273,"570":-1.2099097967147827,"571":-1.046626329421997,"572":-0.6743889451026917,"573":0.31958091259002686,"574":0.9724535346031189,"575":-1.5293596982955933,"576":-0.0077188932336866856,"577":-0.6927727460861206,"578":0.4717622697353363,"579":0.2949114441871643,"580":-0.7164710760116577,"581":1.2982549667358398,"582":-0.7147197127342224,"583":-0.46157172322273254,"584":-0.49395763874053955,"585":-0.8285059928894043,"586":1.2890409231185913,"587":-0.05846572667360306,"588":-0.2581377923488617,"589":-1.7013764381408691,"590":0.6757413744926453,"591":-1.2665959596633911,"592":0.7643859386444092,"593":-0.6255626678466797,"594":-0.6637128591537476,"595":0.02738049626350403,"596":-0.5950284004211426,"597":1.5090737342834473,"598":-0.6530547142028809,"599":-0.16776297986507416,"600":-0.49595728516578674,"601":-0.03961740434169769,"602":1.0999832153320312,"603":0.3696395456790924,"604":-1.438697099685669,"605":-0.3556253910064697,"606":0.320072740316391,"607":0.6130578517913818,"608":-0.07301454246044159,"609":0.7082850933074951,"610":-0.6323736906051636,"611":-0.5668166279792786,"612":0.5542110800743103,"613":0.31526970863342285,"614":0.6736558675765991,"615":0.027258336544036865,"616":0.738423228263855,"617":0.13260877132415771,"618":-1.4815402030944824,"619":-0.07726174592971802,"620":-1.2872629165649414,"621":0.8416050672531128,"622":-0.9557790756225586,"623":1.5220590829849243,"624":0.43734079599380493,"625":0.9924543499946594,"626":0.3631528913974762,"627":0.4855494797229767,"628":-0.012178182601928711,"629":0.40867042541503906,"630":0.6959061026573181,"631":-0.34890228509902954,"632":-0.12136846035718918,"633":0.5184736251831055,"634":-0.26741793751716614,"635":-0.05483052134513855,"636":-1.2704989910125732,"637":-1.8166542053222656,"638":1.4319875240325928,"639":-1.7354811429977417}},"outputHidden":{"rows":20,"columns":20,"weights":{"0":-2.3130855560302734,"1":0.1948813498020172,"2":0.8540723323822021,"3":-1.3427629470825195,"4":-0.5320989489555359,"5":-0.976921796798706,"6":-0.2642943859100342,"7":-0.6851458549499512,"8":0.9837118983268738,"9":-0.18267320096492767,"10":0.5911797285079956,"11":-1.1410130262374878,"12":-0.21294832229614258,"13":-1.072279930114746,"14":0.5857685208320618,"15":0.04279473051428795,"16":0.14012521505355835,"17":0.7813687920570374,"18":0.7961863279342651,"19":-1.0470448732376099,"20":0.3678432106971741,"21":0.10763804614543915,"22":-1.506445288658142,"23":0.06892990320920944,"24":0.497928649187088,"25":-1.3831645250320435,"26":-0.10916084051132202,"27":0.17360541224479675,"28":1.2713640928268433,"29":-0.11148335784673691,"30":-0.2524774968624115,"31":1.5936002731323242,"32":-1.7767596244812012,"33":-0.6485682725906372,"34":-0.766768753528595,"35":-0.6219959855079651,"36":0.25736668705940247,"37":-1.3525937795639038,"38":0.588961124420166,"39":-1.0692239999771118,"40":-0.14924316108226776,"41":1.8189256191253662,"42":0.2956731915473938,"43":-1.7704980373382568,"44":-0.6293078064918518,"45":-1.3581522703170776,"46":1.0449374914169312,"47":0.08695901930332184,"48":0.427908718585968,"49":-0.527299165725708,"50":-1.3179059028625488,"51":-0.37924924492836,"52":0.13161338865756989,"53":-1.1901074647903442,"54":-0.25226929783821106,"55":-1.589746117591858,