{"type":"LSTMTimeStep","options":{"inputSize":1,"hiddenLayers":[20],"outputSize":1,"decayRate":0.999,"smoothEps":1e-8,"regc":0.000001,"clipval":5},"hiddenLayers":[{"inputMatrix":{"rows":20,"columns":1,"weights":{"0":3.7013156414031982,"1":3.774608612060547,"2":-1.539042592048645,"3":-2.500875234603882,"4":-3.614961862564087,"5":2.7638437747955322,"6":-0.9300254583358765,"7":-0.8217129111289978,"8":1.7626224756240845,"9":-2.621798276901245,"10":4.022068023681641,"11":-3.3482375144958496,"12":4.0668864250183105,"13":3.8463118076324463,"14":-1.2262095212936401,"15":-1.2315624952316284,"16":-3.3151822090148926,"17":-3.32625150680542,"18":9.124977111816406,"19":-2.915025234222412}},"inputHidden":{"rows":20,"columns":20,"weights":{"0":-5.381373405456543,"1":5.178627014160156,"2":-0.2844754159450531,"3":5.023224353790283,"4":8.543596267700195,"5":-2.6760857105255127,"6":0.00907324068248272,"7":-2.721741199493408,"8":11.96777629852295,"9":3.5561881065368652,"10":-6.20298433303833,"11":-2.2029242515563965,"12":6.493495941162109,"13":5.533308506011963,"14":-5.49447774887085,"15":-0.2641471028327942,"16":1.8330885171890259,"17":2.664907455444336,"18":-5.288250923156738,"19":-3.036831855773926,"20":-6.7815399169921875,"21":6.470278263092041,"22":-0.19001604616641998,"23":5.311836242675781,"24":9.274856567382812,"25":-3.779266357421875,"26":0.06232589855790138,"27":-3.2669827938079834,"28":15.523606300354004,"29":3.916579008102417,"30":-7.585553169250488,"31":-2.3769044876098633,"32":8.079702377319336,"33":6.974715232849121,"34":-5.7392683029174805,"35":-0.2168700248003006,"36":1.9113470315933228,"37":2.8545267581939697,"38":-6.7923359870910645,"39":-3.2586910724639893,"40":0.30918097496032715,"41":-0.21152843534946442,"42":0.1775238960981369,"43":-0.20897546410560608,"44":-0.09140783548355103,"45":0.25723013281822205,"46":0.19983579218387604,"47":0.2623688578605652,"48":-0.16848665475845337,"49":-0.12430385500192642,"50":0.3205961287021637,"51":0.22884206473827362,"52":-0.2182447910308838,"53":-0.3174513578414917,"54":0.08085579425096512,"55":0.23372027277946472,"56":-0.17454831302165985,"57":-0.1922292858362198,"58":0.19307170808315277,"59":0.1968841254711151,"60":0.6227135062217712,"61":-1.5021312236785889,"62":-0.17089956998825073,"63":-0.24859827756881714,"64":5.4011688232421875,"65":-0.6644694805145264,"66":0.07161816954612732,"67":2.7694618701934814,"68":3.477151393890381,"69":0.7230448722839355,"70":-0.4420437514781952,"71":-0.5994401574134827,"72":0.41112959384918213,"73":-0.06546252220869064,"74":0.0354715995490551,"75":-0.1651494950056076,"76":0.49150142073631287,"77":0.709477961063385,"78":-2.252014636993408,"79":-2.3570525646209717,"80":-1.1913174390792847,"81":-0.7597513794898987,"82":-0.41923758387565613,"83":2.0944454669952393,"84":0.4494118094444275,"85":0.07759658247232437,"86":0.21876052021980286,"87":0.4757014214992523,"88":5.501312255859375,"89":1.686510682106018,"90":-1.12110435962677,"91":-1.7195335626602173,"92":1.690522313117981,"93":0.2804510295391083,"94":-2.708102226257324,"95":-0.3326112926006317,"96":1.455510139465332,"97":1.8554153442382812,"98":-4.192253112792969,"99":-1.8383632898330688,"100":2.125823736190796,"101":-1.3649845123291016,"102":-0.25168436765670776,"103":5.343583583831787,"104":3.5839459896087646,"105":3.2390100955963135,"106":-0.08878940343856812,"107":-2.662355899810791,"108":1.1065384149551392,"109":1.1950842142105103,"110":1.5421061515808105,"111":-1.1207882165908813,"112":-1.862712025642395,"113":-1.5284343957901,"114":-8.770585060119629,"115":-0.21958202123641968,"116":1.108323574066162,"117":1.2041444778442383,"118":6.421390056610107,"119":-1.9211211204528809,"120":0.32152849435806274,"121":-0.3665064573287964,"122":0.21261577308177948,"123":-0.2059573084115982,"124":-0.20836685597896576,"125":0.3282019793987274,"126":0.1741819530725479,"127":0.2509067952632904,"128":-0.18954651057720184,"129":-0.11174847930669785,"130":0.35722073912620544,"131":0.146378293633461,"132":-0.3888165056705475,"133":-0.2841377258300781,"134":0.09639960527420044,"135":0.12055466324090958,"136":-0.22365355491638184,"137":-0.17116427421569824,"138":0.2167213410139084,"139":0.2239532172679901,"140":-4.557187080383301,"141":6.9892377853393555,"142":-0.4999571740627289,"143":6.7689337730407715,"144":4.976686000823975,"145":-1.7308902740478516,"146":-0.018378950655460358,"147":-3.3163235187530518,"148":1.3859292268753052,"149":3.2633535861968994,"150":-2.8741073608398438,"151":-2.0274624824523926,"152":2.379364252090454,"153":3.938023567199707,"154":-9.218367576599121,"155":0.04826074093580246,"156":1.609883427619934,"157":2.2461748123168945,"158":0.5486771464347839,"159":-4.4942731857299805,"160":7.424530982971191,"161":-7.64546012878418,"162":-0.6964757442474365,"163":3.900491952896118,"164":5.625347137451172,"165":2.5610103607177734,"166":0.014375613071024418,"167":2.7348926067352295,"168":6.981350421905518,"169":2.465078830718994,"170":5.556949615478516,"171":-2.057654619216919,"172":-5.50250244140625,"173":-6.39034366607666,"174":-12.461881637573242,"175":-1.275850772857666,"176":1.955224633216858,"177":1.998142123222351,"178":-1.0812803506851196,"179":-5.159503936767578,"180":-0.5156304836273193,"181":-1.1700115203857422,"182":0.19951750338077545,"183":-2.0266966819763184,"184":-3.292698621749878,"185":0.13632790744304657,"186":0.2018844038248062,"187":0.28335002064704895,"188":4.606627941131592,"189":-1.3309910297393799,"190":-1.4764683246612549,"191":0.414092093706131,"192":2.1312994956970215,"193":0.4891350269317627,"194":1.5530204772949219,"195":0.1842227578163147,"196":-0.39312079548835754,"197":-0.6956462860107422,"198":-1.8887053728103638,"199":0.9240506291389465,"200":-6.086705207824707,"201":5.903112411499023,"202":-0.21184445917606354,"203":4.148226261138916,"204":6.6219305992126465,"205":-2.932164192199707,"206":-0.07933449000120163,"207":-2.259596824645996,"208":13.773717880249023,"209":2.6276659965515137,"210":-7.013753890991211,"211":-1.5735543966293335,"212":7.28611421585083,"213":6.438451290130615,"214":-4.31037712097168,"215":-0.2348395437002182,"216":1.3063467741012573,"217":1.9461580514907837,"218":-5.444460391998291,"219":-2.330840587615967,"220":0.3642944097518921,"221":-0.39443495869636536,"222":0.18628494441509247,"223":-0.3728947341442108,"224":-0.36549127101898193,"225":0.17911015450954437,"226":0.09916099905967712,"227":0.19059666991233826,"228":0.6809381246566772,"229":-0.2797832787036896,"230":0.20371116697788239,"231":0.1295270323753357,"232":-0.2519161105155945,"233":-0.3112804591655731,"234":0.274572491645813,"235":0.0756591409444809,"236":-0.22087222337722778,"237":-0.20453961193561554,"238":0.08861693739891052,"239":0.297377347946167,"240":-5.732664585113525,"241":5.762421607971191,"242":-0.12341620028018951,"243":3.833319664001465,"244":7.5325727462768555,"245":-2.2245397567749023,"246":-0.11773960292339325,"247":-1.8769376277923584,"248":13.05434513092041,"249":2.088430881500244,"250":-6.749326229095459,"251":-1.354857087135315,"252":6.918963432312012,"253":6.161801338195801,"254":-4.030706405639648,"255":-0.20643842220306396,"256":1.0824558734893799,"257":1.595253586769104,"258":-4.424045562744141,"259":-2.0994668006896973,"260":-6.428862571716309,"261":6.102902412414551,"262":-0.24086084961891174,"263":4.711533546447754,"264":7.791792869567871,"265":-3.2802906036376953,"266":-0.04159768298268318,"267":-2.6598567962646484,"268":14.667171478271484,"269":3.0759828090667725,"270":-7.353723526000977,"271":-1.8788204193115234,"272":7.7506232261657715,"273":6.643344402313232,"274":-4.948578834533691,"275":-0.2086440473794937,"276":1.4349615573883057,"277":2.216378688812256,"278":-6.085119247436523,"279":-2.565624713897705,"280":0.47994115948677063,"281":-1.133639931678772,"282":-0.19599279761314392,"283":3.315622568130493,"284":14.040568351745605,"285":1.8205729722976685,"286":-0.07017084956169128,"287":1.7507691383361816,"288":9.106383323669434,"289":2.545748472213745,"290":0.3424542248249054,"291":-1.3520814180374146,"292":-0.5542323589324951,"293":-0.4972260892391205,"294":-3.3444552421569824,"295":-0.34049972891807556,"296":0.8918206691741943,"297":1.6081911325454712,"298":5.1226983070373535,"299":-3.4691922664642334,"300":0.2751096487045288,"301":-0.2822032868862152,"302":0.16270102560520172,"303":-0.1173425167798996,"304":-0.16475537419319153,"305":0.3213571310043335,"306":0.15019337832927704,"307":0.2730867564678192,"308":-0.1573522388935089,"309":-0.1549416482448578,"310":0.29402148723602295,"311":0.11306983977556229,"312":-0.2887274920940399,"313":-0.2649913430213928,"314":0.10305225104093552,"315":0.13206905126571655,"316":-0.26273205876350403,"317":-0.20137150585651398,"318":0.20457333326339722,"319":0.2284589558839798,"320":0.33996981382369995,"321":-0.3557664752006531,"322":0.24967096745967865,"323":-0.34653404355049133,"324":-0.2825049161911011,"325":0.3122674524784088,"326":0.2075667381286621,"327":0.1744282990694046,"328":0.29444730281829834,"329":-0.2757209539413452,"330":0.3242287337779999,"331":0.23041509091854095,"332":-0.3422795236110687,"333":-0.2867628335952759,"334":0.2844606637954712,"335":0.14365428686141968,"336":-0.23545388877391815,"337":-0.14162670075893402,"338":0.14929400384426117,"339":0.28948116302490234,"340":0.27114784717559814,"341":-0.49948862195014954,"342":0.1163700520992279,"343":-0.44417059421539307,"344":-0.3438456058502197,"345":0.19757090508937836,"346":0.11240315437316895,"347":0.12585636973381042,"348":0.910771369934082,"349":-0.2592066526412964,"350":0.3245500922203064,"351":0.1892767995595932,"352":-0.2162083387374878,"353":-0.33563438057899475,"354":0.38653048872947693,"355":0.13197298347949982,"356":-0.2699211835861206,"357":-0.17168839275836945,"358":0.10159162431955338,"359":0.27393868565559387,"360":-0.7958047389984131,"361":0.9424207806587219,"362":-0.2553786635398865,"363":3.0864574909210205,"364":0.7195827960968018,"365":-0.7909112572669983,"366":-0.1013067290186882,"367":-1.0536961555480957,"368":-0.35207024216651917,"369":0.6310978531837463,"370":-0.7289767265319824,"371":-0.6897959113121033,"372":0.4997211694717407,"373":0.7349891662597656,"374":-3.2849369049072266,"375":-0.11283932626247406,"376":0.6612886190414429,"377":0.7600937485694885,"378":-0.513292670249939,"379":-2.000359535217285,"380":-1.8746285438537598,"381":1.0894032716751099,"382":0.20179340243339539,"383":-3.0864973068237305,"384":-2.254161834716797,"385":-0.4081943929195404,"386":0.22874805331230164,"387":0.07519624382257462,"388":4.9164042472839355,"389":-1.3367326259613037,"390":-2.318140983581543,"391":0.6473835110664368,"392":2.524625062942505,"393":2.087470531463623,"394":2.6187758445739746,"395":0.28247496485710144,"396":-0.5675925612449646,"397":-0.9142469763755798,"398":-2.1116766929626465,"399":1.4917975664138794}},"inputBias":{"rows":20,"columns":1,"weights":{"0":-11.570438385009766,"1":-13.743422508239746,"2":-1.4668318033218384,"3":-2.6818723678588867,"4":-1.8459404706954956,"5":-8.85828685760498,"6":-1.3239901065826416,"7":-5.551619052886963,"8":8.45000171661377,"9":-2.6116819381713867,"10":-13.31175422668457,"11":-1.751496434211731,"12":-13.209221839904785,"13":-13.484561920166016,"14":-4.1714372634887695,"15":-1.4322137832641602,"16":-1.8702757358551025,"17":-1.673311471939087,"18":-13.873063087463379,"19":-2.4750871658325195}},"forgetMatrix":{"rows":20,"columns":1,"weights":{"0":-0.4103718101978302,"1":2.2346136569976807,"2":-0.3436644673347473,"3":-2.1015210151672363,"4":1.0368658304214478,"5":-0.6067943572998047,"6":-0.47138914465904236,"7":1.5416942834854126,"8":-1.4561454057693481,"9":-1.4094940423965454,"10":2.7025113105773926,"11":-0.5275957584381104,"12":2.5131382942199707,"13":2.428267002105713,"14":-2.030214309692383,"15":-0.4975306987762451,"16":-0.44748082756996155,"17":-0.6166353821754456,"18":-1.1957898139953613,"19":-1.4511876106262207}},"forgetHidden":{"rows":20,"columns":20,"weights":{"0":-2.173776149749756,"1":1.6186888217926025,"2":-0.2356421947479248,"3":1.2856320142745972,"4":1.5869028568267822,"5":2.7158334255218506,"6":-0.15592318773269653,"7":-0.6584616899490356,"8":-1.9418772459030151,"9":0.7715196013450623,"10":-1.7793105840682983,"11":-0.5573820471763611,"12":1.7440838813781738,"13":1.7583014965057373,"14":-2.5519673824310303,"15":-0.15959544479846954,"16":0.43161821365356445,"17":0.6786746382713318,"18":3.19667911529541,"19":-0.84996098279953,"20":-1.0205398797988892,"21":1.1825966835021973,"22":-0.12286622822284698,"23":0.8918384313583374,"24":0.7938330173492432,"25":-0.10866260528564453,"26":-0.1517636775970459,"27":-0.364921510219574,"28":-0.0687740370631218,"29":0.38801810145378113,"30":-1.3069895505905151,"31":-0.23354507982730865,"32":1.3288735151290894,"33":1.294869065284729,"34":-0.9658547043800354,"35":-0.07751572132110596,"36":0.2702440321445465,"37":0.2626047730445862,"38":-0.3295662999153137,"39":-0.45883700251579285,"40":0.17775936424732208,"41":-0.21453964710235596,"42":0.05730392783880234,"43":-0.0064325518906116486,"44":-0.054615266621112823,"45":0.1050967127084732,"46":0.07997477799654007,"47":0.09132593870162964,"48":-0.03277033194899559,"49":-0.052046824246644974,"50":0.14972814917564392,"51":0.10046052932739258,"52":-0.18294526636600494,"53":-0.13628888130187988,"54":0.04466390237212181,"55":0.08891786634922028,"56":-0.06858045607805252,"57":-0.0783315896987915,"58":0.17781776189804077,"59":0.0005688127712346613,"60":-0.6498210430145264,"61":0.2953842282295227,"62":0.018208444118499756,"63":3.009888172149658,"64":2.1582276821136475,"65":-1.4473752975463867,"66":0.06717503815889359,"67":-3.6038196086883545,"68":-0.28870663046836853,"69":-1.042301058769226,"70":0.2945379912853241,"71":0.4923734664916992,"72":-0.17301775515079498,"73":-0.0992773026227951,"74":-3.204834461212158,"75":0.07850711047649384,"76":-0.3656325936317444,"77":-0.6681281924247742,"78":-1.1730223894119263,"79":-1.0876339673995972,"80":-0.9078887701034546,"81":0.9023385643959045,"82":-0.07987847179174423,"83":0.660659670829773,"84":0.9909294843673706,"85":-0.8133937120437622,"86":-0.03384903073310852,"87":-0.5685692429542542,"88":1.3930226564407349,"89":0.5132176280021667,"90":-1.0540356636047363,"91":-0.33491572737693787,"92":1.0356632471084595,"93":1.0244441032409668,"94":-0.8930167555809021,"95":-0.06609761714935303,"96":0.26808908581733704,"97":0.38394153118133545,"98":-0.8253263831138611,"99":-0.7334409356117249,"100":0.22162769734859467,"101":-0.08017139881849289,"102":-0.1765863448381424,"103":1.391173005104065,"104":1.0588352680206299,"105":-0.1463640332221985,"106":-0.15279892086982727,"107":-0.7522746324539185,"108":-0.7481560111045837,"109":0.6204754710197449,"110":0.1229289099574089,"111":-0.5153334736824036,"112":-0.09426660090684891,"113":-0.08754395693540573,"114":-1.6959669589996338,"115":-0.16249467432498932,"116":0.40636563301086426,"117":0.5933159589767456,"118":0.17920058965682983,"119":-0.7387099266052246,"120":0.14795005321502686,"121":-0.14689762890338898,"122":0.028787914663553238,"123":-0.08567988872528076,"124":-0.06336481869220734,"125":0.11140808463096619,"126":0.009785550646483898,"127":0.050698135048151016,"128":-0.04045172780752182,"129":-0.04420425370335579,"130":0.11942920833826065,"131":0.02529822662472725,"132":-0.20129579305648804,"133":-0.1902332305908203,"134":-0.032173462212085724,"135":-0.02496991865336895,"136":-0.07134056091308594,"137":-0.05288032069802284,"138":0.07385306805372238,"139":0.07089996337890625,"140":-0.3981611728668213,"141":0.5377373695373535,"142":-0.23355337977409363,"143":1.359433650970459,"144":1.1741679906845093,"145":-0.30482953786849976,"146":-0.09794259071350098,"147":-1.2873165607452393,"148":-0.34232670068740845,"149":0.6096934676170349,"150":-0.45135509967803955,"151":-0.49838343262672424,"152":0.4678664207458496,"153":0.3894314169883728,"154":-1.605186104774475,"155":-0.2347547858953476,"156":0.3615952432155609,"157":0.581540048122406,"158":-0.3436165452003479,"159":-0.7191347479820251,"160":-2.1205227375030518,"161":1.6912578344345093,"162":-0.3729192614555359,"163":0.2845822274684906,"164":9.031038284301758,"165":9.939126014709473,"166":0.10404464602470398,"167":10.607793807983398,"168":3.481048345565796,"169":7.912838935852051,"170":-1.49176025390625,"171":-5.275326728820801,"172":1.4662965536117554,"173":1.4277476072311401,"174":12.80563735961914,"175":-0.1523660272359848,"176":4.084366321563721,"177":7.0436506271362305,"178":5.822573661804199,"179":-5.704348087310791,"180":0.10795094072818756,"181":-0.09927859902381897,"182":0.07942569255828857,"183":-0.09710635989904404,"184":-0.24876445531845093,"185":0.010756450705230236,"186":0.09250026941299438,"187":0.06215330585837364,"188":-0.11346173286437988,"189":-0.1563161313533783,"190":0.09302040934562683,"191":0.05885113403201103,"192":-0.08025481551885605,"193":-0.03635186329483986,"194":0.040429361164569855,"195":0.05276762694120407,"196":-0.012774400413036346,"197":-0.07744890451431274,"198":-0.07218349725008011,"199":0.006470027379691601,"200":-0.8935268521308899,"201":1.0905121564865112,"202":-0.04667823016643524,"203":0.9129155278205872,"204":1.0290637016296387,"205":-0.32443520426750183,"206":-0.11441454291343689,"207":-0.3975183367729187,"208":0.5121541023254395,"209":0.5179349780082703,"210":-1.3043370246887207,"211":-0.3675808310508728,"212":1.2231842279434204,"213":1.1743731498718262,"214":-1.0508192777633667,"215":-0.13214336335659027,"216":0.245406374335289,"217":0.39959800243377686,"218":-0.5163320899009705,"219":-0.5192519426345825,"220":0.05283159390091896,"221":-0.06016772612929344,"222":0.02139347419142723,"223":-0.06270743161439896,"224":-0.009848024696111679,"225":0.03449801355600357,"226":0.06254681944847107,"227":0.025404056534171104,"228":-0.04699669033288956,"229":0.008290192112326622,"230":0.031517039984464645,"231":0.04929135739803314,"232":-0.03637157008051872,"233":-0.11083343625068665,"234":0.0003279411175753921,"235":0.010190153494477272,"236":0.05252770334482193,"237":-0.07369928807020187,"238":0.00012580367911141366,"239":-0.034807365387678146,"240":-0.8722928166389465,"241":0.9496516585350037,"242":-0.05472523719072342,"243":1.1729940176010132,"244":1.2572380304336548,"245":-0.31234344840049744,"246":-0.0675559714436531,"247":-0.5333456993103027,"248":0.4229191839694977,"249":0.606850802898407,"250":-1.295641303062439,"251":-0.3876410126686096,"252":1.1560605764389038,"253":1.107893943786621,"254":-1.4067693948745728,"255":-0.14906121790409088,"256":0.3323456645011902,"257":0.47091609239578247,"258":-0.42312178015708923,"259":-0.7008556723594666,"260":-0.9379422068595886,"261":1.07077956199646,"262":-0.18880169093608856,"263":1.0115196704864502,"264":1.1415964365005493,"265":-0.24189195036888123,"266":-0.08958371728658676,"267":-0.5478792190551758,"268":0.17844665050506592,"269":0.5836246013641357,"270":-1.3271398544311523,"271":-0.4639343023300171,"272":1.3340078592300415,"273":1.1655067205429077,"274":-1.1761659383773804,"275":-0.09474337100982666,"276":0.36595094203948975,"277":0.42677581310272217,"278":-0.4101722240447998,"279":-0.546323835849762,"280":-1.398346185684204,"281":1.16059148311615,"282":0.11447236686944962,"283":3.3831679821014404,"284":2.284269332885742,"285":-1.6366499662399292,"286":0.021182646974921227,"287":-4.8278489112854,"288":-0.7727966904640198,"289":-1.5755943059921265,"290":-0.20379570126533508,"291":0.8756039142608643,"292":0.29747483134269714,"293":0.5164980888366699,"294":-3.6833715438842773,"295":0.11332134902477264,"296":-0.7135512828826904,"297":-1.0650784969329834,"298":-1.0795197486877441,"299":-0.7971234917640686,"300":0.14605849981307983,"301":-0.17409421503543854,"302":0.021773364394903183,"303":-0.017057301476597786,"304":-0.02763567678630352,"305":0.1436922401189804,"306":-0.044215064495801926,"307":0.05657128617167473,"308":-0.013073106296360493,"309":0.028866278007626534,"310":0.17395015060901642,"311":-0.02776212804019451,"312":-0.2025883048772812,"313":-0.16718658804893494,"314":-0.02804776281118393,"315":0.08364693075418472,"316":-0.027814392000436783,"317":-0.09690205752849579,"318":0.17098520696163177,"319":0.09908763319253922,"320":0.14664342999458313,"321":-0.1049388125538826,"322":0.03124627098441124,"323":-0.05588291212916374,"324":-0.06876406818628311,"325":0.12278087437152863,"326":-0.005926342215389013,"327":0.09502549469470978,"328":-0.062450237572193146,"329":0.011790548451244831,"330":0.1768818348646164,"331":0.04794185981154442,"332":-0.14312247931957245,"333":-0.09049224108457565,"334":0.03932201862335205,"335":0.011863836087286472,"336":-0.06423047184944153,"337":-0.0719350278377533,"338":0.0926717221736908,"339":0.029933124780654907,"340":0.11170737445354462,"341":-0.02459309808909893,"342":-0.04600272700190544,"343":-0.016479535028338432,"344":-0.044454190880060196,"345":0.01552287396043539,"346":-0.04978637397289276,"347":0.003455416765064001,"348":-0.010118342004716396,"349":-0.029641523957252502,"350":0.11651944369077682,"351":0.08125142008066177,"352":-0.09163352847099304,"353":-0.07768377661705017,"354":0.06575563549995422,"355":0.021420208737254143,"356":0.04103943333029747,"357":0.03408687934279442,"358":0.01493837870657444,"359":0.09295424073934555,"360":0.6809507608413696,"361":-0.5506693720817566,"362":-0.09300865978002548,"363":1.2769649028778076,"364":0.9253395199775696,"365":-0.0016061461064964533,"366":-0.1025591641664505,"367":-0.7471530437469482,"368":-0.9978480339050293,"369":0.5655967593193054,"370":0.563288688659668,"371":-0.4637012779712677,"372":-0.8307284116744995,"373":-0.6403113603591919,"374":-1.6701933145523071,"375":-0.06367742270231247,"376":0.4578559100627899,"377":0.5590029358863831,"378":0.34068164229393005,"379":-0.6560293436050415,"380":0.022328464314341545,"381":-0.07967597246170044,"382":-0.009544583968818188,"383":-0.0633985698223114,"384":-0.05251190438866615,"385":0.00755304703488946,"386":0.0761830136179924,"387":0.04010889306664467,"388":0.4019507169723511,"389":0.004901029635220766,"390":0.13978178799152374,"391":0.018310323357582092,"392":-0.050111494958400726,"393":-0.04616497457027435,"394":0.06402769684791565,"395":0.0781513974070549,"396":0.04416400194168091,"397":0.05171268805861473,"398":-0.12066449224948883,"399":0.07437633723020554}},"forgetBias":{"rows":20,"columns":1,"weights":{"0":0,"1":0,"2":0,"3":0,"4":0,"5":0,"6":0,"7":0,"8":0,"9":0,"10":0,"11":0,"12":0,"13":0,"14":0,"15":0,"16":0,"17":0,"18":0,"19":0}},"outputMatrix":{"rows":20,"columns":1,"weights":{"0":4.474384784698486,"1":4.892404079437256,"2":-1.4375331401824951,"3":-2.398879051208496,"4":-3.147416591644287,"5":3.498162031173706,"6":-0.9114794731140137,"7":0.2307591736316681,"8":3.1949386596679688,"9":-2.5101211071014404,"10":4.840240955352783,"11":-3.3567070960998535,"12":5.259359836578369,"13":4.93956995010376,"14":-1.0101501941680908,"15":-1.1728185415267944,"16":-3.206949234008789,"17":-3.4452497959136963,"18":1.7668983936309814,"19":-2.671513319015503}},"outputHidden":{"rows":20,"columns":20,"weights":{"0":-4.2131805419921875,"1":4.012806415557861,"2":-0.043062467128038406,"3":5.165116786956787,"4":9.06480884552002,"5":-2.1579136848449707,"6":-0.10983916372060776,"7":-2.462162733078003,"8":7.590961933135986,"9":3.7783641815185547,"10":-4.899421691894531,"11":-2.241579294204712,"12":5.216424465179443,"13":4.458302974700928,"14":-6.166067123413086,"15":-0.17711769044399261,"16":1.7399331331253052,"17":2.7272515296936035,"18":-4.336029052734375,"19":-3.104048490524292,"20":-6.316089630126953,"21":6.120145797729492,"22":-0.05589120462536812,"23":5.215468883514404,"24":9.824663162231445,"25":-2.583441972732544,"26":-0.03270312398672104,"27":-2.64572811126709,"28":12.58542537689209,"29":3.832082748413086,"30":-7.073387145996094,"31":-2.145052194595337,"32":7.479872703552246,"33":6.480533599853516,"34":-6.184265613555908,"35":-0.076451376080513,"36":1.5971753597259521,"37":2.762366533279419,"38":-5.212880611419678,"39":-3.0694072246551514,"40":0.24919062852859497,"41":-0.18515101075172424,"42":0.2726230025291443,"43":-0.12868553400039673,"44":-0.13446824252605438,"45":0.22071540355682373,"46":0.20646493136882782,"47":0.20036843419075012,"48":-0.1851000338792801,"49":-0.1708560436964035,"50":0.317581444978714,"51":0.22174116969108582,"52":-0.2443065047264099,"53":-0.31897369027137756,"54":0.09712831676006317,"55":0.19383561611175537,"56":-0.2070571482181549,"57":-0.2205166518688202,"58":0.18753957748413086,"59":0.23177260160446167,"60":0.11812485009431839,"61":-0.8954914808273315,"62":-0.13461610674858093,"63":0.14833402633666992,"64":5.481213569641113,"65":-0.825303316116333,"66":0.11585476994514465,"67":1.3889048099517822,"68":3.3407039642333984,"69":0.1618402600288391,"70":-0.4207037687301636,"71":-0.2626142203807831,"72":0.5805222392082214,"73":0.1314242035150528,"74":-0.24329227209091187,"75":-0.12401445209980011,"76":0.16309687495231628,"77":0.11343361437320709,"78":-2.208317995071411,"79":-2.00224232673645,"80":-0.15634286403656006,"81":-2.467040538787842,"82":-0.7347935438156128,"83":-0.0383620485663414,"84":-7.557083606719971,"85":0.5468365550041199,"86":0.2038280963897705,"87":2.805903196334839,"88":3.005209445953369,"89":0.9371373653411865,"90":-0.06465436518192291,"91":-1.4647672176361084,"92":0.8082053661346436,"93":-1.0362441539764404,"94":-0.0578831322491169,"95":-0.5787904262542725,"96":1.6476430892944336,"97":1.103279948234558,"98":-3.737755298614502,"99":-1.175398588180542,"100":-0.34493401646614075,"101":3.9340286254882812,"102":-0.006119240075349808,"103":2.5251290798187256,"104":2.7228915691375732,"105":0.983472466468811,"106":0.14716655015945435,"107":-2.9476356506347656,"108":-1.441277027130127,"109":-1.0547658205032349,"110":-0.9201399087905884,"111":0.13923215866088867,"112":0.36367183923721313,"113":2.2030961513519287,"114":-3.3485798835754395,"115":0.055265963077545166,"116":0.023293090984225273,"117":-0.4611223638057709,"118":9.123917579650879,"119":-1.0810892581939697,"120":0.26979759335517883,"121":-0.35686466097831726,"122":0.1645747274160385,"123":-0.1070205420255661,"124":-0.11298003047704697,"125":0.3247126042842865,"126":0.17132067680358887,"127":0.2517760396003723,"128":-0.2283114343881607,"129":-0.19904743134975433,"130":0.2562849223613739,"131":0.15965643525123596,"132":-0.3729311227798462,"133":-0.2653082311153412,"134":0.2065807431936264,"135":0.13615474104881287,"136":-0.25123724341392517,"137":-0.21662402153015137,"138":0.2683278024196625,"139":0.11619480699300766,"140":-3.37749981880188,"141":4.926273345947266,"142":-0.4696674942970276,"143":8.499544143676758,"144":10.161273002624512,"145":-1.4670870304107666,"146":-0.07817871123552322,"147":-3.2983648777008057,"148":-0.8638101816177368,"149":5.21939754486084,"150":-3.3222506046295166,"151":-3.5101945400238037,"152":2.7895092964172363,"153":3.6462340354919434,"154":-10.588592529296875,"155":-0.17650626599788666,"156":2.809385061264038,"157":4.100456714630127,"158":-0.1022307425737381,"159":-5.329832553863525,"160":1.1009503602981567,"161":-1.2362087965011597,"162":-0.3726700246334076,"163":0.19609865546226501,"164":-2.3086624145507812,"165":-0.41158318519592285,"166":-0.0737713947892189,"167":0.29239094257354736,"168":5.378714561462402,"169":0.5099639892578125,"170":1.0312950611114502,"171":-0.5775115489959717,"172":-1.0649943351745605,"173":-1.095963478088379,"174":-0.3156989812850952,"175":-0.5198317766189575,"176":0.732829213142395,"177":0.6623144745826721,"178":-2.8039443492889404,"179":-0.55827397108078,"180":-0.47748035192489624,"181":-1.3328851461410522,"182":0.1998853236436844,"183":-2.430194616317749,"184":-4.0479888916015625,"185":0.3150998651981354,"186":0.20844267308712006,"187":0.2731596529483795,"188":3.878544807434082,"189":-1.658392310142517,"190":-1.3090283870697021,"191":0.49464988708496094,"192":1.8620418310165405,"193":0.2875424921512604,"194":1.8770877122879028,"195":0.200547456741333,"196":-0.38973376154899597,"197":-0.8426161408424377,"198":-1.7395826578140259,"199":1.0846632719039917,"200":-6.366382122039795,"201":6.326185703277588,"202":-0.11585388332605362,"203":5.162246227264404,"204":10.369762420654297,"205":-2.286898374557495,"206":-0.095059834420681,"207":-2.350412607192993,"208":12.899645805358887,"209":3.693028688430786,"210":-7.1968674659729,"211":-1.9617817401885986,"212":7.403618335723877,"213":6.7555413246154785,"214":-6.540125846862793,"215":-0.1235509067773819,"216":1.5099235773086548,"217":2.674957513809204,"218":-4.376992702484131,"219":-2.8746724128723145,"220":0.30485060811042786,"221":-0.42853987216949463,"222":0.17209279537200928,"223":-0.4034964144229889,"224":-0.3054257929325104,"225":0.20033520460128784,"226":0.12798240780830383,"227":0.1530599743127823,"228":0.6206245422363281,"229":-0.2806849181652069,"230":0.24930408596992493,"231":0.14050543308258057,"232":-0.38776010274887085,"233":-0.278587281703949,"234":0.34329089522361755,"235":0.1503337323665619,"236":-0.1405957192182541,"237":-0.2279691994190216,"238":0.11376231163740158,"239":0.30934420228004456,"240":-6.201449394226074,"241":6.3134565353393555,"242":0.06617055088281631,"243":5.221982955932617,"244":11.05575942993164,"245":-2.2151918411254883,"246":-0.025542713701725006,"247":-2.526404857635498,"248":12.422513008117676,"249":3.920626401901245,"250":-7.164743423461914,"251":-2.266584873199463,"252":7.315594673156738,"253":6.616395950317383,"254":-6.6778974533081055,"255":-0.0894971415400505,"256":1.666716456413269,"257":2.899798631668091,"258":-3.943295955657959,"259":-3.1056694984436035,"260":-6.309192657470703,"261":6.151269435882568,"262":-0.11430642753839493,"263":5.263994216918945,"264":10.273780822753906,"265":-2.2988781929016113,"266":-0.1023733988404274,"267":-2.5032753944396973,"268":12.559113502502441,"269":3.8606302738189697,"270":-7.075366497039795,"271":-2.13425612449646,"272":7.3802056312561035,"273":6.5755414962768555,"274":-6.479461193084717,"275":-0.03787803277373314,"276":1.5028997659683228,"277":2.7056336402893066,"278":-4.613772869110107,"279":-3.008373260498047,"280":1.1463334560394287,"281":-2.0170116424560547,"282":-0.18091917037963867,"283":3.333293914794922,"284":13.45056438446045,"285":1.8668875694274902,"286":0.04648314043879509,"287":0.8026355504989624,"288":8.76300048828125,"289":1.9787107706069946,"290":0.8366092443466187,"291":-0.9933282136917114,"292":-1.0530436038970947,"293":-1.367264986038208,"294":-3.557209014892578,"295":-0.2387617528438568,"296":0.5554896593093872,"297":1.167120337486267,"298":5.600679874420166,"299":-3.504531145095825,"300":0.23606637120246887,"301":-0.2678430676460266,"302":0.19420091807842255,"303":-0.16674688458442688,"304":-0.12370980530977249,"305":0.29157495498657227,"306":0.14861753582954407,"307":0.21429897844791412,"308":-0.19004224240779877,"309":-0.1255335956811905,"310":0.3141503632068634,"311":0.10678315907716751,"312":-0.2766597270965576,"313":-0.21144308149814606,"314":0.1763361245393753,"315":0.18734213709831238,"316":-0.16236527264118195,"317":-0.15523293614387512,"318":0.2838270366191864,"319":0.14620432257652283,"320":0.3444706201553345,"321":-0.4280393719673157,"322":0.1578221321105957,"323":-0.27464166283607483,"324":-0.28384891152381897,"325":0.2213761806488037,"326":0.25053659081459045,"327":0.2695704996585846,"328":0.15074840188026428,"329":-0.19955921173095703,"330":0.3847843110561371,"331":0.270677387714386,"332":-0.26829907298088074,"333":-0.35105443000793457,"334":0.2762812077999115,"335":0.21627753973007202,"336":-0.28482645750045776,"337":-0.2469487190246582,"338":0.2409793883562088,"339":0.2473604381084442,"340":0.3471670150756836,"341":-0.45422104001045227,"342":0.1692160665988922,"343":-0.42739900946617126,"344":-0.5628254413604736,"345":0.28082677721977234,"346":0.13468433916568756,"347":0.24906162917613983,"348":0.7802301645278931,"349":-0.2497333139181137,"350":0.30994391441345215,"351":0.14446818828582764,"352":-0.35513681173324585,"353":-0.3604550063610077,"354":0.36754339933395386,"355":0.08836384117603302,"356":-0.20433920621871948,"357":-0.2624610960483551,"358":0.08583193272352219,"359":0.29259204864501953,"360":0.5459151268005371,"361":0.09034798294305801,"362":0.15428215265274048,"363":1.757991075515747,"364":-6.392483234405518,"365":0.8982105851173401,"366":0.03640992194414139,"367":-4.420098781585693,"368":-13.764425277709961,"369":-2.3681640625,"370":2.173100471496582,"371":1.0275212526321411,"372":-2.5841100215911865,"373":-1.5575648546218872,"374":-1.4891120195388794,"375":0.13431207835674286,"376":-0.7785131335258484,"377":-1.4429652690887451,"378":1.7476327419281006,"379":-0.7513272166252136,"380":0.034651804715394974,"381":-1.1046679019927979,"382":0.247880756855011,"383":-5.191715717315674,"384":-4.543214797973633,"385":0.20395778119564056,"386":0.20134174823760986,"387":0.32225024700164795,"388":4.819753646850586,"389":-2.4027271270751953,"390":-0.9780421853065491,"391":1.1238974332809448,"392":1.2640515565872192,"393":0.43847760558128357,"394":4.434859275817871,"395":0.14140845835208893,"396":-0.8788162469863892,"397":-1.3988114595413208,"398":-1.5163495540618896,"399":2.7958927154541016}},"outputBias":{"rows":20,"columns":1,"weights":{"0":-7.998992919921875,"1":-13.113383293151855,"2":-1.456512212753296,"3":-2.6843581199645996,"4":-1.539657473564148,"5":-8.166329383850098,"6":-1.305365800857544,"7":-5.212813854217529,"8":7.514917373657227,"9":-2.5715792179107666,"10":-13.679097175598145,"11":-1.7623794078826904,"12":-14.503321647644043,"13":-13.449626922607422,"14":-4.177554607391357,"15":-1.4212545156478882,"16":-1.8391985893249512,"17":-1.7547032833099365,"18":1.8094511032104492,"19":-2.3299038410186768}},"cellActivationMatrix":{"rows":20,"columns":1,"weights":{"0":-1.846823811531067,"1":1.6643205881118774,"2":0.22547847032546997,"3":1.0872092247009277,"4":1.2655459642410278,"5":-1.9601352214813232,"6":-0.07687266170978546,"7":-1.377140998840332,"8":-0.36751890182495117,"9":0.9713535904884338,"10":-1.7268743515014648,"11":-0.6609806418418884,"12":1.8151814937591553,"13":1.8928167819976807,"14":-1.1238888502120972,"15":-0.0006861808942630887,"16":0.7039394378662109,"17":0.820564866065979,"18":-2.8259291648864746,"19":-0.980107843875885}},"cellActivationHidden":{"rows":20,"columns":20,"weights":{"0":1.1984046697616577,"1":-1.496390461921692,"2":0.027060436084866524,"3":-0.9151350259780884,"4":-2.476173162460327,"5":0.34375327825546265,"6":0.006761100608855486,"7":0.35663464665412903,"8":-3.182572603225708,"9":-0.5455480813980103,"10":1.7600345611572266,"11":0.1568487137556076,"12":-1.8610129356384277,"13":-1.5809166431427002,"14":0.9485270380973816,"15":0.034046005457639694,"16":-0.2173401415348053,"17":-0.32543501257896423,"18":1.218665599822998,"19":0.5545914173126221,"20":-0.7927751541137695,"21":1.0013965368270874,"22":0.11435121297836304,"23":0.6520326137542725,"24":1.557061791419983,"25":-0.5348483324050903,"26":0.1143927276134491,"27":-0.2848171889781952,"28":1.8641389608383179,"29":0.3253687024116516,"30":-1.284407377243042,"31":-0.06321849673986435,"32":1.2859227657318115,"33":1.0424317121505737,"34":-0.6534296870231628,"35":0.09617555141448975,"36":0.04077807441353798,"37":0.16799478232860565,"38":-0.7252097725868225,"39":-0.3250467777252197,"40":-0.03040398843586445,"41":0.07873811572790146,"42":-0.11966777592897415,"43":0.17468783259391785,"44":0.08002980053424835,"45":-0.06445910781621933,"46":-0.09203208237886429,"47":-0.1438179761171341,"48":-0.21127848327159882,"49":0.08818768709897995,"50":0.027910098433494568,"51":-0.12465136498212814,"52":0.007709316443651915,"53":-0.018359988927841187,"54":-0.05973925441503525,"55":-0.19437941908836365,"56":0.11554954200983047,"57":0.13228242099285126,"58":0.004955679178237915,"59":-0.1378590315580368,"60":-0.2710734009742737,"61":0.3252212405204773,"62":0.21358896791934967,"63":-0.18264442682266235,"64":0.022973647341132164,"65":-0.34614673256874084,"66":0.23793694376945496,"67":-0.08677405118942261,"68":0.07669749855995178,"69":-0.12319949269294739,"70":-0.28662410378456116,"71":0.27438417077064514,"72":0.2538943886756897,"73":0.33246707916259766,"74":0.15366864204406738,"75":0.2807233929634094,"76":-0.23516499996185303,"77":-0.24449872970581055,"78":-0.21908286213874817,"79":0.08033903688192368,"80":-0.34812289476394653,"81":0.37142425775527954,"82":0.2017229050397873,"83":-0.10820291936397552,"84":0.06020748242735863,"85":-0.4444640576839447,"86":0.20726074278354645,"87":-0.15364378690719604,"88":0.2592795491218567,"89":-0.2466946691274643,"90":-0.38100072741508484,"91":0.23812657594680786,"92":0.3453599512577057,"93":0.42875856161117554,"94":0.21452941000461578,"95":0.24162864685058594,"96":-0.2617610991001129,"97":-0.2981582283973694,"98":-0.30918005108833313,"99":0.06301794946193695,"100":-0.31379178166389465,"101":0.2545660436153412,"102":0.20074354112148285,"103":-3.9012420177459717,"104":-3.7991907596588135,"105":0.19428429007530212,"106":0.11179578304290771,"107":1.9519932270050049,"108":7.118940830230713,"109":-0.9203841686248779,"110":0.13160371780395508,"111":0.14815855026245117,"112":-0.03537202998995781,"113":0.08636223524808884,"114":5.014671802520752,"115":0.059784721583127975,"116":-0.22686675190925598,"117":-0.1439673751592636,"118":-0.736889660358429,"119":0.6050313711166382,"120":-0.1208900585770607,"121":-0.0010364621412009,"122":-0.19222134351730347,"123":0.20404323935508728,"124":0.09803382307291031,"125":-0.11660019308328629,"126":-0.27031099796295166,"127":-0.18279561400413513,"128":0.08808893710374832,"129":0.2200281322002411,"130":0.05309780314564705,"131":-0.22850577533245087,"132":-0.15602293610572815,"133":-0.027059832587838173,"134":-0.2363390177488327,"135":-0.34502384066581726,"136":0.27991488575935364,"137":0.24587997794151306,"138":-0.07392039895057678,"139":-0.2398882955312729,"140":0.7550649046897888,"141":-0.939231812953949,"142":0.12579897046089172,"143":-0.4847544729709625,"144":-0.5177860856056213,"145":0.38022783398628235,"146":0.0763414204120636,"147":0.3191910684108734,"148":-0.34528979659080505,"149":-0.3301447629928589,"150":0.8858970403671265,"151":0.1719302535057068,"152":-0.891827404499054,"153":-0.8380665183067322,"154":0.4658282697200775,"155":0.17373275756835938,"156":-0.18555115163326263,"157":-0.24919715523719788,"158":0.3808384835720062,"159":0.27429625391960144,"160":7.937094688415527,"161":-5.044691562652588,"162":0.06671549379825592,"163":4.247401237487793,"164":7.910467624664307,"165":6.643151760101318,"166":0.05459468811750412,"167":2.1245980262756348,"168":-2.089921474456787,"169":3.895209789276123,"170":4.91987419128418,"171":-2.6893606185913086,"172":-5.603768825531006,"173":-5.339363098144531,"174":-5.444164752960205,"175":0.04531894996762276,"176":2.596668243408203,"177":2.961073637008667,"178":13.421645164489746,"179":-3.7726666927337646,"180":0.019455337896943092,"181":0.11051851511001587,"182":0.23906424641609192,"183":-0.1296561360359192,"184":-0.10704901069402695,"185":-0.02943599969148636,"186":0.20310381054878235,"187":0.03374156355857849,"188":-0.028902916237711906,"189":-0.17855395376682281,"190":0.04069981351494789,"191":0.25290000438690186,"192":0.13648401200771332,"193":0.11364242434501648,"194":0.10421580076217651,"195":0.2961321771144867,"196":-0.19703248143196106,"197":-0.19578881561756134,"198":0.05185921490192413,"199":0.04214617982506752,"200":0.32426273822784424,"201":-0.7974905371665955,"202":-0.04160816967487335,"203":-0.7589353919029236,"204":-1.6377406120300293,"205":0.31745803356170654,"206":-0.2095755934715271,"207":0.30656611919403076,"208":-0.5438942313194275,"209":-0.39676472544670105,"210":0.6157242655754089,"211":0.11830995231866837,"212":-0.6140232682228088,"213":-0.5575754642486572,"214":0.7562884092330933,"215":-0.0740387961268425,"216":-0.08648395538330078,"217":-0.1536930352449417,"218":0.40449851751327515,"219":0.44168996810913086,"220":-0.01627638377249241,"221":-0.109550841152668,"222":-0.30890220403671265,"223":0.20516528189182281,"224":0.18361514806747437,"225":-0.0637468621134758,"226":-0.30105432868003845,"227":-0.2365959882736206,"228":0.09962549060583115,"229":0.24896477162837982,"230":-0.07650945335626602,"231":-0.2856820225715637,"232":-0.13844233751296997,"233":-0.05868814140558243,"234":-0.17354945838451385,"235":-0.2283005565404892,"236":0.2614470422267914,"237":0.2704411447048187,"238":-0.2360389083623886,"239":-0.17175665497779846,"240":-0.4649539291858673,"241":0.8781448006629944,"242":0.03356540948152542,"243":0.8484503030776978,"244":1.8128561973571777,"245":-0.31755706667900085,"246":0.17487628757953644,"247":-0.3520209789276123,"248":0.3087356984615326,"249":0.4145476818084717,"250":-0.510097861289978,"251":-0.047026656568050385,"252":0.4120643734931946,"253":0.5386351943016052,"254":-0.6367772221565247,"255":0.09334924072027206,"256":0.14641503989696503,"257":0.15244217216968536,"258":-0.2084546536207199,"259":-0.4294639527797699,"260":-0.6325808167457581,"261":0.90981125831604,"262":-0.025218894705176353,"263":0.8840595483779907,"264":1.8103604316711426,"265":-0.35034504532814026,"266":0.09109329432249069,"267":-0.2844417989253998,"268":1.0242326259613037,"269":0.4070031940937042,"270":-0.8378638625144958,"271":-0.09653928875923157,"272":0.8607546091079712,"273":0.7472947835922241,"274":-0.7661371231079102,"275":0.07645191252231598,"276":0.1195949837565422,"277":0.20608161389827728,"278":-0.502629280090332,"279":-0.3914538323879242,"280":0.37314268946647644,"281":-0.37746119499206543,"282":-0.26768845319747925,"283":0.15254251658916473,"284":-0.05599389970302582,"285":0.4066006541252136,"286":-0.21820935606956482,"287":0.08728152513504028,"288":0.017374975606799126,"289":0.1618458330631256,"290":0.31628769636154175,"291":-0.24922141432762146,"292":-0.2579333782196045,"293":-0.30313125252723694,"294":-0.07117673754692078,"295":-0.20085838437080383,"296":0.2414315789937973,"297":0.20047695934772491,"298":0.3143239915370941,"299":-0.10813776403665543,"300":-0.06401324272155762,"301":-0.12857438623905182,"302":-0.292166143655777,"303":0.1356312781572342,"304":0.04296174272894859,"305":-0.019052395597100258,"306":-0.2820996642112732,"307":-0.15440692007541656,"308":-0.19071172177791595,"309":0.20065945386886597,"310":0.13705195486545563,"311":-0.2542942762374878,"312":-0.1503526121377945,"313":-0.08378217369318008,"314":-0.12396623194217682,"315":-0.3336128890514374,"316":0.2364228516817093,"317":0.19292986392974854,"318":0.012003852985799313,"319":-0.15469461679458618,"320":0.13485129177570343,"321":-0.09977729618549347,"322":0.1999632716178894,"323":-0.18891005218029022,"324":-0.13154658675193787,"325":0.13983282446861267,"326":0.19941768050193787,"327":0.19388407468795776,"328":-0.12395358085632324,"329":-0.16935573518276215,"330":0.08838751912117004,"331":0.1987234205007553,"332":0.01839790679514408,"333":-0.09219546616077423,"334":0.08324181288480759,"335":0.2047593891620636,"336":-0.16351918876171112,"337":-0.21035778522491455,"338":0.13854433596134186,"339":0.09175878763198853,"340":0.0701400488615036,"341":0.07190518081188202,"342":0.24562311172485352,"343":-0.15805742144584656,"344":-0.14573879539966583,"345":0.08154710382223129,"346":0.24411195516586304,"347":0.16116681694984436,"348":-0.07509831339120865,"349":-0.25145772099494934,"350":0.08433359116315842,"351":0.24431079626083374,"352":0.07664508372545242,"353":-0.0690620020031929,"354":0.1825617104768753,"355":0.29909637570381165,"356":-0.27310553193092346,"357":-0.2239954024553299,"358":0.2160223424434662,"359":0.08997388184070587,"360":-3.061434030532837,"361":2.4124159812927246,"362":-0.07351656258106232,"363":0.798405647277832,"364":10.650322914123535,"365":0.5130268931388855,"366":-0.13224948942661285,"367":0.14727553725242615,"368":5.819502830505371,"369":0.4644644260406494,"370":-3.0160655975341797,"371":-0.12146752327680588,"372":3.3016977310180664,"373":2.8484721183776855,"374":-1.8698441982269287,"375":-0.09992071986198425,"376":0.010156191885471344,"377":0.17508448660373688,"378":-0.830656886100769,"379":0.3367409408092499,"380":0.09069489687681198,"381":-0.15913262963294983,"382":-0.16128115355968475,"383":0.18053196370601654,"384":0.06246945634484291,"385":0.19848717749118805,"386":-0.2492133378982544,"387":0.007532828953117132,"388":0.08042944222688675,"389":0.09814348071813583,"390":0.08950544893741608,"391":-0.18450920283794403,"392":-0.133759006857872,"393":-0.21216192841529846,"394":-0.10806915909051895,"395":-0.25427377223968506,"396":0.15716274082660675,"397":0.21606725454330444,"398":0.08420374989509583,"399":-0.043305814266204834}},"cellActivationBias":{"rows":20,"columns":1,"weights":{"0":1.0257004499435425,"1":0.1687401831150055,"2":-0.22561904788017273,"3":2.404496908187866,"4":3.22196888923645,"5":-0.2143232524394989,"6":0.08057788759469986,"7":-1.3152146339416504,"8":6.824318885803223,"9":2.1552622318267822,"10":-0.8175418972969055,"11":-1.831788420677185,"12":0.37213757634162903,"13":0.2752664387226105,"14":-2.3222405910491943,"15":0.00139182701241225,"16":1.5662440061569214,"17":1.9351729154586792,"18":2.919001340866089,"19":-2.054309129714966}}}],"outputConnector":{"rows":1,"columns":20,"weights":{"0":-0.6094210147857666,"1":0.8667311072349548,"2":-0.00046576341264881194,"3":0.05790328606963158,"4":0.07282754778862,"5":0.762356698513031,"6":-0.003001522971317172,"7":-2.095341682434082,"8":2.119866132736206,"9":0.12645836174488068,"10":-0.6423558592796326,"11":-0.033314865082502365,"12":0.47799691557884216,"13":0.712445080280304,"14":-0.617881178855896,"15":-0.0011576799442991614,"16":0.03284674137830734,"17":0.03622711822390556,"18":-0.0018337590154260397,"19":-0.26938262581825256}},"output":{"rows":1,"columns":1,"weights":{"0":1.3719959259033203}},"inputLookup":null,"inputLookupLength":null,"outputLookup":null,"outputLookupLength":null}