{"type":"LSTMTimeStep","options":{"inputSize":1,"hiddenLayers":[20],"outputSize":1,"decayRate":0.999,"smoothEps":1e-8,"regc":0.000001,"clipval":5},"hiddenLayers":[{"inputMatrix":{"rows":20,"columns":1,"weights":{"0":-1.4338650703430176,"1":4.278015613555908,"2":-1.9703601598739624,"3":-2.985872983932495,"4":-2.5014631748199463,"5":1.3654518127441406,"6":5.359419345855713,"7":4.022405624389648,"8":-2.3813769817352295,"9":4.386570453643799,"10":0.899040162563324,"11":-3.014247179031372,"12":0.5969270467758179,"13":2.1984779834747314,"14":-2.020263671875,"15":-1.6849377155303955,"16":-2.0213823318481445,"17":-2.9239144325256348,"18":-1.5983694791793823,"19":-2.9561643600463867}},"inputHidden":{"rows":20,"columns":20,"weights":{"0":-3.230698347091675,"1":3.6080572605133057,"2":-6.887236595153809,"3":-8.846439361572266,"4":-4.772033214569092,"5":-5.325061321258545,"6":5.249288082122803,"7":-1.2393097877502441,"8":2.1948931217193604,"9":-1.0038541555404663,"10":0.5500361919403076,"11":-9.445208549499512,"12":-7.76303768157959,"13":1.3785288333892822,"14":-2.835808038711548,"15":-10.200423240661621,"16":-6.2037353515625,"17":7.005798816680908,"18":-1.40812349319458,"19":-8.477615356445312,"20":-0.997673511505127,"21":-0.03102332539856434,"22":-1.4921303987503052,"23":-1.4313210248947144,"24":-1.1928187608718872,"25":-2.1598470211029053,"26":1.381523609161377,"27":0.7782266139984131,"28":0.4423154890537262,"29":0.6784797310829163,"30":-0.699881911277771,"31":-1.2543213367462158,"32":-0.5495866537094116,"33":0.8090779781341553,"34":-0.8124827742576599,"35":-1.8153201341629028,"36":-0.8034170866012573,"37":1.3136191368103027,"38":-0.6383453011512756,"39":-1.3982810974121094,"40":-0.3761974275112152,"41":-0.4948832094669342,"42":0.08069948852062225,"43":0.19185467064380646,"44":0.4454781115055084,"45":-0.7313156723976135,"46":-0.4562560021877289,"47":-0.31480950117111206,"48":0.35182827711105347,"49":-0.27792277932167053,"50":0.2003798484802246,"51":0.1682785153388977,"52":-1.4576202630996704,"53":-0.21109478175640106,"54":0.3022472858428955,"55":-4.038890838623047,"56":-0.09877656400203705,"57":-0.4646230638027191,"58":0.3079748749732971,"59":0.37562111020088196,"60":0.19344183802604675,"61":-2.0015623569488525,"62":0.30140915513038635,"63":0.3741465210914612,"64":0.686774730682373,"65":0.25286227464675903,"66":-1.6655107736587524,"67":0.8582886457443237,"68":-0.2261352837085724,"69":0.9059946537017822,"70":-0.9654401540756226,"71":0.3434765636920929,"72":-1.8037585020065308,"73":0.19735299050807953,"74":0.5308459997177124,"75":-4.508409023284912,"76":-0.0737949088215828,"77":-0.5378167629241943,"78":0.43100133538246155,"79":0.5117232799530029,"80":0.46548521518707275,"81":-1.4049378633499146,"82":1.1547503471374512,"83":1.1616742610931396,"84":0.8083339929580688,"85":0.5189880132675171,"86":-1.7311320304870605,"87":0.3469405472278595,"88":0.003234938718378544,"89":0.29246607422828674,"90":-0.3924904763698578,"91":1.1107789278030396,"92":-1.4479533433914185,"93":0.12176889181137085,"94":0.6285949349403381,"95":-2.8237709999084473,"96":0.854855477809906,"97":-1.0536688566207886,"98":0.44722267985343933,"99":1.127269983291626,"100":-7.572881698608398,"101":10.91353702545166,"102":-11.304282188415527,"103":-16.28652000427246,"104":-9.32089900970459,"105":-10.098576545715332,"106":12.634608268737793,"107":-1.887279748916626,"108":3.88920259475708,"109":-1.8824454545974731,"110":1.3428305387496948,"111":-17.897287368774414,"112":-2.578897714614868,"113":0.09008751064538956,"114":-6.430185794830322,"115":-10.870279312133789,"116":-9.380352020263672,"117":13.38129997253418,"118":-4.691514492034912,"119":-15.552543640136719,"120":-0.9017293453216553,"121":0.2297062873840332,"122":-0.812047004699707,"123":-0.7820077538490295,"124":-0.5672897100448608,"125":-1.9770461320877075,"126":1.5913110971450806,"127":0.23073789477348328,"128":0.2014155238866806,"129":0.13356783986091614,"130":0.12281777709722519,"131":-0.700325071811676,"132":0.46186164021492004,"133":0.1258760690689087,"134":-0.4748411178588867,"135":-1.5865780115127563,"136":-0.1886419802904129,"137":0.7534229159355164,"138":-0.46426844596862793,"139":-0.6793625950813293,"140":-2.1158125400543213,"141":-7.943735599517822,"142":-5.826100826263428,"143":-5.574694633483887,"144":-3.2957603931427,"145":-3.7371866703033447,"146":-7.570455074310303,"147":5.080745220184326,"148":0.9398866295814514,"149":4.973723888397217,"150":-5.08093786239624,"151":-5.617071628570557,"152":-7.772546291351318,"153":4.117086887359619,"154":-2.0696089267730713,"155":-10.723077774047852,"156":-5.855975151062012,"157":4.576172351837158,"158":-1.6364120244979858,"159":-5.112880706787109,"160":0.27607640624046326,"161":0.49487894773483276,"162":0.3277905285358429,"163":0.23305054008960724,"164":0.2399180382490158,"165":0.19900166988372803,"166":0.5941110849380493,"167":-0.4059743285179138,"168":0.12105714529752731,"169":-0.45630714297294617,"170":0.45843613147735596,"171":0.2433648407459259,"172":-0.17295770347118378,"173":-0.5362103581428528,"174":0.2125329226255417,"175":-0.24728240072727203,"176":0.26803675293922424,"177":-0.134957417845726,"178":0.18667389452457428,"179":0.11579389870166779,"180":-2.008493185043335,"181":-7.950929164886475,"182":-5.882479190826416,"183":-5.488964080810547,"184":-3.2546586990356445,"185":-3.7731800079345703,"186":-7.623530387878418,"187":5.193669319152832,"188":0.9355926513671875,"189":5.131871223449707,"190":-5.190950870513916,"191":-5.649860858917236,"192":-7.669083595275879,"193":4.098597526550293,"194":-2.1189146041870117,"195":-10.66866397857666,"196":-5.797499179840088,"197":4.565672874450684,"198":-1.6994935274124146,"199":-5.1436052322387695,"200":-2.0976827144622803,"201":-3.964905023574829,"202":-5.51455545425415,"203":-4.733549118041992,"204":-3.329604148864746,"205":-3.982757329940796,"206":-4.415443420410156,"207":4.545424461364746,"208":0.954812228679657,"209":4.457728385925293,"210":-4.501121520996094,"211":-4.5138020515441895,"212":-7.187473773956299,"213":4.09419584274292,"214":-2.186830997467041,"215":-6.8801655769348145,"216":-5.375237464904785,"217":4.4063262939453125,"218":-1.6470913887023926,"219":-4.576684951782227,"220":0.5171240568161011,"221":-2.3196284770965576,"222":0.5218179821968079,"223":0.4887441396713257,"224":0.7572721242904663,"225":0.6814185976982117,"226":-1.9953502416610718,"227":1.0813699960708618,"228":-0.18904714286327362,"229":1.0709335803985596,"230":-1.1104031801223755,"231":0.5618765950202942,"232":-1.1667747497558594,"233":0.5086640119552612,"234":0.6679988503456116,"235":-3.9089369773864746,"236":0.026853643357753754,"237":-0.7200674414634705,"238":0.5282794833183289,"239":0.6217496991157532,"240":3.3220229148864746,"241":-0.5044102072715759,"242":3.7500109672546387,"243":2.8522281646728516,"244":2.396591901779175,"245":-0.6390236020088196,"246":-1.012921690940857,"247":2.1580276489257812,"248":-0.4472498893737793,"249":2.0710856914520264,"250":-1.4501738548278809,"251":2.385300397872925,"252":-0.886405885219574,"253":-0.23050588369369507,"254":1.905855655670166,"255":0.9583835005760193,"256":3.5103681087493896,"257":-2.783942699432373,"258":1.7013182640075684,"259":2.6647422313690186,"260":-0.39554792642593384,"261":-0.044568244367837906,"262":-0.3796389400959015,"263":0.16683101654052734,"264":-0.08156177401542664,"265":-4.931580543518066,"266":0.1498309224843979,"267":0.13427087664604187,"268":-0.17489810287952423,"269":0.05165047571063042,"270":0.1691981703042984,"271":0.49245715141296387,"272":-0.7921640872955322,"273":0.37874385714530945,"274":0.08048036694526672,"275":1.4551628828048706,"276":0.03352777659893036,"277":0.017331242561340332,"278":0.1464766263961792,"279":0.14222951233386993,"280":0.3328879475593567,"281":-0.7977723479270935,"282":0.7898054122924805,"283":0.7906289100646973,"284":0.6408794522285461,"285":0.41652682423591614,"286":-1.221909761428833,"287":-0.13922768831253052,"288":0.263483464717865,"289":-0.22091732919216156,"290":0.06526356190443039,"291":0.8173980116844177,"292":-1.6331795454025269,"293":0.08615392446517944,"294":0.39554810523986816,"295":-2.77085018157959,"296":0.6104418039321899,"297":-0.8082515001296997,"298":0.44736433029174805,"299":0.8141361474990845,"300":13.783185958862305,"301":3.961951494216919,"302":8.549698829650879,"303":8.659882545471191,"304":4.041243553161621,"305":0.10446532815694809,"306":4.347182750701904,"307":2.589014768600464,"308":-1.345096468925476,"309":2.4516754150390625,"310":-2.5516929626464844,"311":9.162829399108887,"312":4.3997626304626465,"313":-2.7862274646759033,"314":2.8676178455352783,"315":9.359932899475098,"316":7.707231044769287,"317":-6.033515453338623,"318":2.495140790939331,"319":7.582810878753662,"320":0.29810574650764465,"321":-1.1411463022232056,"322":0.8974888920783997,"323":0.9810448884963989,"324":0.8975512981414795,"325":0.29801321029663086,"326":-0.993996262550354,"327":0.2802143394947052,"328":-0.18288999795913696,"329":0.3091830313205719,"330":-0.24968616664409637,"331":0.971540629863739,"332":-1.3012983798980713,"333":-0.2585928440093994,"334":0.723734974861145,"335":-3.5652356147766113,"336":0.47507479786872864,"337":-1.0363777875900269,"338":0.5782681107521057,"339":1.0301893949508667,"340":0.3333260416984558,"341":-2.0334901809692383,"342":0.9967677593231201,"343":1.1069775819778442,"344":1.016895055770874,"345":0.4849828779697418,"346":-1.9610347747802734,"347":0.6172155737876892,"348":-0.15504190325737,"349":0.6187744140625,"350":-0.6801454424858093,"351":1.007495403289795,"352":-1.3849436044692993,"353":0.07530505210161209,"354":0.6794893145561218,"355":-3.235103130340576,"356":0.5221400260925293,"357":-1.1619073152542114,"358":0.6829674243927002,"359":1.159778356552124,"360":0.15750786662101746,"361":0.23150783777236938,"362":0.5922839045524597,"363":0.46291783452033997,"364":0.4425121247768402,"365":0.20063921809196472,"366":-0.1512538492679596,"367":-0.3696672320365906,"368":0.2605316936969757,"369":-0.3777278959751129,"370":0.4610430896282196,"371":0.5022008419036865,"372":-0.7166404724121094,"373":-0.27452951669692993,"374":0.3110021948814392,"375":-1.484354019165039,"376":0.4341759979724884,"377":-0.466932475566864,"378":0.2030227780342102,"379":0.5546149015426636,"380":0.3374193012714386,"381":-2.214691162109375,"382":0.7116471529006958,"383":0.6572118997573853,"384":0.8922504186630249,"385":0.5745015144348145,"386":-2.0195744037628174,"387":1.022310495376587,"388":-0.2615562081336975,"389":1.0144203901290894,"390":-1.0065538883209229,"391":0.7646015882492065,"392":-1.2901484966278076,"393":0.35887494683265686,"394":0.6213477849960327,"395":-3.545569896697998,"396":0.20050182938575745,"397":-0.8379071950912476,"398":0.5934517979621887,"399":0.7846966981887817}},"inputBias":{"rows":20,"columns":1,"weights":{"0":-4.148763656616211,"1":-9.119378089904785,"2":-2.1341166496276855,"3":-1.579094409942627,"4":-2.45701003074646,"5":-7.181241989135742,"6":-9.642749786376953,"7":-12.814240455627441,"8":-1.8156623840332031,"9":-13.553279876708984,"10":-6.4693217277526855,"11":-1.1572484970092773,"12":-2.2332446575164795,"13":-5.480532646179199,"14":-2.7766709327697754,"15":7.728127956390381,"16":-2.1578071117401123,"17":-1.9880938529968262,"18":-2.012838125228882,"19":-1.6061961650848389}},"forgetMatrix":{"rows":20,"columns":1,"weights":{"0":0.682717502117157,"1":-1.051234245300293,"2":-1.9451098442077637,"3":-0.6719387173652649,"4":-0.9840548634529114,"5":1.4852830171585083,"6":-1.2220410108566284,"7":1.8585551977157593,"8":-0.5771031975746155,"9":1.8190072774887085,"10":1.8520258665084839,"11":-0.7053977847099304,"12":-1.238012433052063,"13":0.1826062947511673,"14":-0.6516314148902893,"15":-3.1104583740234375,"16":-1.629421353340149,"17":-1.2530364990234375,"18":-0.7153182625770569,"19":-0.5966857075691223}},"forgetHidden":{"rows":20,"columns":20,"weights":{"0":-0.5860019326210022,"1":-0.9004440903663635,"2":-0.7636602520942688,"3":-0.7815852761268616,"4":-0.5897822380065918,"5":-0.6802250742912292,"6":-0.9449389576911926,"7":0.6052376627922058,"8":0.1740085929632187,"9":0.6912700533866882,"10":-0.7211238741874695,"11":-0.6808656454086304,"12":-0.1827622503042221,"13":0.9595327973365784,"14":-0.3712446689605713,"15":-1.4229151010513306,"16":-0.7593976855278015,"17":0.6641417741775513,"18":-0.11437864601612091,"19":-0.6661478877067566,"20":-0.14642435312271118,"21":0.3763951361179352,"22":-0.33576515316963196,"23":-0.12874121963977814,"24":-0.2674556076526642,"25":-1.2284413576126099,"26":0.9678348898887634,"27":0.013054353184998035,"28":-0.18948456645011902,"29":-0.128464475274086,"30":0.13726834952831268,"31":0.01917250081896782,"32":-0.15153460204601288,"33":0.16184672713279724,"34":-0.13827674090862274,"35":1.624189019203186,"36":0.19031159579753876,"37":0.2538357675075531,"38":-0.15606766939163208,"39":-0.14594581723213196,"40":-0.2027982473373413,"41":-0.05863957852125168,"42":0.07711552083492279,"43":0.14369012415409088,"44":0.01578381657600403,"45":-0.2281014621257782,"46":-0.1366802603006363,"47":0.16304437816143036,"48":-0.02687743306159973,"49":0.13716064393520355,"50":-0.1251574009656906,"51":0.13275690376758575,"52":0.23728203773498535,"53":0.05673406273126602,"54":-0.08991611748933792,"55":0.5321267247200012,"56":0.2049267441034317,"57":-0.006137054413557053,"58":-0.029196444898843765,"59":0.056516923010349274,"60":-0.0017513713100925088,"61":-0.19470547139644623,"62":0.7085801362991333,"63":0.6847288608551025,"64":0.3015839755535126,"65":0.1049375906586647,"66":-0.414036363363266,"67":0.17223359644412994,"68":-0.17222820222377777,"69":0.10874790698289871,"70":-0.12592604756355286,"71":0.6350960731506348,"72":0.44696128368377686,"73":-0.010919852182269096,"74":0.14379088580608368,"75":0.6719695329666138,"76":0.824734628200531,"77":-0.4872232675552368,"78":0.03759405389428139,"79":0.5524672865867615,"80":0.05767347291111946,"81":0.33392006158828735,"82":0.2814793288707733,"83":0.18982388079166412,"84":0.2523191571235657,"85":0.07493376731872559,"86":0.27506330609321594,"87":-0.1961756944656372,"88":0.09640185534954071,"89":-0.22421619296073914,"90":0.25252586603164673,"91":0.2562233507633209,"92":0.04908543452620506,"93":-0.2849280834197998,"94":0.11570890992879868,"95":0.18043000996112823,"96":0.37060317397117615,"97":-0.21174173057079315,"98":0.0845247432589531,"99":0.3026009500026703,"100":-1.0063855648040771,"101":-1.2669624090194702,"102":-1.1432466506958008,"103":-0.9967957139015198,"104":-0.7679941058158875,"105":-1.1626652479171753,"106":-1.0819778442382812,"107":0.9819374680519104,"108":0.2698815166950226,"109":1.0027143955230713,"110":-1.1179497241973877,"111":-0.9397461414337158,"112":-0.06327560544013977,"113":1.1742466688156128,"114":-0.6963735222816467,"115":-1.6886351108551025,"116":-1.0625698566436768,"117":0.9841444492340088,"118":-0.21824082732200623,"119":-1.0350083112716675,"120":-0.41568872332572937,"121":0.3414967358112335,"122":0.12452622503042221,"123":0.11405476182699203,"124":0.13309001922607422,"125":-1.5718048810958862,"126":0.505795955657959,"127":0.35858041048049927,"128":-0.3191450238227844,"129":0.341331422328949,"130":-0.1090991273522377,"131":0.29818421602249146,"132":0.9407990574836731,"133":-0.4238801598548889,"134":0.013274533674120903,"135":2.322901964187622,"136":0.5597396492958069,"137":-0.09406880289316177,"138":0.02337460406124592,"139":0.21882806718349457,"140":-0.4728110730648041,"141":0.28971654176712036,"142":-0.39690181612968445,"143":-0.23216968774795532,"144":-0.4168340861797333,"145":-1.7677760124206543,"146":-0.7929943799972534,"147":-1.9868786334991455,"148":-0.12480104714632034,"149":-2.103604555130005,"150":2.096233367919922,"151":-0.0250235628336668,"152":-0.8460761904716492,"153":0.6105150580406189,"154":-0.4060599207878113,"155":0.5305330753326416,"156":0.03834192454814911,"157":0.3644586503505707,"158":-0.25972914695739746,"159":-0.2710091769695282,"160":0.021702785044908524,"161":0.3715052306652069,"162":0.12428489327430725,"163":0.03494035452604294,"164":0.04619608819484711,"165":0.09376269578933716,"166":0.31985118985176086,"167":-0.31469327211380005,"168":0.061244986951351166,"169":-0.2683740556240082,"170":0.3499402403831482,"171":0.08918682485818863,"172":-0.11889073252677917,"173":-0.2844925820827484,"174":0.15350809693336487,"175":-0.04382648319005966,"176":-0.013710870407521725,"177":-0.09431415051221848,"178":0.11508827656507492,"179":0.012575252912938595,"180":-0.44258564710617065,"181":0.28281310200691223,"182":-0.4102008044719696,"183":-0.3101767301559448,"184":-0.46701914072036743,"185":-1.6221944093704224,"186":-0.7182078957557678,"187":-1.9777013063430786,"188":-0.11397819221019745,"189":-2.0112979412078857,"190":2.0444161891937256,"191":-0.08453832566738129,"192":-0.8716078996658325,"193":0.6193615198135376,"194":-0.3997243344783783,"195":0.5427140593528748,"196":0.1031976118683815,"197":0.4364343583583832,"198":-0.28188085556030273,"199":-0.24011996388435364,"200":-0.35068318247795105,"201":0.14680075645446777,"202":-0.44380468130111694,"203":-0.2704159915447235,"204":-0.47097817063331604,"205":-1.453122615814209,"206":-0.729206919670105,"207":-1.8974636793136597,"208":-0.02267727628350258,"209":-1.9252479076385498,"210":2.0036087036132812,"211":-0.2070799618959427,"212":-0.9743686318397522,"213":0.6049615144729614,"214":-0.38113337755203247,"215":0.15717025101184845,"216":0.02117103338241577,"217":0.37682032585144043,"218":-0.24013136327266693,"219":-0.2803652584552765,"220":0.13911959528923035,"221":0.13468176126480103,"222":0.6270978450775146,"223":0.672192394733429,"224":0.29034289717674255,"225":0.19635498523712158,"226":-0.04877188429236412,"227":-0.1032981276512146,"228":-0.04338628053665161,"229":-0.13148945569992065,"230":0.22604018449783325,"231":0.6257422566413879,"232":0.4124062955379486,"233":-0.3143403232097626,"234":0.16791339218616486,"235":0.6592386364936829,"236":0.8116955757141113,"237":-0.5311939716339111,"238":0.17155350744724274,"239":0.5723174810409546,"240":0.18471759557724,"241":1.3753175735473633,"242":0.11193335056304932,"243":0.17976748943328857,"244":0.18832911550998688,"245":0.08647938817739487,"246":1.2904456853866577,"247":-1.1082788705825806,"248":0.007194405421614647,"249":-1.0722774267196655,"250":1.1047357320785522,"251":0.13129429519176483,"252":-0.35248902440071106,"253":-0.9911378026008606,"254":0.1617279052734375,"255":0.5737730264663696,"256":0.24059689044952393,"257":-0.0989326536655426,"258":0.12790633738040924,"259":0.15578553080558777,"260":0.1599464863538742,"261":0.3132844865322113,"262":0.6042677164077759,"263":0.6522963643074036,"264":0.5487181544303894,"265":-1.0423911809921265,"266":0.530232310295105,"267":0.9369832277297974,"268":-0.6143385767936707,"269":0.7764879465103149,"270":-0.5315885543823242,"271":0.6498439908027649,"272":0.9427880048751831,"273":-0.5830099582672119,"274":0.5156895518302917,"275":2.2550206184387207,"276":1.0766241550445557,"277":-0.5632067322731018,"278":0.47257840633392334,"279":0.6526841521263123,"280":0.14070500433444977,"281":0.20062464475631714,"282":0.23628056049346924,"283":0.13068945705890656,"284":0.19345854222774506,"285":0.1339132934808731,"286":0.22352881729602814,"287":-0.24070806801319122,"288":0.10280187427997589,"289":-0.30069687962532043,"290":0.23289819061756134,"291":0.07738825678825378,"292":-0.1133284717798233,"293":-0.24383299052715302,"294":0.09364458918571472,"295":-0.07135798782110214,"296":0.1274726837873459,"297":-0.13246780633926392,"298":0.10529770702123642,"299":0.117695152759552,"300":-0.008004584349691868,"301":1.9100284576416016,"302":0.04218525439500809,"303":0.019710944965481758,"304":0.037682414054870605,"305":-0.05088270828127861,"306":2.0640201568603516,"307":-0.9732086062431335,"308":0.05687972158193588,"309":-1.0825468301773071,"310":1.1151456832885742,"311":0.09554025530815125,"312":0.45107215642929077,"313":-1.3491724729537964,"314":0.045356616377830505,"315":1.0194340944290161,"316":0.18469096720218658,"317":0.02793966978788376,"318":0.07918809354305267,"319":0.08039141446352005,"320":-0.06173478066921234,"321":-0.03353095427155495,"322":0.24844571948051453,"323":0.25283360481262207,"324":0.14825809001922607,"325":-0.06236113980412483,"326":-0.23692160844802856,"327":0.04958502575755119,"328":-0.008695677854120731,"329":0.11529035121202469,"330":-0.05762925744056702,"331":0.3502086102962494,"332":0.2333918958902359,"333":-0.09767361730337143,"334":0.033335182815790176,"335":0.7009065747261047,"336":0.4129200577735901,"337":-0.16779784858226776,"338":0.10360945761203766,"339":0.24885708093643188,"340":0.06299715489149094,"341":0.09052881598472595,"342":0.3794874846935272,"343":0.4239848256111145,"344":0.1380566507577896,"345":0.0899726003408432,"346":-0.0513773076236248,"347":0.08248374611139297,"348":-0.06387913227081299,"349":0.034705813974142075,"350":0.12074990570545197,"351":0.3983622193336487,"352":0.12748198211193085,"353":-0.16041184961795807,"354":0.033479321748018265,"355":0.7330923676490784,"356":0.43727046251296997,"357":-0.29883405566215515,"358":0.1538671851158142,"359":0.3079545199871063,"360":0.04875439405441284,"361":0.2077108472585678,"362":0.09471525251865387,"363":0.0061930278316140175,"364":0.1262737512588501,"365":0.01357313897460699,"366":0.24340206384658813,"367":-0.11533895134925842,"368":-0.010937093757092953,"369":-0.16176936030387878,"370":0.10630697757005692,"371":0.10376732051372528,"372":-0.009109082631766796,"373":-0.211308091878891,"374":0.11158428341150284,"375":0.019691577181220055,"376":0.1433297097682953,"377":-0.0836208239197731,"378":-0.031629715114831924,"379":0.10139797627925873,"380":0.07789389044046402,"381":-0.17229746282100677,"382":0.7754979133605957,"383":0.6183848977088928,"384":0.3000812828540802,"385":0.23734799027442932,"386":-0.4247937798500061,"387":-0.002730576554313302,"388":-0.1838272660970688,"389":-0.007977967150509357,"390":0.05163243040442467,"391":0.7378459572792053,"392":0.2922137975692749,"393":-0.1551131010055542,"394":0.19111265242099762,"395":0.5650519132614136,"396":0.8892144560813904,"397":-0.5589171648025513,"398":0.08470123261213303,"399":0.5492698550224304}},"forgetBias":{"rows":20,"columns":1,"weights":{"0":0,"1":0,"2":0,"3":0,"4":0,"5":0,"6":0,"7":0,"8":0,"9":0,"10":0,"11":0,"12":0,"13":0,"14":0,"15":0,"16":0,"17":0,"18":0,"19":0}},"outputMatrix":{"rows":20,"columns":1,"weights":{"0":-1.4670007228851318,"1":-2.387793779373169,"2":-2.5860748291015625,"3":-3.1507537364959717,"4":-2.3971307277679443,"5":1.403861165046692,"6":-2.773189067840576,"7":4.367307186126709,"8":-2.3206329345703125,"9":4.716169357299805,"10":4.51432991027832,"11":-3.683645725250244,"12":-1.5976743698120117,"13":-0.17822612822055817,"14":-1.9648767709732056,"15":2.1950807571411133,"16":-2.4624218940734863,"17":-2.7969086170196533,"18":-1.5743871927261353,"19":-3.2256314754486084}},"outputHidden":{"rows":20,"columns":20,"weights":{"0":-1.692246675491333,"1":4.060057640075684,"2":-6.705225944519043,"3":-9.043729782104492,"4":-4.862844944000244,"5":-2.4485223293304443,"6":5.268967628479004,"7":-1.6258333921432495,"8":2.3905954360961914,"9":-1.5065103769302368,"10":1.103494644165039,"11":-9.841992378234863,"12":-7.844032287597656,"13":1.3672609329223633,"14":-2.9128575325012207,"15":-10.414204597473145,"16":-6.527605056762695,"17":7.288764953613281,"18":-1.5495679378509521,"19":-8.732827186584473,"20":0.18017463386058807,"21":2.8184120655059814,"22":-0.009231801144778728,"23":0.3187236785888672,"24":-0.9013196229934692,"25":-0.43522724509239197,"26":3.245100975036621,"27":-2.757974624633789,"28":0.3418854773044586,"29":-2.710737466812134,"30":2.5226058959960938,"31":0.5165299773216248,"32":1.6963527202606201,"33":0.5740194916725159,"34":-0.7424336075782776,"35":2.7791526317596436,"36":0.8403705358505249,"37":0.2882123291492462,"38":-0.4820592403411865,"39":0.08108828216791153,"40":-0.233464777469635,"41":-0.5290314555168152,"42":0.28782668709754944,"43":0.3001750111579895,"44":0.8261374235153198,"45":-0.45487546920776367,"46":-0.5123202204704285,"47":-0.23021924495697021,"48":0.07044994831085205,"49":-0.31500688195228577,"50":0.31376394629478455,"51":0.22420768439769745,"52":-1.5538835525512695,"53":-0.36528006196022034,"54":0.6736782789230347,"55":-4.128734111785889,"56":0.14685846865177155,"57":-0.6871073842048645,"58":0.4902058243751526,"59":0.39190390706062317,"60":0.17124979197978973,"61":-1.196096658706665,"62":0.9875916242599487,"63":0.9412268400192261,"64":1.3226276636123657,"65":0.5118108987808228,"66":-1.3110493421554565,"67":0.6409780383110046,"68":-0.6155010461807251,"69":0.5527693629264832,"70":-0.45245984196662903,"71":0.9325689077377319,"72":-1.2682439088821411,"73":-0.32992610335350037,"74":0.9667364954948425,"75":-3.6521973609924316,"76":0.7094239592552185,"77":-1.1451362371444702,"78":0.8111915588378906,"79":1.0067332983016968,"80":0.36093762516975403,"81":-1.4115296602249146,"82":1.220030665397644,"83":1.2608901262283325,"84":0.9123504757881165,"85":0.48122864961624146,"86":-1.8068090677261353,"87":0.22815270721912384,"88":0.019856249913573265,"89":0.34089988470077515,"90":-0.2688847780227661,"91":1.2338624000549316,"92":-1.5153210163116455,"93":0.15911714732646942,"94":0.609290361404419,"95":-2.81512188911438,"96":0.8631420135498047,"97":-1.132386565208435,"98":0.5273174047470093,"99":1.1284112930297852,"100":-2.2202539443969727,"101":11.338753700256348,"102":-9.259190559387207,"103":-15.7954740524292,"104":-10.227058410644531,"105":-1.2628434896469116,"106":12.794102668762207,"107":-2.8673136234283447,"108":4.8807291984558105,"109":-2.742055654525757,"110":2.2033050060272217,"111":-18.120813369750977,"112":-2.307999849319458,"113":0.05957230553030968,"114":-7.051936626434326,"115":-11.77002239227295,"116":-9.212668418884277,"117":13.814205169677734,"118":-5.348668098449707,"119":-15.921597480773926,"120":-0.32492849230766296,"121":2.0031661987304688,"122":2.251725196838379,"123":2.0413010120391846,"124":0.6439940929412842,"125":-1.0641846656799316,"126":3.667816162109375,"127":-0.47544148564338684,"128":-0.3238188624382019,"129":-0.4948980212211609,"130":0.6939413547515869,"131":2.484825372695923,"132":3.4849939346313477,"133":-0.8113419413566589,"134":0.23787091672420502,"135":4.0732622146606445,"136":2.898005723953247,"137":-1.5267269611358643,"138":0.2298513799905777,"139":1.9586999416351318,"140":-1.568015456199646,"141":-4.818326950073242,"142":-5.066175937652588,"143":-4.869533538818359,"144":-2.7618534564971924,"145":-3.561689615249634,"146":-5.065580368041992,"147":5.051284313201904,"148":0.7135570049285889,"149":4.96047306060791,"150":-5.155447006225586,"151":-5.010152339935303,"152":-6.720065116882324,"153":3.499654769897461,"154":-1.7133691310882568,"155":-10.629664421081543,"156":-4.995722770690918,"157":3.8683104515075684,"158":-1.3269239664077759,"159":-4.432511806488037,"160":0.1850578635931015,"161":0.5045256614685059,"162":0.2697133421897888,"163":0.21277259290218353,"164":0.17290829122066498,"165":0.2153290957212448,"166":0.5765023231506348,"167":-0.3653266429901123,"168":0.17885546386241913,"169":-0.44738608598709106,"170":0.4663396179676056,"171":0.15657491981983185,"172":-0.28762805461883545,"173":-0.6018168926239014,"174":0.26244258880615234,"175":-0.2511436939239502,"176":0.2390207052230835,"177":-0.2397543489933014,"178":0.20001599192619324,"179":0.18229207396507263,"180":-1.5119692087173462,"181":-4.589156150817871,"182":-4.944591045379639,"183":-4.6931586265563965,"184":-2.727449417114258,"185":-3.434720754623413,"186":-4.992840766906738,"187":5.070700645446777,"188":0.6729745268821716,"189":5.106606960296631,"190":-5.160580158233643,"191":-5.051199913024902,"192":-6.650887966156006,"193":3.3825900554656982,"194":-1.731795072555542,"195":-10.41466999053955,"196":-4.809428691864014,"197":3.8848416805267334,"198":-1.2432204484939575,"199":-4.360210418701172,"200":-1.251004934310913,"201":-3.126868486404419,"202":-4.31020450592041,"203":-4.030591011047363,"204":-2.3738090991973877,"205":-3.3667590618133545,"206":-3.5169777870178223,"207":3.320456027984619,"208":0.5729571580886841,"209":3.3287549018859863,"210":-3.3856256008148193,"211":-4.282400608062744,"212":-6.031561374664307,"213":3.1644692420959473,"214":-1.4332659244537354,"215":-5.946847915649414,"216":-4.0065741539001465,"217":3.381805658340454,"218":-1.0750597715377808,"219":-3.8299720287323,"220":0.4545856714248657,"221":-1.5559295415878296,"222":1.1299653053283691,"223":1.0053064823150635,"224":1.2093040943145752,"225":0.8580994009971619,"226":-1.671034336090088,"227":0.9376130700111389,"228":-0.4140132963657379,"229":0.7651139497756958,"230":-0.7284756302833557,"231":0.9297130107879639,"232":-0.9187507033348083,"233":-0.08752887696027756,"234":0.8981590270996094,"235":-3.7477822303771973,"236":0.705917477607727,"237":-1.2087794542312622,"238":0.8009198307991028,"239":1.113663673400879,"240":11.851168632507324,"241":-1.1123340129852295,"242":4.099615097045898,"243":3.8739826679229736,"244":2.2552738189697266,"245":-0.7454429268836975,"246":-0.669948160648346,"247":7.853679656982422,"248":-0.3643589913845062,"249":7.820324420928955,"250":-7.186211585998535,"251":3.3996567726135254,"252":-0.9982184171676636,"253":0.3098929524421692,"254":1.555673360824585,"255":0.714532732963562,"256":3.220200300216675,"257":-3.044783353805542,"258":1.3854159116744995,"259":3.224060297012329,"260":-1.6023520231246948,"261":0.3422009348869324,"262":0.5488011240959167,"263":0.24877440929412842,"264":0.45800289511680603,"265":-5.649043083190918,"266":0.75822913646698,"267":5.674030780792236,"268":-0.7749897241592407,"269":5.219837188720703,"270":-3.700868606567383,"271":0.4059160649776459,"272":0.6234025359153748,"273":-0.25784555077552795,"274":0.49769970774650574,"275":3.061448335647583,"276":1.2279011011123657,"277":-0.30338191986083984,"278":0.8502448797225952,"279":0.31064125895500183,"280":0.36496469378471375,"281":-0.7408730387687683,"282":0.8828323483467102,"283":0.9052466750144958,"284":0.6212124824523926,"285":0.35044556856155396,"286":-1.1018054485321045,"287":-0.18299779295921326,"288":0.14750029146671295,"289":-0.1255447417497635,"290":0.16627159714698792,"291":0.7833111882209778,"292":-1.5352396965026855,"293":0.029484374448657036,"294":0.50472491979599,"295":-2.5959815979003906,"296":0.6707500219345093,"297":-0.7847410440444946,"298":0.3512479364871979,"299":0.7491981387138367,"300":11.68873405456543,"301":4.5419602394104,"302":7.016846179962158,"303":6.166337966918945,"304":3.849442481994629,"305":2.0161614418029785,"306":4.483096122741699,"307":0.12538973987102509,"308":-1.3071626424789429,"309":-0.004486204124987125,"310":-0.004906738642603159,"311":6.0127458572387695,"312":2.5905368328094482,"313":-2.6844241619110107,"314":2.7721362113952637,"315":6.051290035247803,"316":6.408502578735352,"317":-5.117510795593262,"318":2.365649700164795,"319":5.695725440979004,"320":0.4440535306930542,"321":-0.8731444478034973,"322":1.079119324684143,"323":1.3127697706222534,"324":1.4867286682128906,"325":0.7028369903564453,"326":-0.7160132527351379,"327":0.47233444452285767,"328":-0.5269010663032532,"329":0.3019598722457886,"330":-0.15614734590053558,"331":1.194871187210083,"332":-1.0362136363983154,"333":-0.5581534504890442,"334":1.0497626066207886,"335":-2.881589651107788,"336":0.8873650431632996,"337":-1.5042964220046997,"338":0.7669270634651184,"339":1.3675800561904907,"340":0.36286017298698425,"341":-1.8961572647094727,"342":1.2563116550445557,"343":1.3109614849090576,"344":1.153793215751648,"345":0.550455629825592,"346":-1.8433715105056763,"347":0.5179274082183838,"348":-0.3510066568851471,"349":0.5253828763961792,"350":-0.5547547340393066,"351":1.2405142784118652,"352":-1.2453715801239014,"353":-0.07928765565156937,"354":0.7805815935134888,"355":-2.9892876148223877,"356":0.8618367314338684,"357":-1.298075795173645,"358":0.6986206769943237,"359":1.2451235055923462,"360":0.24844983220100403,"361":0.19366911053657532,"362":0.6428310871124268,"363":0.5080984830856323,"364":0.5217240452766418,"365":0.27147457003593445,"366":-0.06635931134223938,"367":-0.4202216863632202,"368":0.2633224427700043,"369":-0.45808619260787964,"370":0.4098569452762604,"371":0.5534677505493164,"372":-0.8101711273193359,"373":-0.4140404164791107,"374":0.39721381664276123,"375":-1.445308804512024,"376":0.49693652987480164,"377":-0.552676796913147,"378":0.20516113936901093,"379":0.48907601833343506,"380":0.390653520822525,"381":-1.924389123916626,"382":1.2668750286102295,"383":1.1023751497268677,"384":1.2205054759979248,"385":0.7391703724861145,"386":-1.8604882955551147,"387":0.6851271390914917,"388":-0.5231124758720398,"389":0.6792725324630737,"390":-0.564574122428894,"391":1.1541239023208618,"392":-0.9833557605743408,"393":-0.18515464663505554,"394":0.972357451915741,"395":-3.030630350112915,"396":0.7943903803825378,"397":-1.2867990732192993,"398":0.8869819641113281,"399":1.2604271173477173}},"outputBias":{"rows":20,"columns":1,"weights":{"0":-4.1207475662231445,"1":6.301408767700195,"2":-2.8952581882476807,"3":-1.796010971069336,"4":-2.392453908920288,"5":-7.282751083374023,"6":9.218382835388184,"7":-12.753070831298828,"8":-1.828611969947815,"9":-13.319791793823242,"10":-6.212367057800293,"11":-1.6148875951766968,"12":-5.3595147132873535,"13":-6.048789978027344,"14":-2.7518911361694336,"15":7.046736240386963,"16":-2.5889227390289307,"17":-1.9095127582550049,"18":-2.0128800868988037,"19":-1.7613239288330078}},"cellActivationMatrix":{"rows":20,"columns":1,"weights":{"0":-1.0837068557739258,"1":-1.8369652032852173,"2":-0.7592708468437195,"3":-0.9234707355499268,"4":-0.6519325971603394,"5":-1.1771568059921265,"6":-2.0190467834472656,"7":1.1944295167922974,"8":0.07289476692676544,"9":0.9938258528709412,"10":-1.608377456665039,"11":-0.9430820345878601,"12":-2.0901763439178467,"13":0.5771181583404541,"14":0.16126877069473267,"15":-2.5035946369171143,"16":-0.15023308992385864,"17":0.8812390565872192,"18":0.12417120486497879,"19":-0.9208163022994995}},"cellActivationHidden":{"rows":20,"columns":20,"weights":{"0":0.010750241577625275,"1":0.684075653553009,"2":0.3371357023715973,"3":0.16063915193080902,"4":-0.0429961271584034,"5":0.047246284782886505,"6":0.4936588406562805,"7":-0.38352808356285095,"8":-0.41631442308425903,"9":-0.47884300351142883,"10":0.583691418170929,"11":0.06255524605512619,"12":0.7169243097305298,"13":-0.6771730184555054,"14":-0.14034585654735565,"15":1.5963995456695557,"16":0.212673619389534,"17":-0.1845874786376953,"18":-0.29291194677352905,"19":0.1870936155319214,"20":-0.14293409883975983,"21":-1.5296118259429932,"22":0.5666248202323914,"23":0.8564426302909851,"24":0.326269268989563,"25":-0.04400746151804924,"26":-3.1804604530334473,"27":0.5251116752624512,"28":-0.03933705762028694,"29":0.40998828411102295,"30":-0.41218745708465576,"31":1.1569246053695679,"32":0.6892774105072021,"33":-0.7025330066680908,"34":0.15713080763816833,"35":-0.8169521689414978,"36":-0.1146334856748581,"37":-0.6132643222808838,"38":0.049964386969804764,"39":0.7348417639732361,"40":0.011023039929568768,"41":0.39081189036369324,"42":0.05718664079904556,"43":-0.10761504620313644,"44":-0.16850581765174866,"45":0.025044061243534088,"46":0.41492152214050293,"47":-0.06379467993974686,"48":-0.29146939516067505,"49":-0.15762877464294434,"50":0.29416337609291077,"51":-0.034191202372312546,"52":0.3727342486381531,"53":-0.44462689757347107,"54":-0.18460139632225037,"55":0.7947047352790833,"56":0.03397372364997864,"57":0.07180348038673401,"58":-0.20095914602279663,"59":-0.11906061321496964,"60":-0.12074901163578033,"61":0.2622479200363159,"62":-0.3004400134086609,"63":-0.3157055377960205,"64":-0.2239331156015396,"65":-0.2322622388601303,"66":0.3137355446815491,"67":-0.06954171508550644,"68":-0.3453500270843506,"69":-0.15522347390651703,"70":0.1695924550294876,"71":-0.34343498945236206,"72":0.19675013422966003,"73":-0.1757352650165558,"74":-0.2707735598087311,"75":0.21224358677864075,"76":-0.3978990912437439,"77":0.35886654257774353,"78":-0.25814759731292725,"79":-0.3741939663887024,"80":-0.21576140820980072,"81":0.03193987160921097,"82":-0.2209492325782776,"83":-0.2974397540092468,"84":-0.2567681074142456,"85":-0.23482754826545715,"86":0.06140748783946037,"87":0.07677367329597473,"88":-0.32775169610977173,"89":-0.010020977817475796,"90":0.0036948020569980145,"91":-0.26658007502555847,"92":0.24450336396694183,"93":-0.026361841708421707,"94":-0.25705933570861816,"95":0.30134108662605286,"96":-0.3188970685005188,"97":0.31623366475105286,"98":-0.35637637972831726,"99":-0.35451793670654297,"100":0.16732001304626465,"101":0.7854890823364258,"102":0.40967753529548645,"103":0.19956642389297485,"104":0.08260010927915573,"105":0.2524394094944,"106":0.764109194278717,"107":-0.62789386510849,"108":-0.4097176194190979,"109":-0.6810406446456909,"110":0.8227424621582031,"111":0.14971722662448883,"112":0.501207172870636,"113":-0.692786693572998,"114":0.053913116455078125,"115":1.689963698387146,"116":0.14090421795845032,"117":-0.26933175325393677,"118":-0.21477384865283966,"119":0.20688582956790924,"120":-2.478677988052368,"121":-1.7683191299438477,"122":0.7334919571876526,"123":1.9549434185028076,"124":1.5084477663040161,"125":0.5795562267303467,"126":-3.0818517208099365,"127":0.31416064500808716,"128":-0.1895403414964676,"129":0.19338028132915497,"130":-0.13845105469226837,"131":2.3057682514190674,"132":-0.14691711962223053,"133":0.4699527621269226,"134":0.7062567472457886,"135":-1.2654653787612915,"136":0.4165544807910919,"137":-1.928499698638916,"138":0.31595659255981445,"139":2.0193448066711426,"140":-0.16079305112361908,"141":-1.0989115238189697,"142":-0.7077929973602295,"143":-0.5095735788345337,"144":-0.32835862040519714,"145":-0.3137260973453522,"146":-1.7974927425384521,"147":1.2027612924575806,"148":-0.09754694253206253,"149":1.2133457660675049,"150":-1.2872904539108276,"151":-0.5400835275650024,"152":-1.9749819040298462,"153":0.974557638168335,"154":-0.20511138439178467,"155":-3.2383029460906982,"156":-0.8181784152984619,"157":0.3576310873031616,"158":-0.031198306009173393,"159":-0.3813727796077728,"160":-0.2934879958629608,"161":-0.09273282438516617,"162":-0.34763815999031067,"163":-0.3551148772239685,"164":-0.34841787815093994,"165":-0.2828870415687561,"166":-0.10047157108783722,"167":0.2277016043663025,"168":-0.3632053732872009,"169":0.17185060679912567,"170":-0.18151146173477173,"171":-0.3148646950721741,"172":0.303219199180603,"173":0.07039613276720047,"174":-0.3281046748161316,"175":0.344940185546875,"176":-0.3494071662425995,"177":0.32970166206359863,"178":-0.26300933957099915,"179":-0.31055590510368347,"180":-0.03619725629687309,"181":-1.4152960777282715,"182":-0.6925696730613708,"183":-0.507167637348175,"184":-0.28057199716567993,"185":-0.29692015051841736,"186":-2.0968375205993652,"187":1.2949849367141724,"188":-0.0865045115351677,"189":1.3233693838119507,"190":-1.3447585105895996,"191":-0.5453517436981201,"192":-2.1058249473571777,"193":0.9364537000656128,"194":-0.2131638377904892,"195":-3.689939260482788,"196":-0.801397979259491,"197":0.403697669506073,"198":-0.1086299791932106,"199":-0.47429922223091125,"200":0.1603136956691742,"201":1.8126879930496216,"202":0.7528105974197388,"203":0.46445339918136597,"204":0.29948553442955017,"205":0.22884000837802887,"206":2.5514726638793945,"207":-2.86466121673584,"208":-0.008964224718511105,"209":-2.7968156337738037,"210":2.829589366912842,"211":0.5894415378570557,"212":2.225156545639038,"213":-0.9180128574371338,"214":0.14883530139923096,"215":6.907710552215576,"216":0.7370978593826294,"217":-0.32297396659851074,"218":0.06599605083465576,"219":0.48282182216644287,"220":-0.1818324327468872,"221":0.17199502885341644,"222":-0.32525503635406494,"223":-0.2825724482536316,"224":-0.27878499031066895,"225":-0.15182603895664215,"226":0.20686250925064087,"227":-0.02843371219933033,"228":-0.36442145705223083,"229":-0.010184945538640022,"230":0.16055651009082794,"231":-0.4081844389438629,"232":0.21810050308704376,"233":-0.10315050929784775,"234":-0.2676078677177429,"235":0.127241313457489,"236":-0.29149946570396423,"237":0.2433805763721466,"238":-0.35321661829948425,"239":-0.2841549813747406,"240":0.2921423316001892,"241":-0.49870315194129944,"242":0.7962799668312073,"243":0.7128621935844421,"244":0.561979353427887,"245":0.4990130662918091,"246":2.186969757080078,"247":-0.23893897235393524,"248":-0.2566060423851013,"249":-0.274152547121048,"250":0.13406725227832794,"251":0.6369290351867676,"252":-1.9682543277740479,"253":1.0188839435577393,"254":0.157263845205307,"255":-2.657890558242798,"256":0.6674079895019531,"257":-0.7670266032218933,"258":0.33441367745399475,"259":0.6800484657287598,"260":0.03596451133489609,"261":0.11621681600809097,"262":-0.3208334147930145,"263":-0.36044591665267944,"264":-0.15754848718643188,"265":-0.4071078598499298,"266":-0.4151729643344879,"267":0.35385847091674805,"268":-0.17929190397262573,"269":0.32842764258384705,"270":-0.3044095039367676,"271":-0.24597281217575073,"272":0.2961403429508209,"273":0.13628971576690674,"274":-0.266959547996521,"275":1.6238491535186768,"276":-0.1939978003501892,"277":0.330257773399353,"278":-0.19268260896205902,"279":-0.2177523821592331,"280":-0.1436055302619934,"281":0.01532499585300684,"282":-0.3221213221549988,"283":-0.23408682644367218,"284":-0.2553107738494873,"285":-0.10582371056079865,"286":0.015056652948260307,"287":0.12293118983507156,"288":-0.29007089138031006,"289":0.11766615509986877,"290":-0.083583764731884,"291":-0.3496052026748657,"292":0.4239943027496338,"293":0.037259429693222046,"294":-0.2907644808292389,"295":0.523468017578125,"296":-0.2486274391412735,"297":0.30665653944015503,"298":-0.35148414969444275,"299":-0.32975122332572937,"300":0.22992514073848724,"301":-0.7977070808410645,"302":0.435486376285553,"303":0.4360693395137787,"304":0.23800556361675262,"305":0.29429149627685547,"306":1.9928828477859497,"307":0.7388107776641846,"308":0.3401545286178589,"309":0.78931725025177,"310":-0.7822082042694092,"311":0.46018946170806885,"312":-0.5299347639083862,"313":-0.03538358211517334,"314":0.21035011112689972,"315":-0.9294785261154175,"316":0.33244213461875916,"317":-0.37149778008461,"318":0.24198736250400543,"319":0.3288898766040802,"320":-0.21068847179412842,"321":0.4552072286605835,"322":-0.158554807305336,"323":-0.17639264464378357,"324":-0.2824004888534546,"325":-0.13673299551010132,"326":0.45243459939956665,"327":-0.04589154198765755,"328":-0.3176478445529938,"329":-0.17462733387947083,"330":0.2454896718263626,"331":-0.3000609278678894,"332":0.44612962007522583,"333":-0.3422894775867462,"334":-0.1736745685338974,"335":0.8332624435424805,"336":-0.24442920088768005,"337":0.1883947104215622,"338":-0.3682081401348114,"339":-0.24971449375152588,"340":0.14539805054664612,"341":-0.11687088012695312,"342":0.18917158246040344,"343":0.28012704849243164,"344":0.20998980104923248,"345":0.18814289569854736,"346":-0.18382452428340912,"347":0.04837272688746452,"348":0.3163148760795593,"349":0.05204547941684723,"350":-0.1306101232767105,"351":0.3900063931941986,"352":-0.26889291405677795,"353":0.16293567419052124,"354":0.2929675579071045,"355":-0.1987144947052002,"356":0.3829791843891144,"357":-0.29169726371765137,"358":0.35842034220695496,"359":0.2921837568283081,"360":-0.25469058752059937,"361":-0.08171107620000839,"362":-0.4810051918029785,"363":-0.5310691595077515,"364":-0.38340669870376587,"365":-0.28786012530326843,"366":-0.022844981402158737,"367":0.43483564257621765,"368":-0.3638931214809418,"369":0.4102602005004883,"370":-0.41425469517707825,"371":-0.5157029628753662,"372":0.3901976943016052,"373":0.17778150737285614,"374":-0.3263368010520935,"375":0.5989240407943726,"376":-0.5782759189605713,"377":0.41539692878723145,"378":-0.3411862254142761,"379":-0.5575741529464722,"380":-0.1495155543088913,"381":0.18731755018234253,"382":-0.2646409571170807,"383":-0.25568369030952454,"384":-0.330264687538147,"385":-0.2406860589981079,"386":0.1755865067243576,"387":-0.07736489176750183,"388":-0.2897229492664337,"389":-0.11533568799495697,"390":0.1952674835920334,"391":-0.36351239681243896,"392":0.15932297706604004,"393":-0.1420542150735855,"394":-0.29489102959632874,"395":0.19997447729110718,"396":-0.364114373922348,"397":0.3307451903820038,"398":-0.29326507449150085,"399":-0.2887831926345825}},"cellActivationBias":{"rows":20,"columns":1,"weights":{"0":-1.2726858854293823,"1":1.7900147438049316,"2":-1.2190269231796265,"3":-2.5771946907043457,"4":-1.9854031801223755,"5":-1.0933945178985596,"6":1.937649130821228,"7":-1.2312707901000977,"8":-0.048167645931243896,"9":-1.2838718891143799,"10":5.889019012451172,"11":-2.7572669982910156,"12":0.1033153086900711,"13":0.2576248049736023,"14":-0.8024381995201111,"15":-3.401029586791992,"16":-0.37739503383636475,"17":2.415832281112671,"18":-0.12326870858669281,"19":-2.631767988204956}}}],"outputConnector":{"rows":1,"columns":20,"weights":{"0":-2.426694869995117,"1":-0.008181060664355755,"2":-0.05386803671717644,"3":-0.01607334241271019,"4":-0.07525774836540222,"5":-2.6235451698303223,"6":-0.011727627366781235,"7":0.7568090558052063,"8":0.00006362019485095516,"9":0.7072783708572388,"10":-0.5744994878768921,"11":0.031773339956998825,"12":-0.6381275653839111,"13":0.7881343364715576,"14":-0.06774048507213593,"15":-2.052968740463257,"16":-0.04381295293569565,"17":0.04339699074625969,"18":0.00019588874420151114,"19":-0.003785147797316313}},"output":{"rows":1,"columns":1,"weights":{"0":1.4265462160110474}},"inputLookup":null,"inputLookupLength":null,"outputLookup":null,"outputLookupLength":null}